{
"model_data": {
"model_type": "gcntf",
"nparams": 4,
"nblocks": 1,
"nlayers": 10,
"nchannels": 16,
"kernel_size": 3,
"dilation_growth": 2,
"tfilm_block_size": 128
},
"state_dict": {
"blocks.0.layers.0.conv.weight": [
[
[
0.00019832607358694077,
3.100359390373342e-05,
0.00014391762670129538
]
],
[
[
-4.503606760408729e-05,
5.916485679335892e-05,
-1.1514605830598157e-05
]
],
[
[
-0.8501923084259033,
-1.656674861907959,
-0.8009692430496216
]
],
[
[
-4.5562508603325114e-05,
3.0036184398340993e-05,
1.620640432520304e-05
]
],
[
[
-2.2789467038819566e-05,
-1.9874240024364553e-05,
-1.7694474081508815e-05
]
],
[
[
-0.00012667600822169334,
8.5467952885665e-05,
4.351605457486585e-05
]
],
[
[
-4.821871698368341e-05,
-3.2492418540641665e-05,
8.487146988045424e-05
]
],
[
[
-0.0003130676341243088,
2.8872645998490043e-05,
0.0003097624285146594
]
],
[
[
0.021562667563557625,
0.02158782258629799,
0.021487774327397346
]
],
[
[
-7.04371341271326e-05,
-4.997715586796403e-05,
0.00010812372784130275
]
],
[
[
5.773272278020158e-07,
-7.60590751269774e-07,
1.734167938138853e-07
]
],
[
[
-3.279013617429882e-05,
-2.1906650999881094e-06,
3.179560007993132e-05
]
],
[
[
-8.940271072788164e-05,
-4.115768660994945e-06,
0.00010327270865673199
]
],
[
[
9.425384632777423e-05,
7.638160604983568e-05,
-9.218785999109969e-05
]
],
[
[
0.00266488385386765,
0.0035810263361781836,
0.004471562337130308
]
],
[
[
7.081016661913964e-08,
-1.993881966200206e-07,
1.0824324903069282e-07
]
],
[
[
-8.339712564975343e-08,
-8.195753764539404e-08,
-8.095484105297146e-08
]
],
[
[
-3.205147518919871e-12,
-3.110667973205139e-12,
-2.9745305610978656e-12
]
],
[
[
0.20507992804050446,
0.23011882603168488,
0.19797565042972565
]
],
[
[
-1.4054962705831175e-12,
-1.55099392530611e-12,
-1.7013565035972622e-12
]
],
[
[
5.535887748209234e-09,
6.917410200202312e-09,
1.030053908834816e-08
]
],
[
[
1.294690136349752e-11,
1.5969933708781525e-11,
1.5602803771219698e-11
]
],
[
[
-1.5605740658064526e-11,
-1.5272106496100335e-11,
-1.4922478183687637e-11
]
],
[
[
-1.897272478013079e-10,
-1.730780657682729e-10,
-1.576766772704019e-10
]
],
[
[
0.007991515100002289,
0.007914998568594456,
0.007764668669551611
]
],
[
[
-2.9654079192198424e-10,
-2.948185862106101e-10,
-2.89336166137133e-10
]
],
[
[
1.1435215838476176e-15,
1.5096116588706496e-15,
1.892668015585422e-15
]
],
[
[
-1.6888598158848467e-11,
-1.3807696305767614e-11,
-9.929307376310703e-12
]
],
[
[
-3.426822714480693e-11,
-3.632251444063428e-11,
-3.681017990420088e-11
]
],
[
[
7.963627535190199e-10,
8.413010288421674e-10,
8.922017014079131e-10
]
],
[
[
0.0047303736209869385,
0.004820013418793678,
0.004948010202497244
]
],
[
[
1.0170383327505875e-17,
1.7073876382737672e-17,
2.616511740156503e-17
]
]
],
"blocks.0.layers.0.conv.bias": [
-4.6928042138461024e-05,
5.376049116989634e-08,
0.0241964440792799,
-7.43081841392268e-07,
-3.7409696233225986e-05,
-1.2739296835206915e-06,
-1.2855614386353409e-06,
-6.569432116521057e-06,
-0.017129309475421906,
1.9681124285853002e-06,
-2.6651487683437836e-09,
-5.705708190362202e-07,
-2.4575942916271742e-06,
-5.55590395379113e-06,
-0.023134609684348106,
-3.3513642971882973e-09,
-1.1368381791498905e-07,
-8.174868421084724e-11,
1.8080987930297852,
-7.960612204149786e-12,
-6.217389625362557e-08,
-1.2789562464643467e-10,
-4.090948066415301e-12,
-2.652203456854352e-10,
-0.035594239830970764,
-9.723741256628671e-11,
-1.3885817680154428e-14,
-5.014400006331243e-10,
-3.4911065704967825e-10,
-2.31662600214122e-08,
-0.009921478107571602,
-1.7959758165245546e-15
],
"blocks.0.layers.0.tfilm.lstm.weight_ih_l0": [
[
1.4278010995738555e-09,
-2.196048481950541e-10,
-1.1357938092260156e-05,
2.352421313300823e-10,
-1.5916576501240343e-08,
7.503507815087573e-10,
2.5536436853990097e-10,
3.9934106021988214e-10,
4.952708877681289e-06,
4.663097685764228e-10,
1.6260576869361887e-12,
-1.401374155607371e-10,
3.8993439033241373e-10,
-1.8086306896591964e-09,
-6.477702754636994e-06,
1.2467548694827801e-12,
-0.00010796719288919121,
-1.0160584679397289e-05,
-0.00010796719288919121,
-6.847959593869746e-05
],
[
1.7383660066982998e-09,
-2.7371405489362566e-11,
-1.3554686120187398e-06,
1.9047556934492782e-11,
3.2295377483393395e-10,
-8.517196496693469e-12,
1.0853278345490658e-11,
1.370032125941334e-11,
-3.8950972225393343e-07,
1.6745960174091579e-10,
-3.826129815536969e-14,
-9.612036860895401e-12,
-1.953706467439087e-11,
-1.411414648350151e-11,
1.1527195908911381e-07,
-2.439966360467255e-13,
-3.5355507861822844e-05,
-2.3266846937985974e-07,
-3.5355507861822844e-05,
-9.690802471595816e-06
],
[
1.2683006389124785e-05,
-9.59377757681068e-07,
0.07641706615686417,
9.958792190900567e-08,
-2.4141795620380435e-06,
3.556249055236549e-07,
2.1307150177563017e-07,
1.5972473192960024e-06,
0.001212231582030654,
1.3746392824032228e-07,
-1.0086225604721832e-10,
-1.2056694913553656e-06,
2.600924347007094e-07,
-1.1966633906013158e-07,
0.0018838064279407263,
6.574563116146237e-11,
0.28941860795021057,
0.05016476660966873,
0.28941860795021057,
0.10142910480499268
],
[
-1.2720993702863836e-10,
-9.583216165065522e-12,
-4.4845626234746305e-07,
-9.674274402404759e-12,
-5.607473929636342e-10,
-2.882116767466414e-11,
1.6031647580641573e-12,
-5.668638128342174e-11,
4.549617074189882e-07,
7.724600473157928e-12,
2.215276031190816e-13,
-2.7250627969432895e-12,
-1.2692565097907615e-12,
-4.141429213455616e-11,
-3.4959521144628525e-07,
-1.302091572584485e-13,
-3.5294835925014922e-06,
1.1102944199592457e-06,
-3.5294835925014922e-06,
-2.5617289338697447e-06
],
[
-2.660414777366782e-09,
-1.2433805374190143e-10,
-6.8373806243471336e-06,
5.435294141847846e-12,
1.4266172687626977e-09,
-6.71594932444286e-11,
-5.910795464192375e-11,
6.148851428022795e-10,
6.39957261228119e-06,
4.820097099234033e-11,
4.4654813700917284e-12,
-2.731576909109634e-10,
-2.935003629023214e-10,
1.867121124377036e-09,
-2.7859025522047887e-06,
-3.1134797973293715e-13,
-5.376484841690399e-05,
1.4967473589422298e-06,
-5.376484841690399e-05,
-3.732172990567051e-05
],
[
2.2268609178865972e-10,
-1.1576988282954725e-12,
-9.127261790808916e-08,
2.2596531850521684e-12,
4.191652927532097e-11,
5.868966770905537e-12,
2.4627862683229695e-12,
1.0820532837796382e-11,
-4.1647680859568936e-07,
3.153808117439816e-11,
-1.5212237394236772e-14,
1.0589759104340235e-11,
-3.3472092285380395e-12,
2.4059683065291715e-11,
-1.7386021511356375e-08,
-7.40720012453247e-14,
-2.9756020012428053e-06,
-3.950571070276965e-08,
-2.9756020012428053e-06,
-1.045453927872586e-06
],
[
1.449251940677243e-09,
2.9285403962964196e-11,
-1.1455011872385512e-06,
8.936045479968069e-12,
-1.0647279724551595e-09,
8.612015961473318e-11,
-2.3130997117704055e-11,
-1.3268629250884345e-10,
-5.944943950453307e-07,
3.277833213188863e-11,
4.999388015657254e-14,
3.0906471826241955e-11,
2.917712946248763e-11,
-1.667380677972119e-10,
-2.3108279378902807e-07,
3.095698339599523e-13,
-8.80126390256919e-06,
7.572808868872016e-08,
-8.80126390256919e-06,
-7.189260486484272e-06
],
[
2.9633278253102247e-14,
-2.5662082864513075e-15,
1.8212289454311303e-09,
-7.432664137212597e-15,
-3.1128487374548763e-12,
-5.220849184288216e-14,
3.4184887722204377e-14,
1.3736617908693266e-13,
-3.5516485308306756e-09,
4.0196922938655344e-13,
-4.584340304491694e-16,
-1.8307740306394704e-13,
-1.775847670954997e-13,
1.867932891697066e-12,
9.26825061142722e-10,
-4.569298058139642e-16,
-1.6874462005489477e-07,
-3.971896145316123e-09,
-1.6874462005489477e-07,
-1.671485883036894e-08
],
[
2.499302986791463e-10,
2.803894096070625e-11,
-2.3900454948488914e-07,
1.2788265238428131e-11,
3.8745309738352773e-10,
-8.080835479928883e-12,
-7.334257333402316e-12,
-7.970459708905864e-11,
3.6002816727886966e-07,
3.5310379620234755e-10,
-1.060637648130254e-13,
5.378752304663337e-11,
-9.854405486064977e-11,
1.062531951312451e-09,
-5.563066451941268e-07,
1.678856435382431e-13,
-2.1771072624687804e-06,
-4.656243618228473e-06,
-2.1771072624687804e-06,
-2.2383890154742403e-06
],
[
2.3954001004966585e-09,
1.53517643042278e-10,
-2.1661996925104177e-06,
7.283807584856916e-11,
-6.3549934203877e-09,
6.019805764978514e-10,
-5.6321960983929387e-11,
-3.4782687841072857e-10,
-1.1401450592529727e-06,
-1.1230445393084487e-11,
-6.463565441336069e-14,
-1.5986365009545978e-10,
2.2155811907342837e-10,
1.4359405886565924e-09,
-3.3332946713926503e-06,
1.1042387707341228e-12,
-3.2774747523944825e-05,
5.962188879493624e-06,
-3.2774747523944825e-05,
-2.4036668037297204e-05
],
[
-1.3791506825455713e-10,
2.064434560800077e-11,
-1.3287580031828838e-06,
1.198375166461263e-11,
-1.7444111710673837e-09,
-7.532543339072717e-11,
-2.9590201816587225e-11,
-1.1079839129513047e-10,
-1.794188960957399e-06,
2.0886319063162517e-10,
-8.074957261010318e-13,
8.230977011081109e-11,
1.2774005464510907e-10,
4.508992623719621e-10,
7.559289656455803e-07,
3.9173628533714644e-13,
-1.1427727258706e-05,
8.294930466945516e-07,
-1.1427727258706e-05,
-7.345161520788679e-06
],
[
5.178562023644417e-10,
-1.3512066899395991e-12,
-2.405192844889825e-07,
-4.219088186457887e-12,
-2.4383070562628006e-10,
1.0835010839926884e-11,
2.5687465392623676e-13,
3.2976631408193624e-12,
3.086019830789155e-07,
8.89726053249218e-12,
1.3024211531042617e-14,
2.2237186050877433e-11,
1.541538945104559e-11,
-1.4186042618380412e-10,
5.905586064613999e-08,
-6.945771133812575e-14,
-2.6973018520948244e-06,
-3.306656424229004e-07,
-2.6973018520948244e-06,
-1.8416305920254672e-06
],
[
1.8387087685756143e-10,
8.953684690372887e-13,
-1.1857861892394794e-07,
1.0850960971767187e-12,
4.0558480185470813e-11,
6.5127014024779495e-12,
1.6043017608824428e-12,
7.236184308007099e-12,
1.4182438690113486e-07,
1.6885631781704546e-11,
-8.937860319208329e-15,
-2.4567045446566294e-12,
-1.492221602360233e-12,
7.371325078109336e-11,
-2.8739099988683847e-08,
2.256904210772622e-14,
-2.593168119346956e-06,
-2.956112155061419e-08,
-2.593168119346956e-06,
-1.0656527820174233e-06
],
[
-4.489399074714129e-09,
1.393849480280096e-10,
-8.12321923149284e-06,
-1.544904898453936e-10,
9.228199537858472e-09,
2.9010807645057923e-10,
-2.8915536631757277e-10,
-1.2858425435524623e-09,
6.451598437706707e-07,
5.219121246291536e-10,
-5.226923494722202e-12,
2.441126412122685e-09,
-1.3739390181122246e-10,
-3.961104333427556e-09,
-6.021420176693937e-06,
-1.7385893072430214e-12,
-9.047562343766913e-05,
2.837337160599418e-05,
-9.047562343766913e-05,
-5.323997902451083e-05
],
[
-7.768312035305591e-12,
-3.848792351447347e-15,
-3.547254223690288e-08,
4.592648418684508e-13,
-5.18220232351152e-12,
1.8196825068896721e-13,
3.086741880977892e-14,
4.139852523288301e-13,
-1.215810829791053e-08,
-9.069426524892232e-13,
-1.9384154180336795e-15,
-3.18918979766436e-12,
1.6548848879791023e-12,
-4.666578321682602e-12,
-2.184148684136744e-08,
-6.39191867244862e-16,
-1.805433385015931e-07,
5.075015252486992e-08,
-1.805433385015931e-07,
-1.3943267163085693e-07
],
[
1.8688261008148466e-11,
-1.2142006150517304e-12,
-5.4792820947113796e-08,
-4.4933981123602973e-13,
-1.0652478898975914e-11,
8.989043233723071e-13,
2.5262070538732695e-13,
1.985451733577115e-12,
-5.9406257690852726e-08,
3.649564591506893e-12,
-4.3716251322059585e-15,
-6.6838318733830615e-12,
-2.376529149254042e-13,
-8.933814625577963e-12,
1.8246458566295587e-08,
3.2586183337996507e-15,
-4.5795130176884413e-07,
7.456456074805828e-08,
-4.5795130176884413e-07,
-3.446695302500302e-07
],
[
2.177559244032068e-09,
-8.82203754493105e-11,
-7.343679953919491e-06,
2.908797924749962e-10,
-1.0097821245835803e-08,
9.367313591468474e-10,
3.58733209804285e-10,
1.1774424768518088e-09,
-1.2258213928362238e-06,
4.752000459795624e-10,
3.985374096709959e-12,
-2.5963892147373713e-10,
7.627316001013185e-10,
-2.4001898246694964e-09,
-3.3943579182960093e-06,
2.051108848738492e-12,
-0.00010055731399916112,
-6.363717147905845e-06,
-0.00010055731399916112,
-6.406657485058531e-05
],
[
3.5841221102117515e-09,
-1.640750729725582e-11,
-1.5092184639797779e-06,
2.029320461671702e-11,
3.129787540245843e-10,
6.784430656159302e-11,
1.4606949005381564e-13,
2.0923943133688283e-11,
-1.0141451411982416e-06,
-1.140538705146632e-10,
-1.3780976685327795e-13,
-1.3401886371500193e-11,
8.270008289290587e-11,
8.927376060618997e-10,
4.336341135058319e-07,
-2.4662159792653016e-13,
-2.111692629114259e-05,
2.044188107674927e-07,
-2.111692629114259e-05,
-8.005987183423713e-06
],
[
3.879721134580905e-06,
-1.069258928509953e-06,
0.03873502463102341,
4.163637186138658e-07,
1.3019178368267603e-05,
1.0132685446251344e-07,
-1.0201490141525937e-07,
-1.9303035614370856e-08,
0.012165920808911324,
3.521471626299899e-06,
3.993413155711778e-09,
2.9318839551706333e-06,
7.232543453028484e-09,
2.247721113235457e-06,
-0.0010456482414156199,
2.626652007009511e-09,
0.37035831809043884,
0.07363065332174301,
0.37035831809043884,
0.09957129508256912
],
[
1.142346495175417e-10,
3.3535583164601146e-12,
-4.570785279156553e-07,
-4.4796900564025854e-12,
-7.126921275357745e-11,
8.03141927963047e-12,
-2.394887239909327e-12,
-5.2192215826973865e-11,
4.790148864231014e-07,
1.4021480157500044e-11,
4.2918633599321743e-13,
6.334996416335059e-11,
-5.064575061414223e-12,
-1.6837377325717995e-10,
-2.7295129712001653e-07,
-2.791740634239953e-14,
-3.43302485816821e-06,
1.0227352049696492e-06,
-3.43302485816821e-06,
-2.5127542357950006e-06
],
[
-4.887621862792457e-09,
-2.3021956563340495e-10,
-6.478081104432931e-06,
-7.364880406923735e-12,
1.56156598762891e-09,
1.1487775140872625e-11,
-4.648231799464497e-11,
7.725389217227985e-10,
5.758301995228976e-06,
5.943432551669403e-11,
5.289731760255156e-12,
-1.688000711430604e-10,
-5.231296507091088e-10,
2.7801718704978384e-09,
2.501456265235902e-06,
3.7061323519653466e-14,
-5.19191162311472e-05,
3.6153776363789802e-06,
-5.19191162311472e-05,
-3.700243178172968e-05
],
[
1.4903735190419098e-10,
-1.400864775742694e-12,
-1.312697719413336e-07,
2.9801324168826637e-12,
6.20079196322898e-11,
7.135439808458877e-12,
9.912385582483418e-13,
5.1181385518628275e-12,
-3.273176503171271e-07,
-1.046752181460553e-11,
2.6865193639716506e-15,
4.875985032404273e-12,
1.1675700337110406e-11,
-2.5479366880243326e-11,
3.804353809755412e-08,
-7.27928595222263e-14,
-2.583924697319162e-06,
-5.292347182717094e-08,
-2.583924697319162e-06,
-6.948146733520844e-07
],
[
1.60756341571755e-09,
4.171669260033539e-11,
-1.1425721595514915e-06,
2.1918534695575254e-11,
6.946597463919346e-11,
1.18504137058828e-10,
-2.0779088519273792e-11,
-8.099142884132604e-11,
-7.530405241595872e-07,
3.314120158859346e-11,
6.841727705209077e-13,
3.569070039510791e-11,
2.1969684751987906e-11,
-2.0597144823053526e-10,
-5.092441597298603e-07,
1.8538793276120374e-13,
-8.670980605529621e-06,
9.289005902246572e-07,
-8.670980605529621e-06,
-7.249765531014418e-06
],
[
1.1325012108653887e-12,
3.806716159199079e-14,
-1.3307850377231034e-09,
-1.1404721805342074e-14,
-2.739460134432159e-12,
-1.2292041841853452e-13,
-1.0782151742077216e-14,
5.6467170213769444e-14,
-4.6935766384592625e-09,
4.0478945607762273e-13,
4.44752754285118e-16,
-7.562392145875688e-14,
-2.0215186675217461e-13,
2.351608708109354e-12,
1.2383832848072984e-10,
-8.82808230814533e-16,
-7.758270470503703e-08,
-5.054712204355383e-09,
-7.758270470503703e-08,
-4.322722180205574e-09
],
[
-1.1008276235013881e-10,
1.9029583464558186e-11,
-1.094270558610333e-07,
1.179914586174613e-11,
4.871573144882291e-10,
3.4230806123664026e-12,
-4.687484775334205e-12,
-6.326492801855821e-11,
-8.852929056502035e-08,
2.896402007124266e-10,
-5.86388915397619e-14,
5.1506091058861614e-11,
-1.3625038597364636e-10,
1.0945481188073813e-09,
-5.741492827837646e-07,
2.380285909781704e-13,
-2.396285253780661e-06,
-5.252759819995845e-06,
-2.396285253780661e-06,
-2.7632240744424053e-06
],
[
5.03256547546016e-09,
2.0197407635258458e-10,
-1.294986873290327e-06,
4.591321767222212e-11,
-5.2710924514087765e-09,
4.644526707675567e-10,
-2.3427378093021645e-11,
-3.0123722960517796e-10,
-1.1168460787303047e-06,
-1.4673537385156976e-10,
-4.614758553588005e-13,
-3.169313977924304e-10,
1.1979724157118454e-10,
1.0422621654626596e-09,
-3.2016814657254145e-06,
8.503721815253384e-13,
-3.083596675423905e-05,
5.985149982734583e-06,
-3.083596675423905e-05,
-2.2802702005719766e-05
],
[
8.711164428687468e-11,
4.825149654830163e-11,
-9.678020660430775e-07,
-8.766481464361764e-12,
-1.8405277302235845e-09,
6.341655672814639e-11,
-3.704071077637039e-11,
-1.7237347660348235e-10,
-2.0256889001757372e-06,
1.077452918551991e-10,
-5.625082105838175e-13,
3.349028832033696e-10,
1.2186074371811628e-10,
3.8724567996695214e-10,
1.550556660845359e-08,
4.462102616651503e-13,
-1.1119508599222172e-05,
-5.348940135263547e-07,
-1.1119508599222172e-05,
-6.980265879974468e-06
],
[
-1.3231141182679096e-10,
2.5635956031611062e-12,
-2.0766105990333017e-07,
-1.0800307723895022e-13,
-2.0247309384657797e-10,
-5.533445229799483e-12,
3.3545965484604867e-12,
2.030721771295596e-11,
-2.9740721174675855e-07,
7.2584113199047895e-12,
9.07137304048634e-15,
1.2836591165021893e-11,
2.4044911894893772e-11,
-1.7283252953803618e-11,
-5.116329404586395e-08,
-2.596264615309916e-15,
-2.6355403406341793e-06,
-2.650372437074111e-07,
-2.6355403406341793e-06,
-1.928795654748683e-06
],
[
1.6613521669484044e-10,
-1.3408428013728102e-12,
-1.0068847444699713e-07,
2.8585783913570584e-12,
8.85453724230878e-11,
8.43963961216776e-12,
6.692580517553282e-13,
2.9307647888415778e-12,
1.7255290174489346e-07,
-8.263916352439782e-13,
2.1909406729722462e-14,
9.112077412054553e-12,
-6.0677699843803e-13,
-8.048162136731207e-11,
3.1728333738101355e-08,
2.71832608641576e-14,
-2.2816157070337795e-06,
-7.004027935408885e-08,
-2.2816157070337795e-06,
-7.731536584287824e-07
],
[
-2.8084181646903517e-09,
-1.621404399632098e-11,
-5.158308795216726e-06,
-2.9493946174241614e-10,
-2.0906516517982254e-09,
8.855661759454847e-10,
-3.0406105411273643e-10,
-1.5172342271441153e-09,
-7.165968781919219e-06,
3.361768086129757e-10,
-5.852207607404125e-12,
2.4923114683161884e-09,
3.0078381452192104e-10,
-3.1823297330646483e-09,
-6.716578809573548e-06,
1.2994204236921325e-12,
-8.765025995671749e-05,
3.147072857245803e-05,
-8.765025995671749e-05,
-4.947490742779337e-05
],
[
4.8996140478152483e-11,
-2.9723380874646654e-13,
-4.1547163931454634e-08,
6.16641232433629e-13,
-4.776564126868221e-12,
-6.495563093476819e-13,
4.861937607614046e-14,
7.002204805567347e-13,
-3.177562746259355e-08,
-8.222189205528418e-13,
-6.3180513643382955e-15,
-2.4155456281038656e-12,
5.693009540348737e-13,
1.402167336232718e-12,
-9.343842144460268e-09,
-6.802262195559189e-16,
-1.8487050112980796e-07,
6.835595911525161e-08,
-1.8487050112980796e-07,
-1.4510621326735418e-07
],
[
1.85295546267783e-11,
-1.5005938115361661e-12,
-5.322852203448747e-08,
-7.907643181752355e-13,
-1.0755904847337128e-11,
8.055186834395045e-13,
2.019846014620144e-13,
1.2034371979843805e-12,
-6.986155653976311e-08,
2.985606553651543e-12,
-5.542622770796611e-15,
-8.744492109580282e-12,
-6.946370019987602e-13,
-1.2412505918935057e-11,
3.3222427475720906e-08,
-2.3134600077377287e-15,
-4.4658796127805545e-07,
8.83645299154523e-08,
-4.4658796127805545e-07,
-3.404000779028138e-07
],
[
-1.7963664333819906e-07,
4.429866251598469e-08,
-0.0034696804359555244,
-5.639109179611523e-09,
1.1252986951149069e-06,
4.924260110783507e-08,
1.5967597022381597e-08,
6.004135144621614e-08,
-0.0004851012781728059,
5.958499826874686e-08,
-5.17672120448065e-11,
-1.9453226585142147e-08,
3.9103973392684566e-08,
3.6164777839076123e-07,
0.0006294188206084073,
1.29815602711858e-10,
-0.0004489691636990756,
-0.0014185969484969974,
-0.0004489691636990756,
0.003836258314549923
],
[
-9.036045298671525e-07,
7.00795865782311e-09,
-0.0034264191053807735,
8.177328147951357e-09,
3.750800203761173e-08,
1.666548676837465e-08,
4.228352334934016e-09,
1.6733679331082385e-08,
0.0001805119391065091,
3.318755759096348e-08,
9.589185695491054e-11,
-5.179105500019432e-08,
-2.6969646516050716e-09,
-7.605593737025629e-07,
2.4860171379259555e-06,
9.223290187154731e-11,
0.00012892740778625011,
-0.0002662493207026273,
0.00012892740778625011,
0.0022727670148015022
],
[
1.2037475244142115e-05,
-1.0228123983324622e-06,
0.08566618710756302,
1.7769242788290285e-07,
-2.1204639324423624e-06,
3.212882404568518e-07,
1.9759042402256455e-07,
1.6421105328845442e-06,
0.002460808726027608,
-1.0916273822658695e-06,
-2.518408537266481e-10,
-1.7163881693704752e-06,
4.060968876729021e-07,
-2.8969740384354736e-08,
0.0016833189874887466,
2.903944584797813e-10,
0.33138424158096313,
0.054442036896944046,
0.33138424158096313,
0.11006241291761398
],
[
1.8772732346405974e-07,
-3.867466347173831e-09,
-0.0004140071978326887,
4.185194413253157e-10,
-1.5988653956355847e-07,
-8.049513056107571e-09,
-3.519725177980604e-09,
-6.513301453736631e-09,
-0.0007414207211695611,
4.060526137550369e-08,
-1.821617162667266e-11,
-2.3317680231116356e-08,
3.57147662555235e-08,
2.5072010245708043e-08,
-5.240924656391144e-05,
-2.0121287448715552e-12,
0.0002070529299089685,
0.00042140803998336196,
0.0002070529299089685,
-0.0005351839354261756
],
[
-1.4296768995336606e-06,
-4.214875914954064e-08,
-7.529652793891728e-05,
3.2166301622282845e-08,
-3.08485198274866e-07,
1.0258368376980798e-08,
5.4288897821663795e-09,
-6.994026335860326e-08,
-0.0009529285016469657,
-7.378637434385382e-08,
1.1429658608452797e-10,
7.915165411986891e-09,
-2.489119799164996e-09,
-5.367211883822165e-07,
0.00023607895127497613,
-8.833162673527184e-11,
-0.0007899795309640467,
-0.0010231047635897994,
-0.0007899795309640467,
0.003947639372199774
],
[
-2.6718171852735395e-07,
-7.2764061442853745e-09,
-0.0017987304599955678,
3.2477536215935743e-09,
-6.80409684150618e-08,
3.961563965759751e-09,
9.958116553576701e-10,
5.010656778381417e-09,
0.0004479505296330899,
-4.1751736290507324e-08,
3.211547000558923e-11,
1.777160818505763e-08,
8.57088888750468e-09,
1.9063861600443488e-07,
1.617580528545659e-05,
1.1652820375296358e-10,
0.00032255492988042533,
-1.6042013157857582e-06,
0.00032255492988042533,
0.00045906033483333886
],
[
4.433955496097042e-07,
3.3127484089234827e-10,
-0.0006268643774092197,
-2.008977650902466e-09,
-1.0005570061366598e-07,
-5.816171988470842e-09,
-4.010465293191601e-09,
-7.067914697955757e-09,
-0.00046769401524215937,
-2.208968830075264e-08,
-2.918325650580478e-11,
-1.647334535448408e-08,
5.598043362198268e-09,
2.308286468633014e-07,
-0.00028854378615505993,
9.475131790281921e-11,
0.00039723148802295327,
0.00040731203625909984,
0.00039723148802295327,
-0.0014901540707796812
],
[
1.7827257181579625e-07,
1.715321995554575e-09,
0.00011028567678295076,
-2.9854599348233535e-10,
-1.6359923904474272e-07,
-1.468327542886172e-10,
-1.1997132454144577e-11,
-8.074219626230672e-10,
7.380231181741692e-06,
2.262172849043509e-08,
-8.306562902793413e-12,
-7.478060948251652e-10,
-1.977994212865042e-09,
7.592472428541441e-08,
8.438211807515472e-06,
-1.3929802623879883e-11,
2.3421680452884175e-05,
2.2538408757100115e-06,
2.3421680452884175e-05,
4.2289138946216553e-05
],
[
-3.572898322090623e-06,
-3.685572380618396e-08,
0.0008337999461218715,
-1.6695763660479201e-09,
5.283127393340692e-07,
-1.2258673187659497e-08,
-3.0811382334405835e-09,
-1.5931911789834885e-08,
-0.0006850454956293106,
-9.059581529413663e-09,
1.9204088319568768e-10,
-2.6227793270550137e-08,
-7.980259231210596e-10,
4.1653784421669116e-08,
-0.0006940790335647762,
8.636871773326504e-11,
0.00043636275222525,
-0.0005952943465672433,
0.00043636275222525,
-0.0001739033032208681
],
[
-1.219437535837642e-06,
2.472995852542681e-08,
-0.0010459042387083173,
6.2981784232363225e-09,
2.4001667497941526e-07,
-5.5433851287034486e-08,
5.077935405495282e-09,
3.3235490803917855e-08,
-0.00045218999730423093,
1.4677490334236154e-08,
1.379469368595343e-11,
2.4960280953223446e-08,
9.480752538593151e-08,
-2.2244131869797457e-08,
0.00010479731281520799,
8.445037724680304e-11,
-0.0004083898093085736,
-0.0010930353309959173,
-0.0004083898093085736,
0.0023241734597831964
],
[
2.9148608859941305e-07,
5.648415513093141e-09,
0.0005904934951104224,
-5.219428778069357e-10,
5.308214667820721e-07,
1.7111130290459187e-08,
6.412111730469405e-09,
2.4949290633458077e-08,
0.0009641522774472833,
3.462683295651914e-08,
3.043900895227658e-11,
1.0308112585732943e-08,
1.6181411766069687e-08,
2.33556590956141e-07,
3.3495484785817098e-06,
2.1623085266764264e-10,
-0.00035249561187811196,
-0.000994786387309432,
-0.00035249561187811196,
0.00036811508471146226
],
[
3.9966252529666235e-07,
-2.108929281208205e-10,
0.0003911515523213893,
-2.405712073993982e-09,
-1.700043981145427e-07,
-8.453197253288636e-09,
-3.4592035902392126e-09,
-1.2033308571801626e-08,
-0.0008470278698951006,
1.1127794152798742e-07,
9.62689563482888e-12,
-6.025901999606731e-09,
-1.3368289586423998e-08,
2.7955579184890667e-07,
-0.0001005257508950308,
-7.23245421885288e-11,
4.270748104318045e-05,
0.0002810130245052278,
4.270748104318045e-05,
-0.0006697439821437001
],
[
9.028653948917054e-07,
-3.1298219571596064e-09,
0.0016190530732274055,
-2.808165922019157e-09,
-9.250203936161938e-10,
-5.664515967396255e-09,
-1.476065825123385e-09,
-6.212650838222089e-09,
-7.560625817859545e-05,
1.1866164584262151e-07,
-2.1205176503613643e-11,
-3.4552169125845467e-08,
-4.554971400061447e-10,
-1.5162099487042724e-07,
5.520993454410927e-06,
-5.945861207903858e-13,
-0.00024174789723474532,
3.1220304663293064e-05,
-0.00024174789723474532,
-0.0004933203454129398
],
[
-1.6464038026242633e-06,
-1.0255468474440477e-08,
0.0012279967777431011,
-1.0944869011098035e-08,
6.957220932690689e-08,
4.528909869350173e-08,
1.88457729421998e-08,
7.723349426669301e-08,
0.0010286062024533749,
-4.532081376851238e-08,
1.0327356331218951e-10,
5.704432837205786e-08,
-5.037148298470129e-08,
-1.5145881206990452e-06,
-3.3501695725135505e-05,
-8.90667817277091e-11,
-0.0007886392413638532,
-0.0021026963368058205,
-0.0007886392413638532,
0.00014323959476314485
],
[
-5.69280516060644e-08,
-4.565018918434305e-10,
-0.00011272216215729713,
2.8358554393648205e-10,
-3.33692327103563e-08,
2.513785624103093e-09,
1.085094791797303e-09,
2.250168495976368e-09,
0.00012263841927051544,
1.3075227123238164e-08,
-6.8718650561572225e-12,
1.1485971895819347e-10,
2.579194496865611e-11,
1.578819208702953e-08,
3.610964267863892e-05,
6.0550236699596915e-12,
2.2746160539099947e-05,
-6.050846423022449e-05,
2.2746160539099947e-05,
0.00014531583292409778
],
[
5.107243339352863e-08,
8.575439247593408e-10,
1.8877537513617426e-05,
-2.3427735307279818e-09,
-3.293072836640931e-08,
3.1947768874829308e-09,
1.3831014111786999e-09,
4.568734279786213e-09,
-9.620864875614643e-05,
-2.0072961959272106e-08,
4.419989981657713e-12,
-1.2265727100668755e-08,
-9.003362499981904e-09,
1.8707025262187926e-08,
3.419909262447618e-05,
-6.283293330078266e-12,
-4.966567212250084e-05,
-0.00014893733896315098,
-4.966567212250084e-05,
0.00024828806635923684
],
[
3.510699952968821e-09,
4.759700966694425e-10,
-8.14063514553709e-06,
-4.0124809030928077e-10,
-2.837126622523556e-08,
1.2318276398914918e-09,
3.8436021726484526e-11,
-4.41153252817017e-10,
-9.821605999604799e-06,
-5.965866689550126e-10,
2.6511090414974015e-13,
1.5557949026301365e-11,
1.4046049878757572e-09,
-2.6117585871787696e-09,
-8.980306120065507e-06,
-4.414798387974983e-12,
-0.00010807976650539786,
-1.0381148968008347e-05,
-0.00010807976650539786,
-6.842664879513904e-05
],
[
5.282654313987223e-10,
1.727322798683595e-11,
-8.940722295847081e-07,
1.2246326348830383e-11,
3.747971932810401e-10,
-4.1448820070622006e-11,
4.91030393429126e-12,
-6.215559317235275e-11,
5.089903538646467e-07,
7.624808562312069e-10,
-3.5452340390630666e-13,
-1.6653480677808474e-11,
-1.279317207725228e-10,
-6.927971391013088e-11,
4.578830328227923e-07,
-1.32105630146033e-13,
-3.699114313349128e-05,
-2.5969669081860047e-07,
-3.699114313349128e-05,
-9.73652731772745e-06
],
[
6.138692697277293e-05,
-4.031450089314603e-07,
-0.0013238394167274237,
-8.358177296940994e-07,
5.593866444542073e-05,
-2.2608082872466184e-06,
-1.2990799405088183e-06,
-7.454432761733187e-06,
-0.0011071634944528341,
-2.5044885205716128e-06,
5.555618187713662e-09,
-8.301835805468727e-07,
-1.0442024631629465e-06,
9.108361155085731e-06,
0.024723246693611145,
-9.234371600719271e-10,
-0.35738638043403625,
3.3770911693573,
-0.3518681228160858,
0.0011969004990532994
],
[
-4.754336924150948e-10,
-2.950434688231418e-11,
-8.000083653314505e-07,
-1.9108183785254695e-11,
8.977382170982651e-10,
-5.089198854002497e-11,
1.452073704333312e-12,
-1.1351233147882667e-10,
1.0470165534570697e-06,
-1.984521574849296e-11,
1.2942007491731355e-13,
-6.667007224070431e-11,
-3.876964721483134e-11,
3.7962577525973984e-11,
-2.118411401852427e-07,
4.2325457103985914e-14,
-3.52872325493081e-06,
1.1042651522075175e-06,
-3.52872325493081e-06,
-2.5594008548068814e-06
],
[
-1.3728080894281902e-09,
5.268288583160086e-10,
-7.123294835764682e-06,
1.208311228850789e-10,
-1.4239414092287461e-09,
-1.87050402944422e-10,
-1.580867103889716e-10,
8.103716031548913e-10,
1.4636914784205146e-05,
1.4556437999413419e-10,
2.728922556677338e-12,
-7.582048322518631e-10,
9.218206059591338e-11,
5.7301319245084414e-09,
-9.012861710289144e-07,
-4.011489220228509e-13,
-5.423614857136272e-05,
1.186400709229929e-06,
-5.423614857136272e-05,
-3.714397826115601e-05
],
[
3.124534520004829e-10,
5.9496409535175765e-12,
-5.391829205336762e-08,
2.1632246775121766e-12,
6.423435394697918e-11,
-9.386477055686737e-13,
-1.5628602199283664e-13,
-2.578146246837165e-12,
6.88292871586782e-08,
-2.26761335403447e-11,
-2.4509609836478874e-14,
3.152577374501697e-12,
-1.6003712244305746e-11,
6.788253986700354e-11,
8.313035948503966e-08,
-6.54884539609199e-14,
-2.9997659112268593e-06,
-3.937319092983671e-08,
-2.9997659112268593e-06,
-1.0445386351420893e-06
],
[
2.064328041839758e-09,
-9.722051289018374e-12,
-2.0157276594545692e-06,
-3.65795241319411e-11,
-2.2738646521247574e-09,
1.4225796929334678e-10,
-2.7708231542522554e-11,
-3.0104999049207493e-10,
1.0870122650885605e-06,
4.588159019380811e-11,
1.9811085890807274e-14,
2.1133946372445256e-13,
-3.112157753726308e-11,
-2.551580891019256e-10,
8.73306476023572e-07,
6.131229963839135e-13,
-8.791818800091278e-06,
4.5817088789590343e-08,
-8.791818800091278e-06,
-7.17658849680447e-06
],
[
-4.375619224589178e-12,
9.28969493560819e-15,
-2.548895539078444e-09,
3.7418622345596064e-14,
-3.2864260358228536e-12,
-8.078617392019358e-14,
4.37492246206303e-14,
2.5538889037411694e-13,
-4.798169861430779e-09,
8.521064713204463e-13,
-1.0222963063142809e-16,
-1.0519917456684041e-13,
1.750318233450024e-13,
4.235679081782129e-12,
-8.61290760933997e-10,
-5.094562246973347e-16,
-1.9756974722895393e-07,
-3.964781836174325e-09,
-1.9756974722895393e-07,
-1.7980108069082235e-08
],
[
-3.8870889840225686e-10,
4.815706514116336e-11,
2.027679784077918e-06,
1.107056200183587e-11,
1.2197384213763485e-09,
-3.0381638177479076e-11,
-1.8279820365729726e-11,
-1.807392013830622e-10,
1.4816365592196235e-06,
5.170477934690609e-10,
-2.3171376384474585e-13,
8.893541458832033e-11,
-2.060883963483917e-10,
9.835037229066756e-10,
-8.945189620135352e-07,
-2.6226606606935543e-13,
-2.181911213483545e-06,
-4.619505034497706e-06,
-2.181911213483545e-06,
-2.213620064139832e-06
],
[
6.078764602790443e-09,
4.649140447621214e-11,
-6.448278782045236e-06,
-3.5200665299273126e-11,
-1.1467572669232595e-08,
5.668676639203341e-10,
-5.145503120806971e-11,
-7.674433866178276e-10,
2.769635329968878e-06,
3.182521191025245e-10,
-2.008841769145231e-13,
2.0033447123424253e-10,
4.991761448636112e-10,
4.794837860089274e-09,
2.155958753746745e-07,
-1.7037457599247685e-12,
-3.279303200542927e-05,
5.849750323250191e-06,
-3.279303200542927e-05,
-2.4063871023827232e-05
],
[
-4.904167072439236e-10,
1.872061013152848e-11,
-2.965568228319171e-06,
4.182402688068798e-12,
-1.5656452800882903e-09,
-1.1425724949498672e-10,
-3.058804598499165e-11,
-6.430218857378378e-11,
-1.970192442968255e-06,
3.086126354467922e-10,
-1.211939619841229e-13,
4.560277155896131e-11,
-2.7288671322622804e-10,
6.743854363833179e-10,
-3.2181179676626925e-07,
4.826990586750957e-13,
-1.142396195064066e-05,
9.232820161741984e-07,
-1.142396195064066e-05,
-7.351857220783131e-06
],
[
2.9666724632448904e-10,
-1.28978936905777e-11,
-2.2558900525382342e-07,
-7.955665640158038e-12,
1.0880645343047668e-11,
1.9382419280677965e-11,
-6.229338334225176e-13,
-5.724290399328202e-12,
7.167072908487171e-07,
3.6918183787815195e-11,
-1.2410029635054418e-14,
1.7959642453768687e-11,
1.2809784483147624e-11,
-3.011254023910226e-10,
-2.536487215820671e-07,
-1.1432751989039203e-13,
-2.7007788503397023e-06,
-3.475515200079826e-07,
-2.7007788503397023e-06,
-1.8375820900473627e-06
],
[
3.5255753871865636e-10,
7.318631920112673e-13,
-8.051172528666939e-08,
5.963137969522414e-13,
9.27556989549494e-11,
2.1529323462887717e-12,
-2.207334792378446e-13,
-1.4981795101384754e-12,
8.146405150455394e-08,
-4.2210936135322896e-11,
-2.8572986126651836e-14,
1.4021360027899332e-12,
-7.257549162337229e-12,
1.363490154115965e-10,
8.456258626665658e-08,
1.1318548908453158e-14,
-2.6085167519340757e-06,
-2.786440234103793e-08,
-2.6085167519340757e-06,
-1.0630398037392297e-06
],
[
-2.2912294284083146e-08,
2.1831177143827318e-10,
-2.4563320039305836e-05,
3.716338903281269e-10,
3.478519250421641e-09,
2.1323121046634697e-10,
-3.0072169754369327e-10,
-1.6905546962320273e-09,
8.236305802711286e-06,
1.5189217661415455e-09,
-2.731195803372388e-13,
-6.083197834350074e-10,
-9.541858969619454e-11,
4.77331596471231e-09,
1.5149629462030134e-07,
-1.1860399815044609e-12,
-9.043511818163097e-05,
2.8087675673305057e-05,
-9.043511818163097e-05,
-5.338718256098218e-05
],
[
-6.521636009004794e-11,
-5.062805643468726e-13,
-5.363665778190807e-08,
-3.9212356235315826e-13,
-2.1741934641550387e-11,
6.805862297343257e-13,
1.0726320412391896e-14,
2.508206587304579e-13,
4.1983255982813716e-08,
-2.6480486640251266e-12,
-7.340702617162145e-15,
-2.387718278304418e-12,
4.890750998631788e-12,
-1.2891967007822025e-11,
-2.1006094641506934e-08,
-4.6033047369060075e-15,
-1.8039438032246835e-07,
5.0107619387063096e-08,
-1.8039438032246835e-07,
-1.3886388217088097e-07
],
[
6.796761070626545e-11,
-1.7230172367002639e-12,
-7.797959256095055e-08,
2.039474708906419e-12,
9.845311198242168e-12,
1.8817670945775467e-12,
4.386713431739353e-13,
5.1281669882774494e-12,
-1.8179003191676202e-08,
1.6476134692688937e-12,
2.385762316598882e-15,
5.660983400795905e-12,
1.6358639703256683e-12,
-1.0162236503685751e-11,
4.749035387163758e-09,
1.862559890662089e-14,
-4.5762524791825854e-07,
7.11441856537931e-08,
-4.5762524791825854e-07,
-3.409735995774099e-07
]
],
"blocks.0.layers.0.tfilm.lstm.weight_hh_l0": [
[
4.21781834347712e-07,
-1.6183970785732527e-07,
-6.415702955564484e-05,
2.4756863226116366e-08,
-3.819210689925967e-07,
-5.710620598620153e-08,
7.371528454314102e-08,
5.315750506440509e-09,
-4.737407977017938e-08,
-1.2198516685657523e-07,
-1.4407625315016048e-07,
2.2135255406396936e-08,
6.051859458011677e-08,
-1.618583382878569e-07,
1.1497121477077599e-08,
-1.4314821328298422e-08
],
[
-2.209822191900912e-08,
-9.954481683394079e-09,
-9.171953934128396e-06,
-1.0719657161928353e-08,
2.151975131425843e-08,
-5.505494282687096e-09,
-9.839036252401456e-09,
7.132555102096205e-10,
-2.52414960044689e-08,
-1.745252653506668e-08,
1.8406792534619854e-08,
-2.044072466844682e-09,
4.7871737685056814e-09,
5.024204696724155e-08,
5.743450159911845e-10,
2.473917293244199e-09
],
[
0.0005891155451536179,
0.00023498873633798212,
0.07579543441534042,
-0.0001294543471885845,
0.0005952187348157167,
0.00010934437887044623,
-0.00021079034195281565,
1.55028192239115e-05,
-0.00010964058310491964,
0.0003873165405821055,
0.00010168345033889636,
-7.344681944232434e-05,
-0.00010343424219172448,
0.0001993669429793954,
3.944152922485955e-05,
4.9741516704671085e-05
],
[
4.6222265126516504e-08,
-7.30935401094257e-09,
-2.5412052764295368e-06,
-1.9664470052305205e-09,
-1.5856436164085608e-08,
-2.2603463545323166e-09,
7.0307666355517995e-09,
5.752500212286016e-11,
5.433986594027829e-09,
-1.7443117172888378e-08,
3.633487399845592e-10,
1.4817049809323635e-09,
2.7452435880093162e-09,
1.4256790414890474e-08,
-3.072077037202803e-10,
1.1678383815549864e-09
],
[
-3.1947328693604504e-07,
7.324592132817997e-08,
-3.579794429242611e-05,
3.8470588492600655e-08,
1.0159564567402413e-07,
-2.082884442700106e-08,
-6.832063093042962e-08,
-5.006687953112987e-09,
-3.469924436672045e-08,
4.895027316820233e-08,
-1.1033682056904581e-07,
-6.720267720083939e-08,
1.4164790229642676e-08,
-3.762775975246768e-07,
-1.1108025610440109e-09,
1.2302269203345872e-09
],
[
-7.19345916166958e-09,
-2.0667878519731175e-09,
-1.2611274087248603e-06,
-1.3017267264103793e-09,
2.094278306330466e-09,
-1.3921854780107878e-09,
-1.661879189818194e-09,
1.397340992914664e-10,
-5.890187448898132e-09,
-2.0776333986560758e-09,
2.8255462414250587e-09,
-1.8530579848352602e-10,
1.1306027225543858e-09,
6.720380696378925e-09,
1.727015891406225e-10,
5.262148494722396e-10
],
[
-4.813247400647924e-08,
-7.869207507837928e-09,
-6.645410849159816e-06,
1.4869686815188743e-08,
-2.792195274992082e-08,
-1.314895969883878e-09,
-4.4579540059430656e-09,
2.0305750136895284e-10,
5.0751878255539395e-09,
-4.741397319207863e-08,
-3.071797038955992e-08,
3.131404913148117e-09,
5.910643086082246e-09,
-7.883852504164679e-08,
-1.022219642266009e-09,
1.0335315936416123e-09
],
[
-5.8132231667284984e-11,
-8.454736910579186e-11,
-1.7751339953520073e-08,
-2.9735790219032054e-11,
-6.113983624933539e-11,
-2.4500901307789036e-11,
-2.4464791303913103e-11,
2.7347653221848622e-12,
-7.810843638544895e-11,
2.3455671432914826e-11,
3.454196303986912e-11,
6.296939532302037e-12,
3.716572188894318e-11,
6.790107365262088e-11,
4.926175569894276e-13,
-1.589722385848813e-12
],
[
-1.1805277644327816e-08,
5.868606933745468e-09,
-2.1640635168296285e-06,
-6.136064101269767e-09,
1.7926344852980947e-09,
5.093715671478094e-09,
-8.310522048304847e-09,
8.027638553897987e-10,
-4.291363708830431e-09,
1.4515323165653626e-08,
9.429624192591746e-09,
-4.3180845565871095e-09,
-4.3725085774326544e-09,
1.9810508788964398e-08,
1.5140730891261e-09,
2.754129369009206e-09
],
[
-1.9531785255821887e-07,
7.309173355452003e-08,
-2.0982131900382228e-05,
2.292700607142706e-08,
-1.7601513491172227e-07,
3.376934643029017e-08,
5.116999446386217e-08,
-1.0842950981526656e-09,
1.1448637593503008e-08,
9.263354527888623e-10,
-5.618116460937017e-08,
3.110953983309628e-08,
1.5183040602551046e-08,
-1.8831943293662334e-07,
-5.400671021504877e-10,
-1.3822091915471901e-08
],
[
-8.170709975274804e-08,
-3.670005455091996e-08,
-6.787844995415071e-06,
-1.2210323419026281e-08,
-8.808433449303266e-08,
-8.57811510712736e-09,
2.9169394011319127e-08,
-5.85298060018502e-11,
1.2069150123750205e-08,
-7.777829580390971e-08,
-3.2006809647100454e-08,
1.8033915694104508e-08,
7.348474273527472e-09,
-1.4135257231373544e-07,
-5.27952215279015e-09,
-9.733521544319501e-09
],
[
-1.2503750035364192e-08,
5.5369313578523816e-09,
-1.746563953020086e-06,
2.13888640132609e-09,
-4.3444076114340646e-10,
1.5258573293763789e-09,
3.604862852668589e-09,
-2.7236686864218207e-11,
-4.458664826234582e-10,
-5.271619141211659e-09,
1.7281607256336429e-09,
-2.1527555293943124e-09,
-1.6086411092075537e-09,
3.2767133451017116e-09,
5.048367834881162e-10,
5.486466281290348e-10
],
[
-7.0297594412238595e-09,
-1.1499646790369411e-09,
-1.215241809404688e-06,
-8.616277136219708e-10,
2.116764097337409e-09,
-9.142949730645e-10,
-5.385641377309014e-10,
7.904150944870736e-11,
-4.3120693682396904e-09,
-2.603668169953721e-09,
2.619257033487088e-09,
-4.302278533430126e-10,
7.841094440408369e-10,
6.622379533638423e-09,
1.635599017335565e-10,
4.908435324857408e-10
],
[
-3.861832169604895e-07,
-2.5294301053691015e-07,
-5.325811434886418e-05,
-2.1180765941153368e-07,
-4.075806430137163e-07,
-8.162722764382124e-08,
2.8449358069337904e-07,
-1.1200109728548568e-09,
7.239187027607841e-08,
-4.699030853316799e-07,
-3.497986824640975e-07,
1.473713524546838e-07,
7.809525470747758e-08,
-5.123922051097907e-07,
-3.915239332741294e-08,
-7.104525678869322e-08
],
[
-3.283627536543321e-10,
3.4954059091596434e-10,
-1.310750548100259e-07,
1.926108023075912e-10,
-1.705463409384933e-10,
9.276135415348108e-11,
2.2246735009723295e-10,
-4.723403525946912e-12,
4.3984819259046404e-11,
-3.937752901528313e-10,
-7.179312006000416e-11,
-8.015083041712501e-11,
-1.0004448658396115e-10,
-2.6276458786611556e-10,
2.642160795707227e-11,
1.815892401724195e-11
],
[
-3.933205761086356e-09,
-2.4113908092537883e-10,
-3.5639521911434713e-07,
-1.5850132317751786e-10,
2.5031963168942184e-09,
3.0519853311261613e-10,
2.904860796348885e-10,
1.218362563615294e-11,
8.125295436478552e-10,
3.65661767531833e-09,
-1.4089478472811834e-09,
5.381428080930561e-10,
-2.6312221845792294e-10,
-2.002550791857516e-09,
-9.330574507471212e-12,
1.5403277264791626e-10
],
[
3.551523946043744e-07,
-4.3784552872239146e-08,
-6.232524174265563e-05,
-1.3849694724399342e-08,
-4.781609277415555e-07,
-7.047161432183202e-08,
1.1479270511927098e-07,
5.195620378373178e-09,
-2.507447138810903e-09,
-2.2684285738705512e-07,
-1.1422098111779633e-07,
-2.990115888223954e-08,
5.7851096357808274e-08,
6.555321618861853e-08,
3.129837367055188e-08,
-7.782218425234078e-09
],
[
-5.3698165913829143e-08,
3.226678091383661e-10,
-9.014196621137671e-06,
-5.927673463190786e-09,
1.1106338071442678e-08,
-1.900272827981553e-09,
3.1311566672798108e-09,
5.564961824688908e-10,
-2.4245423446700443e-08,
-2.155614531318406e-08,
1.766480828280237e-08,
-5.530569779921279e-09,
1.3444573232490598e-09,
4.5572171814001194e-08,
1.7376348138142816e-09,
3.92101950907886e-09
],
[
0.0006158026517368853,
7.886010280344635e-05,
0.19217629730701447,
-0.0002366045373491943,
0.00034020960447378457,
1.4284993085311726e-05,
-0.00031094078440219164,
1.1930220352951437e-05,
-0.00023332178534474224,
0.0004973708419129252,
0.00047367525985464454,
-0.00019266284652985632,
-3.061044844798744e-05,
0.001319465576671064,
5.938590402365662e-05,
9.391261119162664e-05
],
[
4.8741274127905854e-08,
5.1444177806558855e-09,
-2.455249841659679e-06,
7.198968643429282e-10,
-6.443501732178447e-09,
3.4064424614399513e-09,
1.03332951084667e-08,
2.4882396490455427e-11,
5.083127696536849e-09,
-1.2604324695075775e-08,
6.575978872547239e-09,
-3.304553297667212e-09,
-1.5655990948104659e-09,
4.265933384317577e-08,
1.3216009397964967e-09,
1.5031444977608999e-09
],
[
-3.145716220842587e-07,
8.993563227477352e-08,
-3.583177749533206e-05,
4.608287085261509e-08,
1.1426747192899711e-07,
-2.0302278969097642e-08,
-5.906059641347383e-08,
-5.324650498295114e-09,
-4.084228422129854e-08,
2.1714493314561878e-08,
-1.2184999320652423e-07,
-7.162227433354929e-08,
9.213619200920675e-09,
-3.9297935927606886e-07,
5.004656244977923e-09,
-4.882412696360916e-09
],
[
-5.888791676511573e-09,
-1.4205713272374965e-09,
-1.072091890819138e-06,
-1.07411557426218e-09,
2.711819879763766e-09,
-8.736260048713973e-10,
-9.403002820818074e-10,
1.280492795130428e-10,
-4.6270156595085155e-09,
-6.591088785867782e-10,
2.092240380946464e-09,
-5.986822843029316e-11,
6.92320534234625e-10,
4.6185415492061566e-09,
1.8234243281955997e-10,
5.575605532825989e-10
],
[
-3.70517412306981e-08,
8.451608302095792e-09,
-6.5903491304197814e-06,
1.217825040811249e-08,
-3.4225958955858005e-08,
-3.755716182496371e-09,
3.6388723145819313e-09,
2.4126378672661986e-10,
1.045185715753405e-08,
-4.3767464319444116e-08,
-2.59909018751614e-08,
-1.6064535257598322e-09,
1.7301985399953423e-09,
-6.365024773913319e-08,
4.787832352803889e-10,
3.799566439255386e-09
],
[
-6.804500018997572e-11,
-5.2472685918569795e-11,
-1.020816053909357e-08,
-1.723395905151026e-11,
-9.085215219029052e-11,
2.339414035754106e-12,
-2.8851067368496075e-11,
2.406778769337148e-12,
-6.517403977612801e-11,
5.6675159357255644e-12,
2.3734852624968106e-11,
4.72835876355604e-12,
3.4747323074402203e-11,
2.5491777091990464e-11,
8.957076074768422e-13,
-6.2250421831167024e-12
],
[
-2.7479195807700307e-08,
-1.6345093056813198e-09,
-2.7002699880540604e-06,
-8.472278878457473e-09,
-8.556655828328985e-09,
3.1517630727506685e-09,
-5.340020869937234e-09,
1.0670859751371609e-09,
-7.864305651139603e-09,
1.4572617779151642e-08,
1.2234875335082052e-08,
-3.89072107864763e-09,
-3.080745436534471e-09,
2.5035923556515627e-08,
1.6361665355901778e-09,
3.092975653373742e-09
],
[
-2.3256268377735978e-07,
9.179843374340635e-08,
-1.9804119801847264e-05,
1.710911057273279e-08,
-1.9273643658834771e-07,
2.9260712963719016e-08,
6.027576660017075e-08,
-1.0018420537605266e-09,
-1.0668446126516073e-09,
-2.1718950193871933e-08,
-7.180126715411461e-08,
3.310027452130271e-08,
1.591596010541707e-08,
-2.3643346480639593e-07,
5.567433181141723e-09,
3.027350459205991e-08
],
[
-4.8206214131596425e-08,
-2.384896191642838e-08,
-5.987322310829768e-06,
-1.6919349477007017e-08,
-6.059109125544637e-08,
-8.595236522523919e-09,
2.503487550598038e-08,
-5.2227572960861224e-11,
1.178302344584381e-08,
-7.217668951398082e-08,
-3.672432669077352e-08,
1.3949131627555289e-08,
9.665179767637255e-09,
-1.397663709212793e-07,
-4.636999229035155e-09,
-7.680514890751056e-09
],
[
-1.4272719894847796e-08,
4.340312109718525e-09,
-1.8247058051201748e-06,
2.646230790048776e-09,
-1.1146807921136315e-08,
1.0822739371363355e-09,
3.887762556331609e-09,
4.3365509100334876e-11,
8.591948263969584e-10,
-9.801791378549751e-09,
-2.9041129501194973e-09,
-1.47046019804975e-09,
-1.6613319608893562e-09,
-1.0166117725418644e-08,
3.404064530254658e-10,
-3.941432735743433e-10
],
[
-6.4015672762707254e-09,
-1.335777322086784e-10,
-1.0497579978618887e-06,
-5.353312237943442e-10,
1.7946079067243659e-09,
-5.151448156937022e-10,
5.506824857226533e-11,
1.0424971996769727e-10,
-3.3505398455702107e-09,
-1.9676291707071414e-09,
2.0338197792568735e-09,
-4.5039874607688546e-10,
3.36234845521588e-10,
4.765766892234069e-09,
2.3349802646954743e-10,
5.122026691672943e-10
],
[
-1.6724725071526336e-07,
-1.6870998820195382e-07,
-4.661754792323336e-05,
-2.1033785913004976e-07,
-1.6550414727589668e-07,
-7.113325040108975e-08,
2.5732580866133503e-07,
-1.0991717536157353e-09,
8.485472591246435e-08,
-5.009930532651197e-07,
-3.645005790531286e-07,
1.3122048869718128e-07,
8.569153919779637e-08,
-6.6491600136942e-07,
-3.058175579440103e-08,
-5.0550976737895326e-08
],
[
-8.378073929060648e-11,
3.5516950491754073e-10,
-1.366648945122506e-07,
2.1340040845529984e-10,
-5.377320255739448e-10,
1.2083051226241537e-10,
1.5074765047362604e-10,
-8.548196005209174e-12,
1.1508929226300424e-10,
-3.969543582726942e-10,
-3.4388913938698806e-10,
-2.701354938350331e-11,
-1.3494916295542225e-10,
-9.957817903583077e-10,
2.4568964918092462e-11,
-2.97879082511443e-11
],
[
-3.915760604655816e-09,
-4.355047711346316e-10,
-3.517923232720932e-07,
-3.8265748902865937e-10,
2.504498164412894e-09,
2.946364263678447e-10,
1.2434568652519573e-10,
1.0001144877536117e-11,
7.953733227594739e-10,
2.8375326532881218e-09,
-1.478365208029686e-09,
5.778114653409716e-10,
-2.2696947099554166e-10,
-2.3166157880893934e-09,
-2.7038680322499786e-11,
1.5644731343744667e-10
],
[
-9.923567995429039e-05,
-4.783929034601897e-05,
0.00047499308129772544,
2.956772107154393e-07,
-6.908256182214245e-05,
-1.628597965463996e-05,
2.0519091776805e-05,
7.195691864581022e-07,
-2.2759411876904778e-05,
-5.112828512210399e-05,
-2.6468740543350577e-05,
1.4039681445865426e-05,
1.6652744307066314e-05,
-7.264356827363372e-05,
-2.8116146495449357e-06,
-4.739566520584049e-06
],
[
-1.4770809684705455e-05,
-1.8271312001161277e-05,
-1.7671542082098313e-05,
1.3037401913607027e-06,
-1.516666634415742e-05,
-6.744678557879524e-06,
9.503074238637055e-08,
2.7963992010882066e-07,
-4.146198079979513e-06,
-4.905535206489731e-06,
-4.944104603055166e-06,
4.463679943000898e-06,
6.59833040117519e-06,
-1.522608090454014e-05,
-1.0095519655806129e-06,
-1.1481816954983515e-06
],
[
0.0007042018696665764,
0.0002847881114576012,
0.08731743693351746,
-0.00015462239389307797,
0.0006388525362126529,
0.00012329570017755032,
-0.00024097994901239872,
1.4605751857743599e-05,
-0.00012157874152762815,
0.0004478993359953165,
0.00017074149218387902,
-9.992502600653097e-05,
-0.00011889394954778254,
0.0004031881981063634,
4.629969771485776e-05,
6.061412568669766e-05
],
[
1.8873188309953548e-05,
1.0275552085659001e-05,
0.0003301573742646724,
-3.498259275147575e-06,
1.9251840058132075e-05,
3.3457947665738175e-06,
-6.714775736327283e-06,
-1.294516636107801e-07,
-8.762926313465869e-07,
1.4676285900350194e-05,
5.6591561587993056e-06,
-3.337544058013009e-06,
-3.5623377243609866e-06,
1.27186158351833e-05,
8.916442197914876e-07,
6.573704922629986e-07
],
[
-7.857942546252161e-05,
-2.7729929570341483e-05,
0.0015341199468821287,
1.121149216487538e-05,
-5.1513081416487694e-05,
-1.0591958016448189e-05,
1.8927396013168618e-05,
-1.7796450535456643e-08,
-7.821044164302293e-06,
-4.331170202931389e-05,
-1.985411836358253e-05,
5.538402547244914e-06,
1.0993977411999367e-05,
-5.360720388125628e-05,
-2.009754780374351e-06,
-4.701324996858602e-06
],
[
-3.804288098763209e-06,
-5.705608600692358e-06,
-0.001442964538000524,
1.298650431635906e-08,
-5.250599315331783e-06,
-2.4621492684673285e-06,
2.7583132578001823e-07,
1.255438206726467e-07,
-1.0342388350181864e-06,
2.952745319362293e-07,
-1.1273448308202205e-06,
1.3054014971203287e-06,
2.314024641236756e-06,
-3.867936356982682e-06,
-3.167577347085171e-07,
-3.2379071512878e-07
],
[
3.79276170860976e-05,
1.673874976404477e-05,
-6.544021744048223e-06,
-5.839734512846917e-06,
2.5018291125888936e-05,
4.677364358940395e-06,
-8.898319720174186e-06,
-9.773279430191906e-08,
3.924671432287141e-07,
2.0452425815165043e-05,
1.1341731806169264e-05,
-6.00299017605721e-06,
-5.314632289810106e-06,
3.144971560686827e-05,
1.42073520237318e-06,
1.9680462628457462e-06
],
[
-1.678614580669091e-06,
-4.750505411266204e-07,
-0.0003233894531149417,
4.144782508319622e-07,
-2.18800551010645e-06,
-9.363529329675657e-08,
6.455936158999975e-07,
-4.7853458085000966e-08,
4.778365223501169e-07,
-7.861628432692669e-07,
-4.846499450650299e-07,
2.7462030516289815e-07,
1.176992583395986e-07,
-1.2690270523307845e-06,
-9.706015902111176e-08,
-2.33835521612491e-07
],
[
4.1966104618040845e-05,
1.6711483112885617e-05,
0.00015772777260281146,
-3.505799668346299e-06,
2.4158838641596958e-05,
6.428651431633625e-06,
-5.825522293889662e-06,
6.368065186279637e-08,
-2.7373480406822637e-06,
1.736199192237109e-05,
6.681248578388477e-06,
-5.282388428895501e-06,
-5.4582574193773326e-06,
1.837376294133719e-05,
1.3126135627317126e-06,
1.9119843273074366e-06
],
[
-5.798354322905652e-05,
-2.7118281650473364e-05,
-0.0006654196185991168,
5.880368462385377e-06,
-4.107649874640629e-05,
-8.065711881499738e-06,
1.3071243301965296e-05,
4.515462137533177e-07,
-3.2111506698129233e-06,
-3.077954170294106e-05,
-1.6766265616752207e-05,
8.615702427050564e-06,
9.70179735304555e-06,
-4.926002657157369e-05,
-1.8730452211457305e-06,
4.8353786041843705e-06
],
[
-4.0629842260386795e-05,
-1.8288825231138617e-05,
-0.00024558082805015147,
4.665219876187621e-06,
-3.1090145057532936e-05,
-5.593507921730634e-06,
9.808134564082138e-06,
2.4075356463981734e-07,
8.48360315330865e-09,
-2.4011869754758663e-05,
-1.1169265235366765e-05,
6.44415649730945e-06,
5.692377726518316e-06,
-3.2336345611838624e-05,
-1.4143660109766643e-06,
-2.327807578694774e-06
],
[
1.9132550733047538e-05,
8.101570529106539e-06,
0.00032857590122148395,
-2.5379631551913917e-06,
1.3904086699767504e-05,
2.702153551581432e-06,
-4.35104902862804e-06,
-1.2080526801128144e-07,
-5.930369297857396e-07,
1.0268067853758112e-05,
5.371715360524831e-06,
-2.783844138321001e-06,
-2.7113167107017944e-06,
1.5054689356475137e-05,
6.262725946726277e-07,
1.0774925840451033e-06
],
[
5.496554422279587e-06,
5.709590823244071e-06,
0.001084015122614801,
-1.5121943874873978e-07,
5.735601462220075e-06,
2.2895983420312405e-06,
-2.624398121042759e-07,
-1.0403431360828108e-07,
9.289481681662437e-07,
2.9421130420814734e-06,
1.7219620076502906e-06,
-1.436432967238943e-06,
-2.2153835743665695e-06,
5.452458481158828e-06,
3.3637115848250687e-07,
3.8082299624875304e-07
],
[
-0.00010941713117063046,
-5.0755948905134574e-05,
-0.0011863627005368471,
8.76549347594846e-06,
-8.368273120140657e-05,
-1.59634837473277e-05,
2.641671017045155e-05,
5.687141992893885e-07,
-5.648423211823683e-06,
-6.476465932792053e-05,
-3.034885048691649e-05,
1.7468486475991085e-05,
1.6259065887425095e-05,
-8.80092557054013e-05,
-3.850217581202742e-06,
-6.194000889081508e-06
],
[
-5.1989450184919406e-06,
-2.2931760668143397e-06,
-0.0004300190194044262,
6.739045943504607e-07,
-4.05484342991258e-06,
-7.732983249297831e-07,
1.196660036839603e-06,
1.7201733371052796e-08,
2.0021785474000353e-07,
-3.053966338484315e-06,
-1.364837658002216e-06,
8.338867019119789e-07,
7.521161933254916e-07,
-3.898367140209302e-06,
-1.9529315409272385e-07,
-3.036348914520204e-07
],
[
-8.909275493351743e-06,
-3.7547463307419093e-06,
-0.0002797724155243486,
8.839954261929961e-07,
-5.607209004665492e-06,
-1.064784669324581e-06,
1.8702739907894284e-06,
2.4859554415002094e-08,
-2.4253210550995163e-09,
-2.17523711398826e-06,
-2.5786127935134573e-06,
1.4171306474963785e-06,
1.1406444855310838e-06,
-7.265517979249125e-06,
-3.168060800362582e-07,
-4.517110028245952e-07
],
[
4.111313671728567e-07,
-1.4168630002586724e-07,
-6.427391053875908e-05,
2.8170937582672195e-08,
-3.7730890767306846e-07,
-3.494691824812435e-08,
6.52613891816145e-08,
4.968640165969873e-09,
-4.221501725965027e-08,
-1.228130770414282e-07,
-1.5202972747374588e-07,
2.470809512544747e-08,
4.815478149566843e-08,
-1.7546125263834256e-07,
9.241608367460685e-09,
-1.495063806089547e-08
],
[
-2.3796255632646535e-08,
-1.120916603980504e-08,
-9.184543159790337e-06,
-1.0919184667557147e-08,
2.1697298180356483e-08,
-6.176014366587879e-09,
-1.066993871035038e-08,
8.891398728394506e-10,
-2.4632438311300575e-08,
-1.9142484930512182e-08,
1.836471597016498e-08,
-1.7813115427145476e-09,
5.277012160576078e-09,
5.0049713706812327e-08,
4.863262570431459e-10,
2.423358402836584e-09
],
[
0.0006018157582730055,
0.0002480908005964011,
2.3625776767730713,
-0.00011921898112632334,
0.00026270910166203976,
7.736531551927328e-05,
-0.00015492374950554222,
-1.2835953384637833e-05,
-0.00018561354954726994,
0.0003795468364842236,
0.0002456938091199845,
-7.91248312452808e-05,
-7.279378041857854e-05,
0.0007115538464859128,
1.445665202481905e-05,
4.4867443648399785e-05
],
[
4.2306155023652536e-08,
-4.998280456192106e-09,
-2.5489759991614847e-06,
-2.1755310886106827e-09,
-1.569939200862791e-08,
-1.0026134367180362e-09,
6.971496713248371e-09,
3.540989029771069e-11,
5.471066710782679e-09,
-1.6874777131192786e-08,
1.6910149669424612e-10,
1.3181249425286978e-09,
1.6223271614990153e-09,
1.374962010913805e-08,
-2.9991187311395606e-10,
1.128528603899781e-09
],
[
-3.0462442168754933e-07,
5.161067662129426e-08,
-3.5702516470337287e-05,
3.44536239538229e-08,
9.369427544925202e-08,
-5.205428088572717e-09,
-7.460354112254208e-08,
-5.950875348048612e-09,
-3.4660047276702244e-08,
5.590468177274488e-08,
-1.0664278704552999e-07,
-6.063694968361233e-08,
3.846535534535178e-09,
-3.746117727132514e-07,
-1.4599564890360739e-09,
2.5230690869904038e-09
],
[
-7.65985674888725e-09,
-2.2483337414058724e-09,
-1.2583243460539961e-06,
-1.3800455223034191e-09,
2.248130348547761e-09,
-1.5248017293245653e-09,
-1.7946409913704997e-09,
1.4061588005098713e-10,
-5.775153688603041e-09,
-2.306255852957406e-09,
2.9317142047347033e-09,
-1.9960851027622795e-10,
1.2513498015565006e-09,
7.005637847612434e-09,
1.6647785927581538e-10,
5.239418343627733e-10
],
[
-4.2473857320146635e-08,
-2.58270183017828e-09,
-6.658687198068947e-06,
1.5625014171405383e-08,
-2.7524608370299575e-08,
-2.2973809521431576e-09,
-5.3861417548262125e-09,
1.629209267495213e-10,
4.473232451118747e-09,
-4.613607984538248e-08,
-3.172159779296635e-08,
2.8138067431626723e-09,
3.243732393798382e-09,
-8.133310558378071e-08,
-9.8888119914875e-10,
9.151409630092644e-10
],
[
-5.7786053719866004e-11,
-8.645120730399469e-11,
-1.8713777194534487e-08,
-3.0376486048755424e-11,
-6.056290191569502e-11,
-2.132223911321951e-11,
-2.4438801676796018e-11,
2.735526865790816e-12,
-7.797434226075595e-11,
2.6933210869883872e-11,
3.421368743872222e-11,
6.415951103733164e-12,
3.666919545786129e-11,
6.918559475321828e-11,
1.8089735371001718e-14,
-1.5103702793659024e-12
],
[
-1.4347266485970067e-08,
3.475158383281496e-09,
-2.1482403553818585e-06,
-6.368543470358645e-09,
2.7091706655824055e-09,
4.295534594689343e-09,
-9.416989854571511e-09,
8.526723216384369e-10,
-4.1122967253670595e-09,
1.3783044039428205e-08,
9.80703962483176e-09,
-4.020867194753919e-09,
-3.9108805083287734e-09,
2.092971662648324e-08,
1.4516001733966277e-09,
2.7966096105558336e-09
],
[
-1.9513323934461368e-07,
4.7708098804832844e-08,
-2.109810884576291e-05,
2.4839861723080503e-08,
-1.7550921427300636e-07,
1.814088967933003e-08,
5.0451344435487044e-08,
-9.135164291684816e-10,
1.3095339923552274e-08,
-2.282203176440234e-10,
-5.516961465446002e-08,
2.9464219508668066e-08,
5.558821403184311e-09,
-1.8418651848151057e-07,
-1.3331845627462258e-09,
-8.71432881410783e-09
],
[
-7.691247816410396e-08,
-2.998619663685531e-08,
-6.857594598841388e-06,
-1.1774096364547404e-08,
-8.829640307794762e-08,
-6.376781769290574e-09,
3.0608376277996285e-08,
-1.2098289384199212e-11,
1.1763797047592561e-08,
-7.535737012176469e-08,
-3.122517355791388e-08,
1.715575237426492e-08,
6.467367974494209e-09,
-1.4223606115137954e-07,
-5.022181337466236e-09,
-9.735780182040799e-09
],
[
-1.2281732075791751e-08,
5.4995235032606615e-09,
-1.7470995317125926e-06,
2.1090291735248456e-09,
-3.624439637306409e-10,
1.4771623924048072e-09,
3.574532891903459e-09,
5.605150024678984e-12,
-4.657255692208651e-10,
-5.468354657978125e-09,
2.0058221750218763e-09,
-2.154408873522584e-09,
-1.6514567491299204e-09,
3.892969502317101e-09,
5.004651693063522e-10,
5.617872833596493e-10
],
[
-7.61599228127352e-09,
-1.2672893845433464e-09,
-1.2135431006754516e-06,
-9.477604256957761e-10,
2.27524932228107e-09,
-9.855183336071605e-10,
-7.284792213901881e-10,
9.006512202702766e-11,
-4.227695971081857e-09,
-2.793750342178214e-09,
2.7038504768484017e-09,
-4.4274220400986053e-10,
8.530152140195923e-10,
6.8644570028197904e-09,
1.5697985966678374e-10,
4.914234019715025e-10
],
[
-3.754755084628414e-07,
-1.9317893418246967e-07,
-5.380196307669394e-05,
-2.156885159365629e-07,
-4.1455885479990684e-07,
-5.344191578160462e-08,
2.9442500704135455e-07,
-1.9709209264640037e-10,
6.885558434532868e-08,
-4.540097506833263e-07,
-3.5368233852750564e-07,
1.402679856710165e-07,
6.43664535004973e-08,
-4.839136522605259e-07,
-3.759863176355793e-08,
-7.152373626695407e-08
],
[
-1.4609162490852867e-10,
3.448253071969276e-10,
-1.3169200485663168e-07,
2.0695639646461927e-10,
-1.6571173599988498e-10,
9.099419828739741e-11,
2.5353780186421204e-10,
-1.0322607352231117e-11,
3.446798055306566e-11,
-3.389354352734131e-10,
-5.4494846135622055e-11,
-7.839678212162582e-11,
-1.0513231951669866e-10,
-2.2978673130946703e-10,
2.652602269781479e-11,
1.9431230929845e-11
],
[
-3.630348688332674e-09,
-3.5495006933672357e-10,
-3.5625251371129707e-07,
-1.5455504931427555e-10,
2.4485315996969348e-09,
2.2473042871062887e-10,
3.7912212258461864e-10,
2.214361680130672e-11,
8.327393774543168e-10,
3.4804523707521184e-09,
-1.3637408979860766e-09,
5.191775898083506e-10,
-1.8638839083262582e-10,
-1.752906486629513e-09,
-8.213329322215301e-12,
1.44508821575684e-10
]
],
"blocks.0.layers.0.tfilm.lstm.bias_ih_l0": [
-0.00010797395225381479,
-3.535728683345951e-05,
0.2894287407398224,
-3.5295631732878974e-06,
-5.376883927965537e-05,
-2.975767529278528e-06,
-8.801406693237368e-06,
-1.6877207542620454e-07,
-2.177048145313165e-06,
-3.277143696323037e-05,
-1.1427233403082937e-05,
-2.6973173135047546e-06,
-2.5931992695404915e-06,
-9.047671483131126e-05,
-1.8053067663004185e-07,
-4.5795795244885085e-07,
-0.00010055620805360377,
-2.1117190044606104e-05,
0.3703581690788269,
-3.4331278584431857e-06,
-5.1923125283792615e-05,
-2.583992909421795e-06,
-8.671006071381271e-06,
-7.758843878491462e-08,
-2.3962593331816606e-06,
-3.083703632000834e-05,
-1.1118980182800442e-05,
-2.6354618967161514e-06,
-2.2817628178017912e-06,
-8.764865197008476e-05,
-1.848736275178453e-07,
-4.466060659069626e-07,
-0.00044624562724493444,
0.00012719583173748106,
0.33139458298683167,
0.00020972115453332663,
-0.0007919815834611654,
0.00032382976496592164,
0.0003985539951827377,
2.4684512027306482e-05,
0.0004361339961178601,
-0.0004115017072763294,
-0.0003537609300110489,
4.3295112845953554e-05,
-0.00024372713232878596,
-0.0007888666586950421,
2.4085848053800873e-05,
-5.004064223612659e-05,
-0.00010807862418005243,
-3.699419175973162e-05,
-0.36124372482299805,
-3.528966317389859e-06,
-5.4242471378529444e-05,
-2.999930984515231e-06,
-8.792544576863293e-06,
-1.9758886082854588e-07,
-2.1819241737830453e-06,
-3.2785505027277395e-05,
-1.1424510375945829e-05,
-2.700638560781954e-06,
-2.608689783301088e-06,
-9.043373574968427e-05,
-1.8039099813904613e-07,
-4.576235426156927e-07
],
"blocks.0.layers.0.tfilm.lstm.bias_hh_l0": [
-0.00010797395225381479,
-3.535728683345951e-05,
0.2894287407398224,
-3.5295631732878974e-06,
-5.376883927965537e-05,
-2.975767529278528e-06,
-8.801406693237368e-06,
-1.6877207542620454e-07,
-2.177048145313165e-06,
-3.277143696323037e-05,
-1.1427233403082937e-05,
-2.6973173135047546e-06,
-2.5931992695404915e-06,
-9.047671483131126e-05,
-1.8053067663004185e-07,
-4.5795795244885085e-07,
-0.00010055620805360377,
-2.1117190044606104e-05,
0.3703581690788269,
-3.4331278584431857e-06,
-5.1923125283792615e-05,
-2.583992909421795e-06,
-8.671006071381271e-06,
-7.758843878491462e-08,
-2.3962593331816606e-06,
-3.083703632000834e-05,
-1.1118980182800442e-05,
-2.6354618967161514e-06,
-2.2817628178017912e-06,
-8.764865197008476e-05,
-1.848736275178453e-07,
-4.466060659069626e-07,
-0.00044624562724493444,
0.00012719583173748106,
0.33139458298683167,
0.00020972115453332663,
-0.0007919815834611654,
0.00032382976496592164,
0.0003985539951827377,
2.4684512027306482e-05,
0.0004361339961178601,
-0.0004115017072763294,
-0.0003537609300110489,
4.3295112845953554e-05,
-0.00024372713232878596,
-0.0007888666586950421,
2.4085848053800873e-05,
-5.004064223612659e-05,
-0.00010807862418005243,
-3.699419175973162e-05,
-0.3351843059062958,
-3.528966317389859e-06,
-5.4242471378529444e-05,
-2.999930984515231e-06,
-8.792544576863293e-06,
-1.9758886082854588e-07,
-2.1819241737830453e-06,
-3.2785505027277395e-05,
-1.1424510375945829e-05,
-2.700638560781954e-06,
-2.608689783301088e-06,
-9.043373574968427e-05,
-1.8039099813904613e-07,
-4.576235426156927e-07
],
"blocks.0.layers.0.mix.weight": [
[
[
-2.3052102449128142e-07
],
[
1.3742356586021742e-08
],
[
0.0034001737367361784
],
[
8.083373082001799e-09
],
[
5.1897135477929623e-08
],
[
-2.5656675006757723e-08
],
[
-2.4361517247939446e-08
],
[
3.9040148891444915e-09
],
[
-0.0010185223072767258
],
[
1.057066896237302e-07
],
[
-2.1061848098913316e-10
],
[
-1.25173480469698e-08
],
[
-4.1843073006475606e-08
],
[
1.1851335557366838e-07
],
[
4.114898729312699e-06
],
[
9.529215090620102e-12
]
],
[
[
7.029158268778701e-07
],
[
-7.986034056273184e-09
],
[
0.2392662614583969
],
[
-1.5105356965250394e-08
],
[
-2.670028287354853e-08
],
[
-6.103841343474414e-08
],
[
-5.983447692869959e-08
],
[
2.229207574089287e-08
],
[
-0.0008520586998201907
],
[
-1.4010636206762683e-08
],
[
-4.147127363740566e-10
],
[
-1.393426263263109e-09
],
[
-2.1785398374163378e-08
],
[
-3.6043306117505836e-09
],
[
1.114095539378468e-05
],
[
1.8219023512067167e-11
]
],
[
[
1.4007488289280445e-06
],
[
1.7193512391600052e-08
],
[
-0.026025669649243355
],
[
1.4653568136679951e-08
],
[
1.7843949535745196e-06
],
[
-2.4695856026824003e-08
],
[
3.691626915269808e-08
],
[
-2.5840751760597414e-09
],
[
0.0007562777027487755
],
[
3.583483376701224e-08
],
[
8.9120383295338e-10
],
[
-1.0536970762586861e-07
],
[
1.428967788541513e-08
],
[
-3.3642747894191416e-06
],
[
5.112501821713522e-05
],
[
-2.3627733450326538e-11
]
],
[
[
-2.989322865687427e-06
],
[
5.7487760329877347e-08
],
[
0.15716202557086945
],
[
8.805310258708232e-09
],
[
-1.381359879815136e-07
],
[
-3.7799996022158666e-08
],
[
-2.0388338128896066e-08
],
[
1.2339328669952465e-08
],
[
-0.00039279612246900797
],
[
1.9196977518731728e-07
],
[
4.1459315147651665e-11
],
[
-1.1700421964633279e-08
],
[
7.122949341464846e-09
],
[
1.4258887404139386e-07
],
[
2.3782277480677294e-07
],
[
9.825621219428093e-12
]
],
[
[
1.7308224187218002e-07
],
[
1.2661278248060626e-08
],
[
-0.03419291228055954
],
[
1.9000449213990578e-08
],
[
7.223155762403621e-07
],
[
-3.3032662827281456e-08
],
[
-4.1026826380630155e-08
],
[
9.004684775604233e-10
],
[
0.0018659618217498064
],
[
-3.313430951834562e-08
],
[
-3.957419461575462e-11
],
[
-1.920441938807471e-08
],
[
-6.080171477407248e-09
],
[
1.1053646176151233e-06
],
[
-2.3064956621965393e-05
],
[
8.607376096592123e-12
]
],
[
[
0.00015048713248688728
],
[
-1.3502940987564216e-07
],
[
-3.2994353771209717
],
[
-4.34862599263397e-08
],
[
-4.434828952071257e-06
],
[
-5.558533302973956e-06
],
[
-4.102928869542666e-06
],
[
2.786414597721887e-06
],
[
-0.002706576604396105
],
[
-1.6418265431639156e-06
],
[
-2.2801908972081009e-10
],
[
-9.6233870863216e-06
],
[
2.965136616239761e-07
],
[
-6.477868055299041e-07
],
[
-8.086283196462318e-05
],
[
-3.2213851811763172e-12
]
],
[
[
1.4815954045843682e-06
],
[
1.886446909793449e-08
],
[
0.1360739767551422
],
[
-2.7004518621254192e-09
],
[
-3.869747189355621e-08
],
[
-1.8964293246881425e-08
],
[
-5.1927138144947094e-08
],
[
1.0036061759421955e-08
],
[
0.00010687205940485
],
[
1.7546685171510035e-07
],
[
-1.8381211830398314e-10
],
[
-1.062237231508334e-08
],
[
1.0026661279027849e-08
],
[
7.760751152829926e-09
],
[
-2.0065112948941533e-06
],
[
-1.7521028031208807e-12
]
],
[
[
-3.3903068015206372e-06
],
[
5.035916217366321e-08
],
[
-0.21807049214839935
],
[
-1.0663087302020813e-08
],
[
-1.799780534383899e-06
],
[
5.98501443960231e-08
],
[
1.0861726629229906e-08
],
[
9.68291072322991e-11
],
[
-0.0006397331599146128
],
[
3.2213367973099594e-08
],
[
-8.999011535948398e-10
],
[
9.050189930803754e-08
],
[
3.646712443128308e-08
],
[
1.8632182445799117e-06
],
[
-0.00011769166303565726
],
[
-2.2240173244703065e-11
]
],
[
[
-6.40899486370472e-07
],
[
7.364942433696342e-08
],
[
0.21894310414791107
],
[
1.607329380703959e-08
],
[
-3.6723929497384233e-07
],
[
-1.3540658594379806e-09
],
[
-1.3840146806387565e-08
],
[
1.537495286640933e-08
],
[
0.0007633095956407487
],
[
1.3873464865810092e-07
],
[
7.033383597754295e-11
],
[
-1.0797537086659759e-08
],
[
-2.7423078918786814e-08
],
[
7.40319734404693e-08
],
[
-1.833215355873108e-05
],
[
9.134227228757563e-12
]
],
[
[
-8.635653898636519e-07
],
[
-1.0148424323119798e-09
],
[
0.04822169989347458
],
[
-1.389954551456185e-08
],
[
3.990043921930919e-07
],
[
-5.3666471266922144e-09
],
[
1.7097027793511188e-08
],
[
4.405639852933518e-09
],
[
-0.00035431463038548827
],
[
-6.821846199045467e-08
],
[
2.1223030277628396e-10
],
[
-1.6383536305397683e-08
],
[
-5.79828896007939e-09
],
[
-5.241950020717923e-07
],
[
-1.2195599992992356e-05
],
[
3.0392845358495624e-12
]
],
[
[
-2.6003337438851304e-07
],
[
5.609361508618349e-08
],
[
0.4926292896270752
],
[
4.85458961918539e-09
],
[
-8.302334464360683e-08
],
[
2.0913617504447757e-08
],
[
-3.442210783077826e-08
],
[
7.64368746075661e-09
],
[
0.00031758990371599793
],
[
1.2167865293122304e-07
],
[
-1.4598354469708141e-10
],
[
3.1775011510859485e-09
],
[
-1.3965261835835463e-08
],
[
-5.013610575588245e-07
],
[
-5.375124146667076e-06
],
[
2.5714019455391757e-11
]
],
[
[
-2.6228776732750703e-06
],
[
-2.927529685337049e-08
],
[
1.0421888828277588
],
[
-1.8145518865253507e-08
],
[
5.03748253777303e-07
],
[
-6.00538925255023e-08
],
[
-1.5536986808228903e-08
],
[
1.019758322229336e-08
],
[
0.00046557962195947766
],
[
3.290239476427814e-07
],
[
1.8606907681295581e-10
],
[
-4.045882207037721e-08
],
[
-7.173893035172796e-09
],
[
-9.894291679302114e-07
],
[
-2.7341802706359886e-05
],
[
3.7628511417864274e-12
]
],
[
[
-9.332352988167258e-07
],
[
4.0724959404769834e-08
],
[
0.36913546919822693
],
[
1.6550188774999697e-08
],
[
5.2591527577305897e-08
],
[
-4.692017441243479e-09
],
[
-4.4813916133534804e-08
],
[
5.387424728553469e-09
],
[
7.410708349198103e-05
],
[
1.7419721132228005e-07
],
[
1.891394402209201e-10
],
[
-9.373392728662111e-09
],
[
-3.1896686181198675e-08
],
[
2.4249702690326558e-08
],
[
-2.145218059013132e-05
],
[
7.976498801742782e-12
]
],
[
[
-3.645107824468141e-07
],
[
3.0065500311593496e-08
],
[
-0.017316266894340515
],
[
-2.9270452728269447e-09
],
[
-2.0158242364232137e-07
],
[
-4.821265164878241e-08
],
[
-5.754055010243064e-08
],
[
2.1036454356249124e-08
],
[
-0.0007191245094873011
],
[
-2.1899317914630956e-07
],
[
-2.2682629385872843e-10
],
[
1.2034709229169493e-08
],
[
4.039348766582407e-08
],
[
-4.5682804739044514e-07
],
[
4.186904334346764e-06
],
[
2.3614906904945165e-11
]
],
[
[
3.0471833269984927e-06
],
[
-9.071092321732976e-09
],
[
-1.2712109088897705
],
[
-1.5708533140923464e-08
],
[
4.372224395865487e-07
],
[
-3.794535530232679e-08
],
[
2.6061412583544552e-08
],
[
-3.2806291017095646e-09
],
[
0.00037372615770436823
],
[
-4.7281329074166933e-08
],
[
-3.710039775395302e-10
],
[
5.975880412734114e-08
],
[
7.659792089498296e-08
],
[
1.9806695945590036e-06
],
[
1.5685998732806183e-05
],
[
-1.0146022043355796e-11
]
],
[
[
2.4986948119476438e-06
],
[
1.1792135268251513e-07
],
[
-1.3859156370162964
],
[
3.59723317799876e-09
],
[
1.6147794212884037e-06
],
[
5.720276163856397e-08
],
[
6.542870778503129e-08
],
[
-2.4303766110733704e-08
],
[
-0.00016831290849950165
],
[
-2.5238793455173436e-07
],
[
-1.7586257450297182e-10
],
[
-5.034399119807631e-09
],
[
1.3655141462010079e-09
],
[
5.583839310929761e-07
],
[
6.826449680374935e-05
],
[
-3.8695959631018795e-11
]
]
],
"blocks.0.layers.0.mix.bias": [
-0.0034164106473326683,
-0.0034491210244596004,
-0.002440730109810829,
0.005117602646350861,
-0.0028356052935123444,
0.03142997622489929,
0.0006698923534713686,
0.0030379174277186394,
-1.895605237223208e-05,
-0.00020414470054674894,
-0.007614235393702984,
-0.007860281504690647,
-0.0033050125930458307,
0.002255867002531886,
0.009758850559592247,
0.019107796251773834
],
"blocks.0.layers.1.conv.weight": [
[
[
0.000462670112028718,
0.0005196618149057031,
0.0005615631234832108
],
[
0.0002972783404402435,
0.000321697152685374,
0.0003487946523819119
],
[
0.00048021215479820967,
0.0005333170993253589,
0.0005861464887857437
],
[
0.0003631531435530633,
0.0004006599774584174,
0.0004390822723507881
],
[
0.0004953957977704704,
0.0005456075887195766,
0.000604180502705276
],
[
0.0008651525713503361,
0.0015954147092998028,
0.0012703279498964548
],
[
0.0003746099828276783,
0.00041344252531416714,
0.00045587451313622296
],
[
0.0006062472821213305,
0.0006680273218080401,
0.0007383627234958112
],
[
0.0002934207732323557,
0.0003224135434720665,
0.00035114731872454286
],
[
0.00041621318086981773,
0.00045639739255420864,
0.0005092808278277516
],
[
-1.61113275680691e-05,
-4.472393629839644e-05,
-9.663481614552438e-05
],
[
-0.0008272724808193743,
-0.0009174198494292796,
-0.0010495526948943734
],
[
0.00014541709970217198,
0.0001467247202526778,
0.00014145394379738718
],
[
0.0004949343274347484,
0.0005506122251972556,
0.0005991418729536235
],
[
0.0009698302601464093,
0.00107898551505059,
0.0011549682822078466
],
[
0.0009757274528965354,
0.001090503646992147,
0.00116441969294101
]
],
[
[
-8.766020073380787e-06,
-1.3431647857942153e-05,
-1.2321985195740126e-05
],
[
-5.138844244356733e-06,
-1.2468753084249329e-05,
-1.2106864232919179e-05
],
[
-9.481867891736329e-06,
-1.4235540220397525e-05,
-1.2905914445582312e-05
],
[
-6.064308308850741e-06,
-1.2241759577591438e-05,
-1.1477407497295644e-05
],
[
-8.84995733940741e-06,
-1.3654000213136896e-05,
-1.2311214959481731e-05
],
[
-1.880621312011499e-05,
-8.764064659771975e-06,
-1.213946802636201e-06
],
[
-7.076412202877691e-06,
-1.3338503777049482e-05,
-1.2619962035387289e-05
],
[
-1.1222686225664802e-05,
-1.43541819852544e-05,
-1.2343425623839721e-05
],
[
-6.016782208462246e-06,
-1.2977209735254291e-05,
-1.2521581993496511e-05
],
[
-7.866990017646458e-06,
-1.2773616617778316e-05,
-1.1741843081836123e-05
],
[
-5.475851025948941e-07,
-1.2414290722517762e-05,
-1.2839745068049524e-05
],
[
1.3322891390998848e-05,
8.512921340297908e-06,
1.7780796497390838e-06
],
[
-2.8571100756380474e-06,
-1.261814122699434e-05,
-1.2389802577672526e-05
],
[
-8.9745062723523e-06,
-1.372252245346317e-05,
-1.2439114470907953e-05
],
[
-1.5028927919047419e-05,
-1.2280364899197593e-05,
-7.516517598560313e-06
],
[
-1.5547249859082513e-05,
-1.2324728231760673e-05,
-7.35296998755075e-06
]
],
[
[
4.580005770549178e-05,
4.9261747335549444e-05,
5.058321403339505e-05
],
[
3.6588317016139627e-05,
3.980001565651037e-05,
4.0934271964943036e-05
],
[
4.3809151975438e-05,
4.740018266602419e-05,
4.8786791012389585e-05
],
[
3.882064629578963e-05,
4.218589310767129e-05,
4.338865983299911e-05
],
[
4.6717799705220386e-05,
5.0340637244516984e-05,
5.1715851441258565e-05
],
[
3.7899950257269666e-05,
4.35317269875668e-05,
9.930459782481194e-05
],
[
4.231018101563677e-05,
4.5648506784345955e-05,
4.690366768045351e-05
],
[
5.3855128498980775e-05,
5.789725764770992e-05,
5.938966205576435e-05
],
[
3.468925569904968e-05,
3.778153040912002e-05,
3.8963906263234094e-05
],
[
4.5235359721118584e-05,
4.864108268520795e-05,
4.993333641323261e-05
],
[
3.128948810626753e-05,
3.520373138599098e-05,
3.607363032642752e-05
],
[
6.064089757273905e-05,
6.434079114114866e-05,
6.353235221467912e-05
],
[
3.364078656886704e-05,
3.7049652746645734e-05,
3.804318839684129e-05
],
[
4.45466794189997e-05,
4.7994282795116305e-05,
4.9341302656102926e-05
],
[
6.791926716687158e-05,
7.402131450362504e-05,
7.512635784223676e-05
],
[
6.538898014696315e-05,
7.169476157287136e-05,
7.297760748770088e-05
]
],
[
[
4.8806115955812857e-05,
3.208966882084496e-05,
2.2963828087085858e-05
],
[
1.4738420759385917e-05,
-4.133125003136229e-06,
-1.137234994530445e-05
],
[
5.726384915760718e-05,
4.025344242108986e-05,
3.0924213206162676e-05
],
[
2.3582348148920573e-05,
5.702640464733122e-06,
-2.3796799268893665e-06
],
[
5.402904935181141e-05,
3.70881607523188e-05,
2.7747886633733287e-05
],
[
0.0005843850085511804,
-5.5132535635493696e-05,
0.00012071826495230198
],
[
2.3338914616033435e-05,
4.563030415738467e-06,
-3.4875920391641557e-06
],
[
7.05489146639593e-05,
5.4811793233966455e-05,
4.459740375750698e-05
],
[
1.1258282938797493e-05,
-7.4316740210633725e-06,
-1.4809475032961927e-05
],
[
3.925499186152592e-05,
2.1994756025378592e-05,
1.3044966181041673e-05
],
[
-4.8253608838422224e-05,
-6.962860061321408e-05,
-7.243751315400004e-05
],
[
-0.00013756747648585588,
-0.0001432756253052503,
-0.00014354185259435326
],
[
-2.221056456619408e-05,
-4.2287272663088515e-05,
-4.779691153089516e-05
],
[
5.2077099098823965e-05,
3.5825385566568e-05,
2.66633287537843e-05
],
[
0.00011795689351856709,
6.900721928104758e-05,
7.178772648330778e-05
],
[
0.00011877031647600234,
6.132195267127827e-05,
6.730254972353578e-05
]
],
[
[
0.0030884684529155493,
0.0033616141881793737,
0.0038165904115885496
],
[
0.0024823942221701145,
0.0028389026410877705,
0.003126614959910512
],
[
0.0031538635957986116,
0.003470227587968111,
0.003923200536519289
],
[
0.0027165133506059647,
0.0030430734623223543,
0.0034372617956250906
],
[
0.003256217110902071,
0.0035763385239988565,
0.004034179728478193
],
[
0.006154573522508144,
0.006454112008213997,
0.007063295226544142
],
[
0.002807346871122718,
0.0031586787663400173,
0.003532604780048132
],
[
0.003568180138245225,
0.003893048269674182,
0.00439760135486722
],
[
0.002506989985704422,
0.0028439119923859835,
0.0031692434567958117
],
[
0.002945088315755129,
0.0032944479025900364,
0.0036908723413944244
],
[
0.0011735406005755067,
0.0013146100100129843,
0.001303619472309947
],
[
-0.0035958357620984316,
-0.004020814783871174,
-0.0038555192295461893
],
[
0.0019122647354379296,
0.0021916485857218504,
0.00233379821293056
],
[
0.0031839851289987564,
0.0034900368191301823,
0.003961584530770779
],
[
0.004662412218749523,
0.004941372200846672,
0.005518291611224413
],
[
0.004724250640720129,
0.005010013934224844,
0.005586214829236269
]
],
[
[
7.345702215388883e-06,
7.792514225002378e-06,
6.618176939809928e-06
],
[
9.167150892608333e-06,
1.0227342500002123e-05,
9.2744512585341e-06
],
[
6.866970579721965e-06,
7.427729087794432e-06,
6.141305675555486e-06
],
[
9.402938303537667e-06,
1.009400966722751e-05,
9.105387107410934e-06
],
[
7.268066838150844e-06,
7.768155228404794e-06,
6.475082045653835e-06
],
[
7.867912790970877e-05,
4.614699719240889e-05,
-3.38515019393526e-05
],
[
9.8277114375378e-06,
1.0738854143710341e-05,
9.662017873779405e-06
],
[
6.473065695900004e-06,
6.0772517826990224e-06,
4.764737241202965e-06
],
[
9.729534212965518e-06,
1.0906342140515335e-05,
9.88167266768869e-06
],
[
7.693367479078006e-06,
8.43986254039919e-06,
7.253304829646368e-06
],
[
1.0958241546177305e-05,
1.135445745603647e-05,
1.1027968866983429e-05
],
[
8.940784027799964e-06,
9.752056939760223e-06,
1.002916724246461e-05
],
[
1.121776040236e-05,
1.197198434965685e-05,
1.1384670870029368e-05
],
[
6.985722393437754e-06,
7.268934950843686e-06,
6.079477770981612e-06
],
[
1.6129841924339416e-06,
-1.1177163514730637e-06,
-3.2738832942413865e-06
],
[
3.1156623663264327e-06,
1.658644350754912e-07,
-2.1507769361051032e-06
]
],
[
[
-0.019435234367847443,
-0.1441107839345932,
0.04760411009192467
],
[
-0.0751136988401413,
-0.19589456915855408,
0.06489241123199463
],
[
-0.03536886349320412,
-0.16344621777534485,
0.027573153376579285
],
[
-0.027164408937096596,
-0.1525089144706726,
0.09524388611316681
],
[
0.005773655138909817,
-0.08552992343902588,
0.10719062387943268
],
[
0.5545940399169922,
0.8025903105735779,
-0.28944122791290283
],
[
-0.0387149304151535,
-0.14888513088226318,
0.088856041431427
],
[
-0.01775888353586197,
-0.09778076410293579,
-0.02023983560502529
],
[
-0.0413852296769619,
-0.16764675080776215,
0.07897496968507767
],
[
0.01176851149648428,
-0.07762327045202255,
0.047305673360824585
],
[
-0.06789267063140869,
-0.2288692593574524,
0.10635960847139359
],
[
-0.19320161640644073,
-0.41656437516212463,
0.08696553856134415
],
[
-0.061344876885414124,
-0.20837055146694183,
0.10567542165517807
],
[
-0.012547398917376995,
-0.10914302617311478,
0.06832867860794067
],
[
0.057190440595149994,
0.09618917107582092,
-0.1699262410402298
],
[
-0.08262689411640167,
-0.02418842725455761,
-0.3635220229625702
]
],
[
[
-2.1224701413302682e-05,
-6.156710878713056e-05,
-2.647245673870202e-05
],
[
-8.879108463588636e-06,
-4.0509567043045536e-05,
-1.766590867191553e-05
],
[
-2.519247391319368e-05,
-6.377709360094741e-05,
-2.80052081507165e-05
],
[
-2.223235060228035e-05,
-5.874617272638716e-05,
-3.019954965566285e-05
],
[
-2.528128788981121e-05,
-6.386863242369145e-05,
-2.825668161676731e-05
],
[
-8.95819830475375e-05,
0.00023084420536179096,
7.253908552229404e-05
],
[
-1.5050500223878771e-05,
-5.437378786155023e-05,
-2.4402346753049642e-05
],
[
-3.9084865420591086e-05,
-7.91699712863192e-05,
-3.720926906680688e-05
],
[
-1.8892947991844267e-05,
-5.4387586715165526e-05,
-2.9212149456725456e-05
],
[
-1.697973675618414e-05,
-5.532915747608058e-05,
-2.2858448573970236e-05
],
[
8.064385838224553e-06,
-3.3502558949294325e-07,
4.068909220222849e-06
],
[
6.581472553079948e-05,
6.992149428697303e-05,
8.602524030720815e-05
],
[
-2.5619433472456876e-06,
-2.6741399778984487e-05,
-1.1189260476385243e-05
],
[
-2.7319265427649952e-05,
-6.594043225049973e-05,
-3.09775241476018e-05
],
[
-7.53343483665958e-05,
-0.00014194310642778873,
-5.197857535677031e-05
],
[
-9.25342392292805e-05,
-0.00016719537961762398,
-7.032888242974877e-05
]
],
[
[
-0.0006128897657617927,
-0.00030069000786170363,
-0.0003778805839829147
],
[
-0.0003889127401635051,
-0.0001557584764668718,
-0.00018347335571888834
],
[
-0.0006764971767552197,
-0.000314247386995703,
-0.00039407238364219666
],
[
-0.00045324585516937077,
-0.00021206506062299013,
-0.0002576567931100726
],
[
-0.0007359788287431002,
-0.00032439493224956095,
-0.00040500363684259355
],
[
0.006177518516778946,
-0.004960319492965937,
0.0011238557053729892
],
[
-0.0005516878445632756,
-0.0002311889111297205,
-0.0002765850513242185
],
[
-0.0008937367820180953,
-0.000420643191318959,
-0.000579338928218931
],
[
-0.0003833210503216833,
-0.00015913719835225493,
-0.00019226853328291327
],
[
-0.0007482680375687778,
-0.0002666400105226785,
-0.00033361255191266537
],
[
-0.00013536431652028114,
4.5980195864103734e-05,
4.424247890710831e-05
],
[
0.00040561670903116465,
0.0004622095439117402,
0.00042578010470606387
],
[
-0.0002477015077602118,
-5.7618752180133015e-05,
-7.017309690127149e-05
],
[
-0.0005840617814101279,
-0.00030075726681388915,
-0.00038317046710290015
],
[
0.0001342467003269121,
-0.0008956082165241241,
-0.0009992487030103803
],
[
0.0006134343566372991,
-0.0009222682565450668,
-0.000868449395056814
]
],
[
[
-2.7467110612633405e-06,
-3.0451728889602236e-06,
-3.2602401915937662e-06
],
[
-1.355850372419809e-06,
-1.289131432713475e-06,
-1.4694049923491548e-06
],
[
-3.1767210657562828e-06,
-3.4367142234259518e-06,
-3.715073489729548e-06
],
[
-2.2631779756920878e-06,
-2.269024662382435e-06,
-2.532136704758159e-06
],
[
-2.923325155279599e-06,
-3.171831394865876e-06,
-3.4797328680724604e-06
],
[
-3.905826815753244e-05,
-1.4269958228396717e-05,
2.9427783374558203e-05
],
[
-2.007479679377866e-06,
-2.1949542770016706e-06,
-2.3604839043400716e-06
],
[
-3.4108168165403185e-06,
-3.6875503610644955e-06,
-4.12952977058012e-06
],
[
-1.9188219084753655e-06,
-1.8391747289570048e-06,
-2.089519739456591e-06
],
[
-2.271649009344401e-06,
-2.436581553411088e-06,
-2.690703468033462e-06
],
[
1.6887414631128195e-06,
2.3665613753109938e-06,
2.3063059870764846e-06
],
[
1.2967366274097003e-05,
1.455957317375578e-05,
1.5307552530430257e-05
],
[
1.0457981858280618e-07,
3.236345094137505e-07,
2.1939669636594772e-07
],
[
-2.922174871855532e-06,
-3.10289260596619e-06,
-3.4287272683286574e-06
],
[
3.55130708840079e-07,
-4.718094146483054e-07,
-1.203452256959281e-06
],
[
2.977738766674065e-08,
-6.981397291383473e-07,
-1.318139652539685e-06
]
],
[
[
0.05197707936167717,
0.07400117814540863,
-0.1735023409128189
],
[
0.0840374156832695,
0.06799095124006271,
-0.1275061070919037
],
[
-0.04042084515094757,
-0.026011744514107704,
-0.2742687463760376
],
[
0.049330200999975204,
0.04093223065137863,
-0.16474872827529907
],
[
0.016969705000519753,
0.03974924236536026,
-0.20413263142108917
],
[
0.16963143646717072,
0.5322136878967285,
-0.48545926809310913
],
[
0.06557192653417587,
0.058974042534828186,
-0.1533917635679245
],
[
0.08571930974721909,
0.14694155752658844,
-0.18043506145477295
],
[
0.05574476718902588,
0.05259311944246292,
-0.15325194597244263
],
[
0.037924859672784805,
0.09187115728855133,
-0.21190233528614044
],
[
0.09376507997512817,
0.04922075569629669,
-0.09401897341012955
],
[
0.18714076280593872,
0.0667906105518341,
0.03651747480034828
],
[
0.0892292931675911,
0.04996147006750107,
-0.11048899590969086
],
[
0.027674229815602303,
0.05797945708036423,
-0.1916135549545288
],
[
0.3219889998435974,
0.4840756058692932,
-0.06086507439613342
],
[
-0.0665450319647789,
0.10642316192388535,
-0.4870842695236206
]
],
[
[
8.64237081259489e-05,
0.00011588178313104436,
0.00011583454761421308
],
[
1.5493842511205003e-05,
2.680262150533963e-05,
2.56843395618489e-05
],
[
9.686312841949984e-05,
0.0001276350812986493,
0.00012795157090295106
],
[
4.543134127743542e-05,
6.46144908387214e-05,
6.349653995130211e-05
],
[
0.00010285673488397151,
0.00013355295232031494,
0.00013403828779701144
],
[
0.0003575147420633584,
0.00043311918852850795,
0.0004620807303581387
],
[
4.916641773888841e-05,
6.871375808259472e-05,
6.77741554682143e-05
],
[
0.00015835939848329872,
0.00019960719509981573,
0.0002026315632974729
],
[
1.833165697462391e-05,
3.1438386940862983e-05,
3.0299304853542708e-05
],
[
7.220305997179821e-05,
9.828289330471307e-05,
9.772815246833488e-05
],
[
-0.00014648816431872547,
-0.00015984509082045406,
-0.00016320425493177027
],
[
-0.0004669629270210862,
-0.0004549618170130998,
-0.0004651224589906633
],
[
-6.264669355005026e-05,
-6.323229899862781e-05,
-6.477790157077834e-05
],
[
0.00010861206101253629,
0.00013935293827671558,
0.00013948518608231097
],
[
0.00028244650457054377,
0.0003455145633779466,
0.0003616986214183271
],
[
0.00029331870609894395,
0.00035749957896769047,
0.0003743411507457495
]
],
[
[
2.3996373784029856e-05,
3.376639142516069e-05,
4.287399860913865e-05
],
[
2.7693989977706224e-05,
3.484328044578433e-05,
4.0598642954137176e-05
],
[
2.5196390197379515e-05,
3.524764906615019e-05,
4.4659256673185155e-05
],
[
2.7251153369434178e-05,
3.541132537066005e-05,
4.2738985939649865e-05
],
[
2.9123355488991365e-05,
3.9280945202335715e-05,
4.876156526734121e-05
],
[
1.9623485059128143e-05,
-2.1068737623863854e-05,
-0.00011981165152974427
],
[
2.6931640604743734e-05,
3.5328535886947066e-05,
4.282569352653809e-05
],
[
3.5497308999765664e-05,
4.7375713620567694e-05,
5.846456770086661e-05
],
[
2.689822758839e-05,
3.420699431444518e-05,
4.049012204632163e-05
],
[
2.5181499950122088e-05,
3.432082667131908e-05,
4.3198506318731233e-05
],
[
2.9995349905220792e-05,
3.3148142392747104e-05,
3.399891284061596e-05
],
[
-2.3606586182722822e-05,
-2.699147444218397e-05,
-2.7839090762427077e-05
],
[
3.0122686439426616e-05,
3.55334414052777e-05,
3.8605910958722234e-05
],
[
2.911818774009589e-05,
3.903153265127912e-05,
4.8430723836645484e-05
],
[
0.00011894611088791862,
0.00013540346117224544,
0.00013014304568059742
],
[
0.0001263557351194322,
0.0001419222098775208,
0.00013386963109951466
]
],
[
[
-0.03091759793460369,
-0.022946098819375038,
0.028632333502173424
],
[
-0.03496227785944939,
-0.05508275330066681,
0.0216305423527956
],
[
0.023429471999406815,
0.03801432251930237,
0.08424821496009827
],
[
-0.06943321228027344,
-0.08166397362947464,
-0.014054031111299992
],
[
-0.03244997188448906,
-0.01946735754609108,
0.02923763543367386
],
[
0.531822681427002,
0.9964216351509094,
0.6178073883056641
],
[
-0.0254075825214386,
-0.03304516524076462,
0.03242526575922966
],
[
-0.029205428436398506,
0.013759504072368145,
0.038086436688899994
],
[
-0.024377204477787018,
-0.04452762007713318,
0.030492929741740227
],
[
0.007784162648022175,
0.01838778331875801,
0.06935430318117142
],
[
-0.031616587191820145,
-0.08202403783798218,
0.022650836035609245
],
[
-0.17173808813095093,
-0.29980990290641785,
-0.13028983771800995
],
[
-0.07767970114946365,
-0.11715340614318848,
-0.02670685015618801
],
[
0.006094356533139944,
0.020155925303697586,
0.0676601380109787
],
[
0.1997964233160019,
0.37932872772216797,
0.288628488779068
],
[
0.14965926110744476,
0.3428930342197418,
0.23883819580078125
]
],
[
[
-0.0001004027872113511,
-0.00010733828094089404,
-0.00010516026668483391
],
[
-9.448886703466997e-05,
-0.00010769138316391036,
-0.00010852231935132295
],
[
-9.93119683698751e-05,
-0.0001058834750438109,
-0.00010322133312001824
],
[
-9.94878719211556e-05,
-0.00011074470239691436,
-0.0001103489485103637
],
[
-0.00010120763181475922,
-0.00010805458441609517,
-0.00010564314288785681
],
[
-0.0009463680326007307,
0.0002992807421833277,
-0.00020517852681223303
],
[
-0.00010704230226110667,
-0.00011914208880625665,
-0.00011858883954118937
],
[
-0.00010036498861154541,
-0.00010259967530146241,
-9.764364222064614e-05
],
[
-9.864385356195271e-05,
-0.00011124092998215929,
-0.00011192763486178592
],
[
-9.940909512806684e-05,
-0.00010836881119757891,
-0.00010713748633861542
],
[
-8.948981849243864e-05,
-0.00010722999286372215,
-0.0001089065262931399
],
[
8.668888040119782e-05,
8.22415022412315e-05,
8.506514132022858e-05
],
[
-0.00010228475730400532,
-0.00011933265341212973,
-0.000120813179819379
],
[
-9.604790830053389e-05,
-0.00010275832028128207,
-0.00010047324758488685
],
[
-8.866094867698848e-05,
3.2085637940326706e-05,
1.6958532796707004e-05
],
[
-7.382089825114235e-05,
7.554254989372566e-05,
5.029435487813316e-05
]
],
[
[
1.6160311133717187e-05,
3.309148451080546e-05,
3.31824594468344e-05
],
[
1.3171237696951721e-05,
2.973640766867902e-05,
2.7706651962944306e-05
],
[
1.82437761395704e-05,
3.545773870428093e-05,
3.686967465910129e-05
],
[
1.6235546354437247e-05,
3.299273521406576e-05,
3.331524203531444e-05
],
[
2.086106724163983e-05,
3.845873288810253e-05,
4.041212741867639e-05
],
[
4.0950173570308834e-05,
6.964065687498078e-05,
8.64732573973015e-05
],
[
1.5261766748153605e-05,
3.242225284338929e-05,
3.176573954988271e-05
],
[
2.5385179469594732e-05,
4.265691677574068e-05,
4.665187589125708e-05
],
[
1.4423674656427465e-05,
3.080910391872749e-05,
3.110706529696472e-05
],
[
1.6696867533028126e-05,
3.270955494372174e-05,
3.3369426091667265e-05
],
[
7.374829237960512e-06,
1.873322435130831e-05,
1.844459075073246e-05
],
[
-2.5038183594006114e-05,
-3.8039463106542826e-05,
-5.862260513822548e-05
],
[
1.1281999832135625e-05,
2.628501897561364e-05,
2.5547502445988357e-05
],
[
2.0765313820447773e-05,
3.7920577597105876e-05,
3.969081080867909e-05
],
[
4.1217113903257996e-05,
5.815988333779387e-05,
6.716066127410159e-05
],
[
4.39827999798581e-05,
6.123915954958647e-05,
7.093602471286431e-05
]
],
[
[
-1.4996404388512019e-05,
-1.5418048860738054e-05,
-1.573548979649786e-05
],
[
-9.505934940534644e-06,
-1.00053593996563e-05,
-1.0187030966335442e-05
],
[
-1.5371100744232535e-05,
-1.5788647942827083e-05,
-1.6119623978738673e-05
],
[
-1.23752715808223e-05,
-1.2839200280723162e-05,
-1.307713409914868e-05
],
[
-1.5503339454880916e-05,
-1.5928817447274923e-05,
-1.6255115042440593e-05
],
[
-5.035505182604538e-06,
-5.6456065067322925e-06,
-6.210565061337547e-06
],
[
-1.2579435860970989e-05,
-1.30491353047546e-05,
-1.3288784430187661e-05
],
[
-1.6381511159124784e-05,
-1.676652937021572e-05,
-1.7193053281516768e-05
],
[
-1.0508317245694343e-05,
-1.0993950127158314e-05,
-1.1195098522875924e-05
],
[
-1.4221837773220614e-05,
-1.4649856893811375e-05,
-1.4946524970582686e-05
],
[
-4.065532721142517e-06,
-4.424635335453786e-06,
-4.600348802341614e-06
],
[
-3.5811167435895186e-06,
-3.86244619221543e-06,
-4.0142240322893485e-06
],
[
-6.394538104359526e-06,
-6.859368568257196e-06,
-7.023767921054969e-06
],
[
-1.5153806998569053e-05,
-1.5571396943414584e-05,
-1.5899706340860575e-05
],
[
-6.575285624421667e-06,
-7.193524652393535e-06,
-7.91460206528427e-06
],
[
-6.071557891118573e-06,
-6.710150501021417e-06,
-7.449050372088095e-06
]
],
[
[
3.977038076641293e-08,
3.6625628752062767e-08,
3.6331375241616115e-08
],
[
1.7269142560394357e-08,
2.0677125789347883e-08,
2.2138278765737596e-08
],
[
4.1412839379972866e-08,
3.778849588798039e-08,
3.7728174362428035e-08
],
[
2.230427753602271e-08,
1.9604454948307648e-08,
2.087546135953744e-08
],
[
3.956138172611645e-08,
3.5417890842381894e-08,
3.5551913413200964e-08
],
[
1.4620601618275941e-08,
1.1770071139949323e-08,
7.8698239036612e-09
],
[
2.09705302012253e-08,
1.8765193843250927e-08,
2.0093878561056044e-08
],
[
5.688567839001735e-08,
5.7088328730969806e-08,
5.6379828805575016e-08
],
[
1.8260859491192605e-08,
1.8653899758191983e-08,
2.0124351962635956e-08
],
[
3.6104911060874656e-08,
3.2286081363963604e-08,
3.2667653471207814e-08
],
[
3.6651428558798216e-08,
4.370852124679914e-08,
4.253385554875422e-08
],
[
1.639643265605173e-08,
1.625462076049189e-08,
1.546075623082288e-08
],
[
2.3840918572659575e-08,
3.120007718848683e-08,
3.173866502947931e-08
],
[
4.068726866535144e-08,
3.707333107172417e-08,
3.700434447750922e-08
],
[
-1.614912115144307e-08,
-1.3891112260466798e-08,
-1.1977907554694411e-08
],
[
-2.115212538456035e-08,
-1.9372432547015705e-08,
-1.76871086665642e-08
]
],
[
[
8.821325536700897e-08,
9.292028124718854e-08,
9.507284914889169e-08
],
[
4.589438162838633e-08,
4.843855450076262e-08,
4.6854790269890145e-08
],
[
9.039857928883066e-08,
9.522410238105294e-08,
9.764475805695838e-08
],
[
6.91759538540282e-08,
7.274869773254977e-08,
7.258317680225446e-08
],
[
9.105080067683957e-08,
9.586933202854198e-08,
9.815948942559771e-08
],
[
-1.1586378434458311e-07,
-1.1502623920023325e-07,
-1.1236370056622036e-07
],
[
7.689220637985272e-08,
8.091093661732884e-08,
8.18034493477171e-08
],
[
9.010542356691076e-08,
9.533630418445682e-08,
9.919989452100708e-08
],
[
5.451238038745032e-08,
5.74396885610895e-08,
5.618996112843888e-08
],
[
8.383848637549818e-08,
8.822640040762053e-08,
8.961491460013349e-08
],
[
3.549188720697316e-09,
4.651902418828513e-09,
2.3010420235891615e-09
],
[
-1.1929953913636382e-08,
-1.28691546308346e-08,
-1.5884827675449742e-08
],
[
2.002822618862865e-08,
2.1496365576467724e-08,
1.898604651273672e-08
],
[
9.04827999193003e-08,
9.524821109607728e-08,
9.748887208615997e-08
],
[
1.6829519999816966e-09,
5.588369322850895e-09,
9.630351627265554e-09
],
[
-2.9405897716827667e-09,
8.952258379046896e-10,
5.016243864730541e-09
]
],
[
[
-1.037413767335238e-06,
-1.0590715646685567e-06,
-1.053642790793674e-06
],
[
-7.8451904528265e-07,
-8.045766435316182e-07,
-8.246233846875839e-07
],
[
-1.0827184269146528e-06,
-1.1048659871448763e-06,
-1.0986299230353325e-06
],
[
-8.857608690959751e-07,
-9.056352610059548e-07,
-9.104736022891302e-07
],
[
-1.0994457397828228e-06,
-1.1214756341360044e-06,
-1.1151993248859071e-06
],
[
-3.0014373351150425e-06,
-3.049570977964322e-06,
-3.050501391044236e-06
],
[
-9.0167958433085e-07,
-9.213588896272995e-07,
-9.218429681823181e-07
],
[
-1.3470190651787561e-06,
-1.3735966604144778e-06,
-1.3744720490649343e-06
],
[
-8.3685108620557e-07,
-8.567234885958896e-07,
-8.713523129699752e-07
],
[
-9.72078055383463e-07,
-9.92764171314775e-07,
-9.88169858828769e-07
],
[
-6.552004947479872e-07,
-6.692230840599223e-07,
-6.704125894430035e-07
],
[
9.508055853757469e-08,
1.332678039034363e-07,
2.2451600045769737e-07
],
[
-7.535721238127735e-07,
-7.721586712250428e-07,
-7.927520755401929e-07
],
[
-1.0616338386171265e-06,
-1.0834550039362512e-06,
-1.07598532395059e-06
],
[
-1.7522108919365564e-06,
-1.7881737903735484e-06,
-1.8224798168375855e-06
],
[
-1.8152618395106401e-06,
-1.851477577474725e-06,
-1.885444248728163e-06
]
],
[
[
1.550124943605624e-05,
2.4789985673123738e-06,
-1.1547954272828065e-05
],
[
-1.6946038158494048e-05,
-3.53594878106378e-05,
-5.418918590294197e-05
],
[
1.3868474525224883e-05,
1.5523856973231887e-06,
-1.124029586208053e-05
],
[
8.51911954669049e-06,
-6.217976078914944e-06,
-2.2944926968193613e-05
],
[
1.936415173986461e-05,
7.144673418224556e-06,
-5.9733815760409925e-06
],
[
0.0003819925186689943,
0.00037243225960992277,
0.0003635533503256738
],
[
1.1283746971457731e-05,
-3.6833068861596985e-06,
-2.080342710542027e-05
],
[
-1.9109747881884687e-06,
-1.5057278687891085e-05,
-2.7441788915893994e-05
],
[
-3.0240923933888553e-06,
-2.0092789782211185e-05,
-3.839245982817374e-05
],
[
7.377517704298953e-06,
-4.815890861209482e-06,
-1.8259508578921668e-05
],
[
-0.00010808109800564125,
-0.00013040355406701565,
-0.00014920788817107677
],
[
-0.00027190998662263155,
-0.0002913901407737285,
-0.0003037301648873836
],
[
-5.6018623581621796e-05,
-7.759253639960662e-05,
-9.645883255871013e-05
],
[
1.4622202797909267e-05,
2.1489101982297143e-06,
-1.0836743967956863e-05
],
[
0.0001146484719356522,
0.0001018739421851933,
7.891702261986211e-05
],
[
0.00014265699428506196,
0.00013045943342149258,
0.00010762747115222737
]
],
[
[
3.1152842527859548e-09,
3.0353330959798086e-09,
2.8741260482689768e-09
],
[
1.9902872683275064e-09,
1.8727579487176627e-09,
1.8005259505571303e-09
],
[
2.965649503750001e-09,
2.9032973802856077e-09,
2.770967455489881e-09
],
[
3.1923557131108282e-09,
3.0993292376990667e-09,
2.973592261312774e-09
],
[
3.1765532426675236e-09,
3.1013756007780557e-09,
2.9658968614398873e-09
],
[
-7.372050747633807e-10,
-6.02372707270149e-10,
-5.515001233469263e-10
],
[
3.2694713603120817e-09,
3.170868456692233e-09,
3.0386178018204646e-09
],
[
2.2120776321798985e-09,
2.2310011615900294e-09,
2.148304423243985e-09
],
[
2.3573047958080906e-09,
2.2611457151100467e-09,
2.1868225008603304e-09
],
[
3.2879665656793122e-09,
3.1887001927799474e-09,
3.0328035638405026e-09
],
[
3.617647847953265e-10,
1.4426244920873188e-10,
-2.6128463542079983e-12
],
[
-1.015417860905643e-09,
-1.6819992065819633e-09,
-1.940772209607644e-09
],
[
1.3260478270993303e-09,
1.0892796664663251e-09,
8.41024416775582e-10
],
[
3.051231045603231e-09,
2.975550472683608e-09,
2.84682322160279e-09
],
[
-2.793749676044399e-09,
-2.7279847270023083e-09,
-2.760619288721955e-09
],
[
-2.6085806847930826e-09,
-2.5541964099318193e-09,
-2.5995554597812998e-09
]
],
[
[
-0.006736016366630793,
0.011989465914666653,
-0.054750956594944
],
[
-0.02568851038813591,
-0.008604063652455807,
-0.0758136585354805
],
[
-0.05080598220229149,
-0.032257094979286194,
-0.09904636442661285
],
[
-0.011762687936425209,
0.0061555602587759495,
-0.06104554980993271
],
[
-0.024439511820673943,
-0.005567815154790878,
-0.07261836528778076
],
[
0.2654293179512024,
0.2577429711818695,
0.1918620616197586
],
[
-0.02520241215825081,
-0.007369054015725851,
-0.07458160817623138
],
[
0.006384906824678183,
0.02557908184826374,
-0.04111343249678612
],
[
-0.029290180653333664,
-0.01177669782191515,
-0.07924927771091461
],
[
-0.004386992659419775,
0.013977650552988052,
-0.053062912076711655
],
[
-0.057349368929862976,
-0.04238593578338623,
-0.10892318934202194
],
[
-0.10869495570659637,
-0.09237204492092133,
-0.16693410277366638
],
[
-0.03695230185985565,
-0.02037753351032734,
-0.08732801675796509
],
[
-0.001110945246182382,
0.017616260796785355,
-0.04947752505540848
],
[
0.07629182934761047,
0.0947365015745163,
0.030417438596487045
],
[
0.08003686368465424,
0.09781032800674438,
0.03332133591175079
]
],
[
[
-1.934194813202339e-07,
-1.855723894550465e-07,
-1.725873346458684e-07
],
[
-9.103838038981849e-08,
-7.251045985867677e-08,
-6.410192554540117e-08
],
[
-2.117095334597252e-07,
-2.08225614528601e-07,
-1.9817699126178923e-07
],
[
-1.4159161310089985e-07,
-1.289711804020044e-07,
-1.1685408196626668e-07
],
[
-2.1669625027698203e-07,
-2.1425121587981266e-07,
-2.0507012266079983e-07
],
[
-4.013161571947421e-07,
-4.4263020981816226e-07,
-4.056579143707495e-07
],
[
-1.426477922450431e-07,
-1.2772795798809966e-07,
-1.1521171217054871e-07
],
[
-2.6291544941159373e-07,
-2.691118368147727e-07,
-2.645424217462278e-07
],
[
-1.1565338553509719e-07,
-9.972404768632259e-08,
-8.924009620159268e-08
],
[
-1.859251881342061e-07,
-1.7936139329322032e-07,
-1.6790018264600803e-07
],
[
-8.385605987371036e-09,
-6.5915566338503595e-09,
-4.044546475512334e-09
],
[
5.1586937388492515e-08,
5.177355433261255e-08,
5.1350166785368856e-08
],
[
-3.739963361226728e-08,
-2.5732640906994675e-08,
-2.0590066540648877e-08
],
[
-2.0983985393741023e-07,
-2.061921406948386e-07,
-1.9635248804661387e-07
],
[
-3.191805433289119e-07,
-3.4417624306115613e-07,
-3.402349761927326e-07
],
[
-3.388184097730118e-07,
-3.6476328091339383e-07,
-3.5883954296878073e-07
]
],
[
[
3.5859144986716274e-07,
8.248136964539299e-07,
7.475995857930684e-07
],
[
-4.063275866883487e-07,
-1.6964135340913344e-07,
-5.971745764554726e-08
],
[
4.6912958850953146e-07,
9.959235285350587e-07,
9.282812243327498e-07
],
[
-3.40503305551465e-08,
1.9214904511954956e-07,
2.2150052814140508e-07
],
[
5.027197289564356e-07,
1.028229689836735e-06,
9.583700375515036e-07
],
[
-2.6302095648134127e-06,
-3.5040056900470518e-06,
-2.9691236704820767e-06
],
[
1.142097403317166e-07,
3.502339893657336e-07,
3.680681572859612e-07
],
[
1.0960102372337133e-06,
1.8751503603198216e-06,
1.714063728286419e-06
],
[
-1.3699708745207317e-07,
-4.058636537962457e-09,
2.9614586338766458e-08
],
[
3.4815263916243566e-07,
7.908110433163529e-07,
8.10216477020731e-07
],
[
-5.59866009552934e-07,
1.0346184353693388e-07,
1.8786995070740886e-08
],
[
-5.788059525002609e-07,
-1.6885442164493725e-06,
-8.050424753491825e-07
],
[
-7.385160643025301e-07,
-2.620808459141699e-07,
-2.6366274141764734e-07
],
[
6.915930157447292e-07,
1.2067645229763002e-06,
1.1233836403334863e-06
],
[
1.6444184893771308e-06,
1.604369685992424e-06,
1.8430168893246446e-06
],
[
1.446982764718996e-06,
1.3515945056497003e-06,
1.608286424925609e-06
]
],
[
[
-1.7430872023549426e-10,
-1.290146375149126e-11,
4.127291911015796e-11
],
[
-1.7863671653017832e-09,
-1.7045537203941308e-09,
-1.6599659424798574e-09
],
[
-9.782856469353618e-11,
6.547572206638819e-11,
1.191393511623673e-10
],
[
