{
"model_data": {
"model_type": "gcntf",
"nparams": 4,
"nblocks": 1,
"nlayers": 10,
"nchannels": 16,
"kernel_size": 3,
"dilation_growth": 2,
"tfilm_block_size": 128
},
"state_dict": {
"blocks.0.layers.0.conv.weight": [
[
[
0.006183810066431761,
0.007845435291528702,
0.009095543995499611
]
],
[
[
0.01185617409646511,
0.013575452379882336,
0.01470101810991764
]
],
[
[
-0.860933780670166,
-1.6571056842803955,
-0.815833330154419
]
],
[
[
-1.326129768131068e-05,
-3.330311528770835e-06,
1.2963121662323829e-05
]
],
[
[
0.003741299035027623,
0.00390795199200511,
0.004559794440865517
]
],
[
[
0.0004011753189843148,
0.0005129004712216556,
0.0005491195479407907
]
],
[
[
-0.0004067914269398898,
0.00035689465585164726,
0.0006147305248305202
]
],
[
[
-0.0010122460080310702,
0.0009770846227183938,
0.003227031556889415
]
],
[
[
0.002384781837463379,
0.004674341529607773,
0.006774428766220808
]
],
[
[
-2.6097457521245815e-05,
5.455991413327865e-06,
2.298572871950455e-05
]
],
[
[
0.0008432500762864947,
0.0007331177475862205,
0.0005312049179337919
]
],
[
[
0.0027367183938622475,
0.003588226158171892,
0.0040992265567183495
]
],
[
[
-0.00015645359235350043,
0.00017559263505972922,
0.00012723010149784386
]
],
[
[
-0.0006176714086905122,
-0.0004438882751855999,
-0.0002482751733623445
]
],
[
[
-0.0076048122718930244,
-0.005620542448014021,
-0.003437174716964364
]
],
[
[
0.001285479054786265,
0.00142955151386559,
0.0015786985168233514
]
],
[
[
0.0001309307845076546,
0.0001326410856563598,
0.0001348665391560644
]
],
[
[
-0.006421609316021204,
-0.006432993803173304,
-0.006424658466130495
]
],
[
[
0.21523337066173553,
0.24778364598751068,
0.20310334861278534
]
],
[
[
-2.914446114998803e-11,
-2.9385618938171376e-11,
-2.967684084587141e-11
]
],
[
[
-0.0006297323270700872,
-0.0006285486160777509,
-0.0006236800691112876
]
],
[
[
-3.2035601179813966e-05,
-3.2917661883402616e-05,
-3.352041312609799e-05
]
],
[
[
-1.7819848707745223e-08,
-1.5143948317586364e-08,
-1.2678526672971202e-08
]
],
[
[
0.00020983931608498096,
0.00015991604595910758,
9.869654604699463e-05
]
],
[
[
-9.5073897682596e-05,
-9.37274016905576e-05,
-8.915995567804202e-05
]
],
[
[
-1.7939743657616192e-12,
-1.9976771972740615e-12,
-1.7534967618540453e-12
]
],
[
[
-1.4758950328541687e-07,
-1.5025705124571687e-07,
-1.7000100172026578e-07
]
],
[
[
-0.00037783346488140523,
-0.0003780732222367078,
-0.0003755921497941017
]
],
[
[
-2.8979276756047057e-09,
-1.8273200730334338e-09,
-2.5831761174544e-09
]
],
[
[
4.99348197990912e-06,
5.0980793275812175e-06,
5.145337581780041e-06
]
],
[
[
0.004128425382077694,
0.004091597627848387,
0.003922862000763416
]
],
[
[
-5.021900142310187e-05,
-5.139732820680365e-05,
-5.20062749274075e-05
]
]
],
"blocks.0.layers.0.conv.bias": [
-0.0027028366457670927,
-0.009829353541135788,
0.027456453070044518,
-3.0384370575120556e-08,
0.0028898115269839764,
-0.0012565014185383916,
-3.818540426436812e-05,
-0.008202331140637398,
-0.010225832462310791,
-5.317117484082701e-07,
-0.00028632572502829134,
-0.003978345077484846,
-0.00010485258826520294,
0.00024086203484330326,
-0.018579868599772453,
-1.6927662727539428e-05,
-0.00019599068036768585,
-0.01365588791668415,
1.8248589038848877,
-3.0892691182948795e-10,
-1.9060478734900244e-05,
-5.857755968463607e-05,
-1.0259098814913159e-07,
-0.003643146948888898,
-0.000519852212164551,
-1.798693485821623e-11,
-1.5667416164433234e-06,
-0.000527486321516335,
-7.105031585297183e-08,
-1.8898723283200525e-05,
-0.06561682373285294,
-0.00021495134569704533
],
"blocks.0.layers.0.tfilm.lstm.weight_ih_l0": [
[
8.581640145166602e-07,
-1.1193932323294575e-06,
1.3644536011270247e-05,
1.4692345950972907e-10,
4.458946705199196e-07,
-3.1933524269334157e-07,
1.7581170297376048e-08,
3.0555340799764963e-06,
6.794579121560673e-07,
-4.916547724498344e-10,
5.1105665477280127e-08,
-2.6995851385436254e-06,
-3.597319064851945e-08,
1.2721061182219273e-07,
-1.4430490409722552e-05,
-1.5459697522146598e-07,
-0.0003579314216040075,
-1.715248617983889e-05,
-0.0003579314216040075,
-6.202171061886474e-05
],
[
4.6355049221347144e-07,
5.032813987781992e-06,
0.00010373757686465979,
3.7246586370720536e-10,
4.478665232454659e-06,
2.8446518740565807e-07,
-4.0537035062016e-08,
-1.432315684724017e-06,
4.264609287929488e-06,
2.571692192532282e-09,
1.1332519278539621e-07,
2.473402105351852e-07,
3.931804570811437e-08,
-8.626930281252498e-08,
3.2698578706913395e-06,
4.3720078224396275e-07,
-0.0003039215807802975,
-1.8503993487684056e-05,
-0.0003039215807802975,
-8.034102211240679e-05
],
[
-0.0015295016346499324,
-0.004252233542501926,
0.06844181567430496,
-6.513259904750157e-07,
0.002092666458338499,
-0.0010150260059162974,
1.2008942576358095e-05,
-0.00043158658081665635,
-0.006522675976157188,
2.197833026684748e-07,
-5.4033484047977254e-05,
-0.0017290316754952073,
-5.4461241234093904e-05,
8.141920989146456e-05,
-0.011436102911829948,
-0.0005082977004349232,
0.28541100025177,
0.06941524147987366,
0.28541100025177,
0.08838272839784622
],
[
-2.024800778599456e-06,
-5.421815785666695e-06,
-4.482099393499084e-05,
1.5874576098084958e-09,
-2.2925198663870106e-06,
1.4249258661891417e-08,
-8.047539523658997e-08,
-4.907740276394179e-07,
-2.894854560508975e-06,
-1.7534987134179558e-12,
1.0206945688651103e-07,
1.8591448736060556e-07,
7.744061036873973e-08,
-2.5101451228692895e-07,
2.5330623429908883e-06,
2.562396446137427e-07,
-0.00014722727064508945,
3.675672996905632e-05,
-0.00014722727064508945,
8.254047861555591e-05
],
[
4.805170306099171e-07,
4.494735549087636e-06,
-7.528252899646759e-05,
1.895933188222898e-09,
7.3074688771157525e-06,
6.791826763219433e-07,
1.2411542904544604e-08,
1.78839654836338e-05,
1.312689437327208e-05,
1.8396916212637393e-09,
-1.34630482762077e-07,
3.6737949358212063e-06,
-2.418094835476836e-09,
8.026390219129098e-08,
1.5260557120200247e-05,
-5.2924352900163285e-08,
-0.0008048648596741259,
2.472436972311698e-05,
-0.0008048648596741259,
-0.00016291944484692067
],
[
-7.251873768154837e-08,
-1.0255993743157887e-07,
-1.3748704077443108e-05,
-7.744268559761736e-10,
-4.6572552037105197e-07,
4.0756074781711504e-07,
1.3705210299974624e-08,
-3.8040861909394152e-06,
-5.869472943231813e-07,
5.063992558618224e-10,
-7.206216956490152e-09,
1.4451416063820943e-06,
1.0914503967285327e-08,
-9.309796489276323e-09,
-1.5482399930988322e-06,
-2.4587087921190687e-08,
-5.745005637436407e-06,
8.033382073335815e-06,
-5.745005637436407e-06,
2.437951843603514e-05
],
[
-1.2840374665756826e-06,
4.993881702830549e-06,
-6.336907244985923e-05,
1.5071197623228727e-09,
9.19958074518945e-06,
1.3686632200915483e-06,
-8.595661427079904e-08,
-9.228412636730354e-06,
4.5641304495802615e-06,
1.128043214393415e-09,
-1.5136615161281952e-07,
-9.82014540795717e-08,
2.7545487668589885e-08,
1.4047679997020168e-07,
1.960979170689825e-05,
4.898583583212712e-08,
-0.0002182944444939494,
-8.419924597546924e-06,
-0.0002182944444939494,
1.294162302656332e-05
],
[
1.154892856902734e-06,
-1.8681012079468928e-05,
4.7441521019209176e-05,
-2.2008159739073108e-09,
9.063821380550507e-06,
-3.029637127838214e-06,
-3.42933788033406e-08,
1.589269595569931e-05,
1.1926532351935748e-05,
-2.0074721884810742e-09,
2.792429540932062e-07,
-8.26626637717709e-06,
1.2044587549553398e-07,
1.4471896747636492e-06,
1.0610105164232664e-05,
4.081053077698016e-07,
-0.0006348511087708175,
1.5394576621474698e-05,
-0.0006348511087708175,
-0.00021953617397230119
],
[
-2.845679603069584e-08,
1.3098065210215282e-07,
-6.220138288881571e-07,
-7.580601424361788e-11,
3.070756093848104e-08,
5.1859100125284385e-08,
-1.915863689916364e-09,
2.340333367101266e-07,
1.8094439724336553e-07,
3.358246319917768e-11,
3.4730240905389564e-09,
-3.0024602892808616e-07,
-2.139733279449274e-09,
2.3790633463249833e-08,
2.6391609253550996e-07,
2.788229735983805e-08,
-9.496023267274722e-06,
-1.3913495422457345e-06,
-9.496023267274722e-06,
-2.144923655578168e-06
],
[
-1.7391997744198306e-06,
-4.233242634654744e-06,
-3.18293969030492e-05,
8.005497931229399e-10,
-5.676349701388972e-06,
-5.132383762429527e-07,
-2.6619771276159554e-08,
-4.831275873584673e-06,
-1.0415900533189415e-06,
-1.5946584330794877e-10,
-8.28448563083839e-08,
-1.4449728951149154e-06,
2.5187850027919012e-08,
-1.4796750491541388e-08,
-4.70591521661845e-06,
-1.9976779697117308e-07,
-0.0002224660274805501,
-3.5073903745796997e-06,
-0.0002224660274805501,
-8.605961193097755e-05
],
[
1.3115433148414013e-06,
-1.1500884511406184e-06,
-2.0010058506159112e-05,
4.050086099827155e-10,
8.858599471750495e-07,
-1.0825666585390081e-08,
-2.5673552173088865e-10,
1.1263833812336088e-06,
4.891218736702285e-07,
9.777081227957396e-11,
5.5570897217194215e-08,
-2.2062395999000728e-07,
-3.086687527797949e-08,
-8.75689707413585e-08,
1.3277082189233624e-06,
5.978471051548695e-08,
-2.8337582989479415e-05,
-6.932298219908262e-06,
-2.8337582989479415e-05,
-1.0386900612502359e-05
],
[
6.469874636039208e-11,
-1.2509970837015771e-10,
1.319479747685648e-09,
-2.4545052405497425e-13,
-3.221913291717726e-10,
1.6999755769742109e-10,
7.520329844967755e-12,
-4.935734113087342e-11,
-1.4426881911333567e-09,
8.706817683284615e-14,
-1.3339006548623855e-12,
1.4723333663368976e-11,
-7.837115505171521e-12,
-8.785585453585654e-11,
-1.7495912496556798e-09,
-3.372251046115937e-12,
-2.2848918490581127e-07,
-9.84877068788137e-09,
-2.2848918490581127e-07,
-3.2016345130614354e-08
],
[
-9.286652158380093e-08,
-6.159130521155021e-07,
-6.038309038558509e-06,
-2.8247406150261334e-11,
-4.873768943980394e-07,
-2.0771470587988006e-07,
6.003026964407354e-09,
-3.3081721539929276e-07,
1.3559778722083138e-07,
1.2112427727473118e-10,
-2.566222256916717e-08,
6.843886808383104e-07,
-1.2100291435501731e-08,
7.463895473902582e-11,
2.970967898363597e-07,
9.507198939218142e-08,
-1.6130738003994338e-05,
-3.459581421338953e-07,
-1.6130738003994338e-05,
8.659136256028432e-06
],
[
-8.885765012678348e-09,
3.0669065154143027e-07,
-7.374410415650345e-07,
2.756325509088893e-14,
1.9367814019233265e-08,
1.3991791725231906e-08,
7.831255088852629e-10,
-3.282125859982443e-08,
-1.4359953581788432e-07,
1.771282079343628e-11,
9.886511609380477e-10,
-5.00852124218909e-08,
-2.7075081759919684e-11,
-3.56582208205225e-09,
-1.7894299730869534e-07,
-3.247911273263071e-09,
-7.52011237636907e-06,
-1.910523792503227e-07,
-7.52011237636907e-06,
-9.428804048638995e-08
],
[
-2.7565008053898055e-07,
-1.6112059029183001e-06,
2.859984761016676e-06,
1.5455364765770696e-10,
-1.5511976698689978e-06,
7.98308263938452e-08,
-2.442186897155807e-08,
2.2328595150611363e-06,
1.5803632322786143e-06,
-4.4019485972990324e-11,
-2.6726777235808186e-08,
6.440195647883229e-07,
1.1671101418642138e-08,
-1.5027961097757725e-08,
-9.910446578942356e-07,
1.5883664161719935e-07,
-0.00020115026563871652,
-9.238411621481646e-06,
-0.00020115026563871652,
-5.694269566447474e-05
],
[
5.962372284784578e-08,
-3.771024239540566e-07,
1.9525236893969122e-07,
-4.644518450391821e-11,
-2.2367521523847245e-07,
2.8662514139909945e-08,
3.5771297035580574e-10,
8.014753660745555e-08,
-1.691101658707339e-07,
-2.075700375470113e-11,
-1.9081729529801805e-09,
-5.6683898463916194e-08,
-1.1725933557471535e-09,
-6.668349428196052e-09,
1.5841459344301256e-07,
3.849839114167253e-09,
-2.043743552349042e-05,
-3.3591578585401294e-07,
-2.043743552349042e-05,
-3.2402506349171745e-06
],
[
-3.8837907823108253e-07,
-5.1122501645295415e-06,
9.853312803898007e-06,
5.381076226967929e-12,
8.058337357397249e-07,
-6.333949613690493e-07,
1.8516370658971937e-08,
7.024492560958606e-07,
4.6654673724333406e-07,
-9.481913518238905e-12,
3.9654207695249966e-10,
1.3568579788625357e-06,
-2.4565616207894436e-09,
-1.5669793640427088e-07,
-1.6371672245441005e-05,
-1.271146601311557e-07,
-0.00023212446831166744,
-1.5622665159753524e-05,
-0.00023212446831166744,
-5.171158773009665e-05
],
[
1.4589300008083228e-06,
6.929125902388478e-06,
0.00010416942677693442,
2.747395921876006e-10,
-5.20150433658273e-06,
-1.624061383154185e-06,
-4.113754670242997e-08,
1.1399617960705655e-06,
3.964451934734825e-06,
2.1987820453261975e-09,
-1.1649471076680129e-07,
5.023752578381391e-07,
-6.193761947770327e-08,
3.3458240977779496e-07,
-1.0797784852911718e-06,
4.891008984486689e-07,
-0.00017180608119815588,
-1.624648029974196e-05,
-0.00017180608119815588,
-2.2903899662196636e-05
],
[
-0.0026933972258120775,
-0.008573697879910469,
0.025793058797717094,
-1.7451053508921177e-06,
0.0020561804994940758,
-0.0020115396473556757,
1.6938223780016415e-05,
-0.012272468768060207,
-0.007851536385715008,
-1.1827013395304675e-06,
-5.5915821576491e-05,
-0.002024558372795582,
-5.0870003178715706e-05,
-0.0001981996902031824,
-0.01726057380437851,
-0.002007505390793085,
0.3711385130882263,
0.08008354902267456,
0.3711385130882263,
0.08039628714323044
],
[
-9.859978717940976e-07,
4.913257271255134e-06,
-3.8419850170612335e-05,
-1.0504203062922102e-09,
-1.5245726672219462e-06,
1.5721725503681228e-06,
-5.5552323630081446e-08,
1.6401788798248162e-06,
-5.1400843403826e-06,
-6.491888693282988e-10,
-3.7394258356471255e-08,
5.442774408948026e-07,
9.191810868003358e-09,
1.0159522645381003e-07,
2.4137618765962543e-06,
4.6916966311982833e-07,
-9.233406308339909e-05,
4.091097798664123e-05,
-9.233406308339909e-05,
0.0001072170416591689
],
[
-9.297060614699149e-07,
4.128843556827633e-06,
-7.904474477982149e-05,
1.004244243318908e-09,
-5.981967206025729e-06,
6.682425350845733e-07,
-9.025585256949853e-08,
1.943163078976795e-05,
8.090478331723716e-06,
2.2933142052039557e-09,
-1.7566023302606482e-07,
7.852100679883733e-06,
-1.0329673472142531e-07,
1.9501292172208196e-06,
1.1395086403354071e-05,
1.5656492280413659e-07,
-0.0006663102540187538,
2.726077218540013e-05,
-0.0006663102540187538,
-0.0001201484992634505
],
[
1.2267805971077905e-07,
-1.1230102359149896e-07,
-2.9884643026889535e-06,
-6.510477157384287e-10,
1.3066692190477625e-06,
-1.446767754487155e-07,
-2.0561010671826807e-09,
3.294916268714587e-07,
-1.4206884770828765e-06,
6.089406201503778e-10,
1.3025909240127476e-08,
-3.1210350925903185e-07,
8.98134011606544e-09,
-1.5618191184785246e-08,
-2.766710167634301e-06,
2.8050415323832567e-08,
1.0843240488611627e-05,
-1.318264594374341e-06,
1.0843240488611627e-05,
3.300909884274006e-05
],
[
5.666785796165641e-07,
2.922664407378761e-06,
-5.3630243201041594e-05,
-9.975243964177594e-10,
8.438930308329873e-06,
-1.7393881535099354e-06,
1.1234234165158341e-07,
1.5257216546160635e-05,
3.784108685067622e-06,
1.1300770319522258e-09,
-1.751103724245695e-07,
3.7840851518922136e-07,
1.7422239650954907e-08,
5.104885758555611e-07,
2.036132718785666e-05,
-1.2139081206896662e-07,
-0.00021864601876586676,
-5.805383352708304e-06,
-0.00021864601876586676,
1.7908974996316829e-06
],
[
-4.871755663771182e-06,
-1.4941556401026901e-05,
6.0120615671621636e-05,
1.3446535551686623e-10,
5.571930159931071e-06,
-1.0331232260796241e-06,
2.1647151626780214e-08,
-7.273739811353153e-06,
1.1371451364539098e-05,
-1.883615041720077e-09,
-3.377580810592917e-07,
-7.973414540174417e-06,
-2.0609300577234535e-07,
1.4109617723079282e-06,
5.297917141433572e-06,
4.91515606881876e-07,
-0.0005194711266085505,
5.396350388764404e-06,
-0.0005194711266085505,
-0.00020377247710712254
],
[
-7.723344452870151e-08,
3.461542164018283e-08,
-5.027814040658996e-07,
-1.6212049064323608e-11,
3.79016640295049e-08,
1.3701623835515875e-08,
-1.6968974003717108e-09,
2.9507057774935674e-07,
6.054804657651403e-08,
-1.9427918475367623e-12,
1.1059935189905445e-09,
-1.09892219768426e-07,
-1.2985151842670462e-09,
2.671204235582536e-08,
1.8824141534423688e-07,
1.979204888868935e-08,
-5.042350494477432e-06,
-8.385192700188782e-07,
-5.042350494477432e-06,
-1.41966688715911e-06
],
[
-1.6113408491946757e-06,
-4.019806510768831e-06,
-2.4091415980365127e-05,
9.89592408018325e-10,
-6.229144673852716e-06,
9.720918114908272e-07,
-2.804427978730928e-08,
-4.389852620079182e-06,
-3.142708919767756e-06,
-3.346553589800294e-10,
-7.337935414852836e-08,
-3.7230404359434033e-07,
8.110274052341993e-08,
1.1990471193712438e-07,
-4.368179361335933e-06,
-1.8631027387527865e-07,
-0.0001748434006003663,
-2.6280574729753425e-06,
-0.0001748434006003663,
-6.572969869012013e-05
],
[
1.2264879387657857e-06,
-4.804276159120491e-07,
-2.270322511321865e-05,
-4.624692989674273e-11,
9.472618671679811e-07,
-3.315004732939997e-07,
1.5190893876138034e-08,
2.009966948435249e-08,
-1.5399169797092327e-06,
6.200156360547382e-11,
6.17835027583169e-08,
1.0701694463932654e-07,
-5.5061288861679714e-08,
-3.554294991658935e-08,
9.252343602383917e-07,
4.3734356580671374e-08,
-1.4916020518285222e-05,
-7.4413947004359215e-06,
-1.4916020518285222e-05,
-6.647807822446339e-06
],
[
1.2306629326719332e-10,
8.8675950263295e-12,
6.3875842393201765e-09,
-8.329268671265419e-14,
-5.636298094913172e-10,
1.1014941042608584e-10,
3.333297830462878e-12,
5.246345580189882e-10,
3.272213888738662e-10,
-1.7266370895985955e-13,
-3.59944539451984e-12,
1.0422408769361624e-10,
5.0191790827713856e-12,
9.823430957567325e-11,
-2.686209255031713e-09,
-6.369267613326457e-11,
-1.5204865633222653e-07,
-1.062790744299491e-08,
-1.5204865633222653e-07,
-2.262942366826337e-08
],
[
7.557521826129232e-07,
1.2776132507497096e-06,
-5.817728379042819e-06,
1.0398403665901057e-10,
-4.839595248995465e-07,
-1.8970862925016263e-07,
-5.870269603747147e-09,
-1.0439248399052303e-06,
-2.2877200933635322e-07,
1.1382689235617249e-10,
-1.998960463822641e-08,
-6.708544901812274e-07,
-7.382676692202494e-10,
2.4619140059911615e-09,
2.331294695068209e-07,
9.641492937362273e-08,
-7.3959868132078554e-06,
1.1600014886425924e-06,
-7.3959868132078554e-06,
1.2478067219490185e-05
],
[
-6.47322409008666e-08,
2.8255098527552036e-07,
-4.093014069894707e-07,
-1.4760591837345571e-12,
2.4038406820636737e-08,
-2.1422088547495832e-09,
5.015413431785909e-11,
-1.081405400782387e-07,
-1.3943501642188494e-07,
-1.0769629112117318e-11,
-2.798060005915204e-09,
9.667315481465266e-08,
-1.0604579436801487e-09,
1.5353116555871793e-09,
-1.720617035516625e-07,
7.1566890191832044e-09,
-5.096890163258649e-06,
-1.5427632149567216e-07,
-5.096890163258649e-06,
2.3269569737749407e-07
],
[
-1.3349361438486085e-07,
5.843739927513525e-07,
2.8834886052209185e-06,
-3.328893827259094e-10,
-1.8362977698416216e-06,
3.8628823517683486e-07,
3.5413201260325877e-09,
-1.053410414897371e-06,
6.994984005359584e-07,
-6.644970684810403e-11,
-3.3997988424516734e-08,
4.401191944225502e-08,
1.663112847438697e-08,
-1.1564219803972264e-08,
-1.266594495064055e-06,
1.7395801421571377e-07,
-0.00018218645709566772,
-9.12330870050937e-06,
-0.00018218645709566772,
-5.331083229975775e-05
],
[
5.593383178847944e-08,
-1.577098771576857e-07,
1.960144828672128e-07,
-4.9024614229287167e-11,
-2.3113349811865191e-07,
2.639041873919723e-08,
5.060576402371453e-10,
-2.7726535734018398e-08,
-2.0833287805999134e-07,
3.297101524094015e-12,
-2.859594339099658e-09,
-3.7432968724715465e-08,
-1.394161786016923e-09,
-1.1296095614454771e-08,
-8.32941680073418e-08,
2.2084161166446847e-09,
-1.8681867004488595e-05,
-2.693525686936482e-07,
-1.8681867004488595e-05,
-3.168374405504437e-06
],
[
-0.00013934652088209987,
-0.00017434053006581962,
-0.0006134937284514308,
-1.6233298083534464e-07,
3.702467438415624e-05,
2.677452539501246e-05,
-4.629769421171659e-07,
-0.00032073326292447746,
-9.583778592059389e-05,
-3.204544185564373e-08,
-5.204017270443728e-06,
-6.37490811641328e-05,
-3.947061031794874e-06,
-4.666559107135981e-06,
-0.0002366334811085835,
-7.288413326023147e-05,
-0.0006705248379148543,
0.0011974790832027793,
-0.0006705248379148543,
0.004377695731818676
],
[
-0.0002441747346892953,
-0.000363670929800719,
-0.0023026636335998774,
-1.452461617645895e-07,
-0.00017580980784259737,
-7.816002471372485e-05,
1.983113634196343e-06,
-0.0011908377055078745,
-0.0008101480198092759,
7.778670862990111e-08,
-3.335110886837356e-05,
-0.00017844722606241703,
-9.247961315850262e-06,
-4.120549056096934e-05,
0.0010539779905229807,
0.0003795497177634388,
0.00020709639647975564,
0.004647879861295223,
0.00020709639647975564,
0.002184042939916253
],
[
-0.0017478041118010879,
-0.005752503406256437,
0.0771639421582222,
-8.964309472503373e-07,
0.00243285670876503,
-0.001322442782111466,
1.3952387234894559e-05,
-0.001577161718159914,
-0.007543865125626326,
1.249221952548396e-07,
-5.4227359214564785e-05,
-0.001990905962884426,
-5.818911813548766e-05,
6.457480776589364e-05,
-0.013322933577001095,
-0.0006232662126421928,
0.3266032338142395,
0.07460445165634155,
0.3266032338142395,
0.0957607850432396
],
[
0.00014586743782274425,
0.00038613314973190427,
0.0012322813272476196,
-1.4435959094782902e-08,
-8.742724457988515e-05,
6.238817877601832e-05,
-3.897815048503617e-08,
0.0009709940641187131,
0.00015957752475515008,
3.588156971545686e-08,
1.1384093340893742e-05,
0.00019795482512563467,
-7.510349405492889e-06,
2.2656318833469413e-05,
-8.83063767105341e-05,
-0.0001011470376397483,
-0.0005364841781556606,
0.0022060496266931295,
-0.0005364841781556606,
0.0023985954467207193
],
[
0.00036786904092878103,
-0.0003986547817476094,
0.002787356497719884,
-1.270229716965332e-07,
-0.00025531445862725377,
0.00022251569316722453,
-2.2836985635876772e-07,
0.0006509916856884956,
0.0005858269287273288,
6.295451981941369e-08,
2.18486593439593e-06,
0.00040330327465198934,
-9.799712643143721e-06,
-7.378298050753074e-06,
-8.062460256041959e-05,
0.0001541367673780769,
-0.00030613274429924786,
-0.0007807195070199668,
-0.00030613274429924786,
0.004580656066536903
],
[
0.00011561375140445307,
0.00034812811645679176,
0.0009022195590659976,
-8.575929300036478e-09,
0.00021503822063095868,
1.1672740583890118e-05,
-6.343199743241712e-09,
5.85657253395766e-05,
0.00017658334400039166,
-1.2186215769816044e-07,
-1.574394445924554e-06,
0.00011529908806551248,
1.9877502381859813e-06,
-1.3558118553191889e-05,
0.0013042130740359426,
7.863137579988688e-05,
-0.000453393702628091,
0.0007561854436062276,
-0.000453393702628091,
3.184936576872133e-05
],
[
0.00025044710491783917,
0.0007762879831716418,
0.0021202086936682463,
-9.542582546373524e-08,
5.0439906772226095e-05,
8.131154754664749e-05,
1.831174927247048e-07,
0.001369889359921217,
0.00037088635144755244,
4.106698270334164e-08,
-6.911088235028728e-07,
0.0002371367736486718,
-3.445675247348845e-06,
-1.51319782162318e-05,
0.0005206970381550491,
8.884268027031794e-05,
-0.000656429270748049,
0.002079787664115429,
-0.000656429270748049,
-0.0005407685530371964
],
[
-0.0005154559039510787,
-0.002303625224158168,
-0.004197703208774328,
-4.931647268335837e-08,
-0.0002909796894527972,
-4.397987140691839e-05,
4.540971985989017e-06,
-0.0009904750622808933,
-0.00015386495215352625,
-8.210925273033354e-09,
-2.056386620097328e-05,
-0.0002379499637754634,
7.955775799928233e-06,
1.7606782421353273e-05,
-0.0020298485178500414,
-6.125918298494071e-05,
0.00061499432194978,
0.005315158516168594,
0.00061499432194978,
-0.0027364911511540413
],
[
-3.925668715965003e-05,
-2.34689396165777e-05,
5.522746050701244e-06,
1.9943980689163254e-08,
6.78028300171718e-06,
-7.182407898653764e-06,
3.951957125991612e-07,
-0.00016614317428320646,
-8.149939822033048e-05,
-1.5585873924806037e-08,
-2.3226821213029325e-06,
-6.362456042552367e-05,
-2.9354126240832557e-07,
-1.3442069757729769e-05,
-0.00012892967788502574,
-2.743322966125561e-06,
-0.0005176033009774983,
-0.0004855940060224384,
-0.0005176033009774983,
-9.939466690411791e-05
],
[
0.00012874029926024377,
0.0005221397150307894,
0.003984925802797079,
5.4451856357218276e-09,
3.468753129709512e-05,
2.9550425097113475e-05,
9.281133657168539e-07,
0.0004905042587779462,
0.00033724840614013374,
3.569213191667586e-08,
9.220176252711099e-06,
0.00021488690981641412,
-1.0644097528711427e-05,
-3.3210773835889995e-05,
0.0014102030545473099,
5.245268766884692e-05,
-0.0005562162841670215,
0.0013647465966641903,
-0.0005562162841670215,
0.006575727369636297
],
[
-6.650586874457076e-05,
0.0005862914840690792,
0.00030939653515815735,
-2.0502223918583695e-08,
0.0001775406999513507,
-6.430609937524423e-05,
3.1109888709579536e-07,
-0.0003937053552363068,
0.0001333323452854529,
-1.4165092210305374e-08,
3.3718217196110345e-07,
7.935904250189196e-06,
-3.5027435387746664e-06,
-2.987453990499489e-05,
-5.138195774634369e-05,
-6.517455403809436e-06,
0.00022977158369030803,
-0.0018658505287021399,
0.00022977158369030803,
0.0009631610009819269
],
[
1.0802510814755806e-06,
1.3051401026586973e-07,
-1.57835274876561e-05,
-2.2356817785951222e-10,
7.489272320526652e-06,
4.5283361060910465e-08,
-9.59905843700426e-09,
-6.732289875799324e-06,
-5.641189773086808e-07,
3.6529984592803544e-10,
9.870781525478378e-08,
-5.132561682330561e-07,
1.1290752155446171e-07,
3.118589120276738e-07,
-4.4039948988938704e-05,
6.316250846793992e-07,
2.952883551188279e-05,
8.995517418952659e-05,
2.952883551188279e-05,
9.982966730603948e-06
],
[
0.00011734545842045918,
0.00025459902826696634,
0.0006083811167627573,
-1.0336145273015518e-08,
-0.00019351838272996247,
8.16443298390368e-06,
3.9465564327656466e-07,
-3.834877588815289e-06,
0.0003310812753625214,
3.2098679270120556e-08,
2.988561618622043e-06,
1.9961697034887038e-05,
1.3885482985642739e-06,
-1.1166520380356815e-05,
-0.0006050182273611426,
5.3248968470143154e-05,
-0.00026541738770902157,
0.000747458019759506,
-0.00026541738770902157,
-0.0006165988161228597
],
[
2.3304975911742076e-05,
-5.190927549847402e-05,
-0.00020423621754162014,
-8.817709229447246e-09,
3.72568069906265e-06,
-1.0819432645803317e-05,
-4.809665483662684e-07,
-8.789422281552106e-05,
-0.00015531326062045991,
1.74456609158824e-08,
-1.2711852832580917e-06,
-6.602366920560598e-05,
-5.211653046899301e-07,
1.6163510281330673e-06,
4.019678817712702e-05,
6.9717152655357495e-06,
2.7272337320027873e-05,
-0.00024711148580536246,
2.7272337320027873e-05,
-1.1023102160834242e-05
],
[
-9.116918226936832e-05,
-0.0001536453637527302,
8.783071825746447e-05,
3.241178347934692e-08,
-0.00018519183504395187,
1.7936215954250656e-05,
2.3055289943840762e-07,
-6.608551484532654e-05,
5.0398066377965733e-05,
-3.126010383880384e-08,
7.236636179186462e-07,
3.004416066687554e-05,
1.774678139554453e-06,
-2.2856218038214138e-06,
0.00020038358343299478,
-1.0681065759854391e-05,
-0.0011304167564958334,
-0.002286282368004322,
-0.0011304167564958334,
0.001493479241617024
],
[
-2.5377761630807072e-05,
0.0002327141264686361,
-5.918649912928231e-05,
2.6035390732204178e-08,
-2.0715042410301976e-05,
9.357158887723926e-06,
-4.211862574265979e-07,
2.8090427804272622e-05,
0.0001693268568487838,
1.0219252999377204e-08,
-1.1295277317913133e-06,
3.359467154950835e-05,
2.341515852322118e-07,
-6.501361895061564e-06,
-6.72539317747578e-05,
5.298345968185458e-06,
0.00023107421293389052,
-0.00017078373639378697,
0.00023107421293389052,
-0.0004975830088369548
],
[
-1.50008452237671e-06,
-2.500906020941329e-06,
3.105140422121622e-05,
5.076288278615948e-10,
-4.1978375975304516e-07,
-4.857682256442786e-07,
2.7063387975090336e-08,
6.0210090850887354e-06,
1.5785357021513846e-08,
-1.7976503619010487e-10,
8.096238701682523e-08,
-3.974268565798411e-06,
1.0192563593136583e-07,
5.2965251740033636e-08,
-4.519089543464361e-06,
2.2940675137306243e-07,
-0.0003777852689381689,
-1.7987380488193594e-05,
-0.0003777852689381689,
-6.410788773791865e-05
],
[
-3.8001096527295886e-06,
-5.747378395426495e-07,
3.531538459355943e-05,
1.2047918218627274e-09,
-1.197400820274197e-06,
6.958478024898795e-07,
-8.978355481303879e-08,
1.5592395357089117e-05,
-8.683982741786167e-06,
-1.2716454556027657e-09,
-1.0955238138876666e-07,
-5.014872385800118e-06,
1.4957731764297932e-07,
-1.653490585340478e-06,
-2.044109805865446e-06,
-1.2512539342424134e-06,
-0.0003125132352579385,
-1.8824694052455015e-05,
-0.0003125132352579385,
-8.342655200976878e-05
],
[
-0.0003203694650437683,
-0.003349829697981477,
-0.0007071945583447814,
9.468334383200272e-08,
0.0019540893845260143,
-0.00021128157095517963,
-6.176633178256452e-05,
-0.002651245566084981,
-0.002848540898412466,
1.2568042606631025e-08,
-0.0004038302868138999,
-0.0021684186067432165,
-2.1224344891379587e-05,
2.4925906473072246e-05,
0.00011456583888502792,
0.001210909802466631,
-0.3623134195804596,
3.3684072494506836,
-0.35684934258461,
-0.013401120901107788
],
[
-1.7273330286116106e-06,
5.700784640794154e-06,
-4.331783566158265e-05,
1.1980645364673137e-09,
-1.1142164112243336e-05,
-1.1074278063460952e-06,
1.849577913048961e-08,
-1.382376808578556e-07,
1.1345876373525243e-05,
-1.4097033262938652e-10,
-1.8294356607384543e-07,
-5.3825729082745966e-06,
1.8945330637620827e-08,
1.3665007259078266e-07,
-3.2805746741360053e-06,
-2.1030868424531945e-07,
-0.00015132210683077574,
3.624151577241719e-05,
-0.00015132210683077574,
8.065081055974588e-05
],
[
-4.176113179710228e-06,
4.587099283526186e-06,
9.382648386235815e-06,
1.1367572438913953e-09,
1.441193489881698e-05,
2.4234971078840317e-06,
8.578582111340438e-08,
8.064062967605423e-06,
-1.5269154118868755e-06,
7.223602271899665e-10,
-2.747629821442388e-07,
-6.377716090355534e-06,
1.636749402678106e-07,
1.875744828794268e-06,
3.842274963972159e-05,
1.3848200524080312e-06,
-0.0008213576511479914,
2.4089522412396036e-05,
-0.0008213576511479914,
-0.0001726287737255916
],
[
1.6802471236587735e-06,
1.561505541758379e-06,
-1.831731242418755e-05,
-2.676129318146536e-10,
-1.6911574221012415e-06,
6.411976301023969e-07,
6.825288334511015e-09,
-1.2270498928046436e-06,
6.581050001841504e-06,
4.592410479675735e-11,
1.3253006470037576e-09,
1.0204412319581024e-06,
-9.903015296686135e-09,
1.4135090964373376e-07,
-2.6387990601506317e-06,
-1.291809610393102e-07,
-7.083076525304932e-06,
8.607157724327408e-06,
-7.083076525304932e-06,
2.3916740246932022e-05
],
[
8.355178238161898e-07,
-5.053452696301974e-07,
3.903208926203661e-05,
2.9492938646846767e-10,
9.039998985826969e-06,
1.0730602753028506e-06,
-1.3040877888670366e-07,
-2.265922557853628e-05,
-2.8164311061118497e-06,
-6.184365953371129e-12,
-1.882679754316996e-07,
-2.739614501479082e-06,
3.3388971587555716e-07,
-1.5824024046651175e-07,
-3.196431862306781e-05,
1.1346461405992159e-06,
-0.00023411904112435877,
-9.485110240348149e-06,
-0.00023411904112435877,
1.26527993415948e-06
],
[
1.3223109817772638e-05,
-1.9821623936877586e-05,
0.00012220797361806035,
1.3655580000104806e-09,
2.0787161702173762e-05,
-3.8682624108332675e-06,
-2.3258708736761946e-08,
-3.273546462878585e-05,
-4.041316969960462e-06,
-2.5964528305166823e-09,
3.092785618719063e-07,
-9.74427348410245e-06,
1.490195842279718e-07,
1.0067954008263769e-06,
8.05477611720562e-07,
7.161075927797356e-07,
-0.0006588533287867904,
1.9192184481653385e-05,
-0.0006588533287867904,
-0.00022899101895745844
],
[
1.9209377910556213e-07,
1.8251816413794586e-07,
-4.7509996647931985e-07,
-3.82138105881058e-11,
8.74256684824104e-08,
1.9927538730257766e-08,
7.408929580954293e-10,
4.4434585788621916e-08,
2.3139428151353059e-07,
3.372824589065182e-11,
2.3374049362701044e-09,
-5.58526096483547e-07,
2.286761224823408e-09,
3.1525416943622986e-08,
1.9276916418675683e-07,
5.389102497588283e-08,
-1.0032852514996193e-05,
-1.4049752508071833e-06,
-1.0032852514996193e-05,
-2.221617251052521e-06
],
[
-3.321387566757039e-06,
-6.8138338065182324e-06,
-5.215868804953061e-05,
6.705101474047126e-10,
-5.496579433383886e-06,
-9.085017609322676e-07,
-1.4272634629719505e-08,
-2.5186413949995767e-06,
-5.444303496915381e-06,
-6.827600707026704e-10,
-8.781049842809807e-08,
-1.1660581549222115e-06,
-1.1488694440231484e-07,
2.688504707748507e-07,
9.782782399270218e-06,
-5.806779768136039e-07,
-0.00022829626686871052,
-3.392784492461942e-06,
-0.00022829626686871052,
-8.737546886550263e-05
],
[
-3.1871634291746886e-06,
-2.5156105039059184e-06,
7.047358849376906e-06,
-1.8244521171606465e-10,
2.1016746813984355e-06,
-3.1853485893407196e-07,
1.6751453557617424e-08,
3.555521175258036e-07,
-7.052940418361686e-07,
2.462231980804308e-11,
7.440911531375605e-08,
5.381647838476056e-07,
5.103716915755285e-08,
1.1992834458851576e-07,
-5.884326270688689e-08,
1.83798888997444e-07,
-2.971144022012595e-05,
-6.715564722981071e-06,
-2.971144022012595e-05,
-1.0971011761284899e-05
],
[
-6.912545535975312e-10,
-7.789737188623747e-10,
-8.031308063038978e-09,
-7.093948367099812e-14,
1.0055531962649411e-09,
3.83733017583765e-10,
-4.623003369008671e-12,
2.4367780016021356e-10,
3.1045188642053745e-10,
-1.1244292579285983e-13,
2.8973970792045556e-11,
2.641106222611711e-10,
6.449238712513683e-12,
2.1321177462452212e-11,
-2.8151411757271205e-10,
2.98826484390613e-11,
-2.568622221588157e-07,
-9.785531496220301e-09,
-2.568622221588157e-07,
-3.567255291159199e-08
],
[
1.7653297490483055e-08,
-1.5500914969379664e-06,
2.657609456946375e-06,
-2.370601492884816e-10,
-6.697629260088434e-07,
2.918842483268236e-07,
2.251469011227414e-09,
2.773505912045948e-06,
-2.0162111979971087e-08,
-9.991649174700967e-11,
3.577836338308771e-08,
8.42618646856863e-07,
2.0478417184222053e-08,
-5.602860042586144e-08,
-5.628211283692508e-07,
1.2984011732442013e-07,
-1.7025166016537696e-05,
-4.6851027946104296e-07,
-1.7025166016537696e-05,
8.314095794048626e-06
],
[
5.3709889868969185e-08,
-3.568532846998096e-08,
-1.2141756542405346e-06,
-2.6184606566337365e-11,
4.375937479039749e-08,
1.976406416304144e-08,
-2.2533166998961462e-10,
8.59292867971817e-08,
-1.3653951214109838e-07,
-3.914678650684955e-11,
2.452811564968016e-10,
1.75605435970283e-07,
-1.2873713206573711e-10,
-7.479495245377166e-09,
-2.118534752071355e-07,
4.276199394581681e-09,
-7.742389243503567e-06,
-1.8879303809171688e-07,
-7.742389243503567e-06,
-1.7700043031254609e-07
],
[
8.24746678063093e-07,
4.409092980495188e-06,
-1.0884090443141758e-05,
-6.228321747236976e-10,
4.401297530876036e-07,
-4.0826137137628393e-07,
-3.4815542448995984e-08,
2.5479068881395506e-06,
5.712041115657485e-07,
-1.251062448082152e-10,
-2.5656248681116267e-08,
1.7397611600245e-06,
3.0879117929316635e-08,
-5.0089848713241736e-08,
4.161169329108816e-07,
2.8417969133442966e-07,
-0.0002140368305845186,
-9.325580322183669e-06,
-0.0002140368305845186,
-5.933600914431736e-05
],
[
5.877378228547059e-08,
-2.7680542302732647e-07,
6.639153866672132e-07,
-1.722922070854574e-13,
-1.9618155988609942e-07,
5.048991624789778e-08,
3.757267275084075e-10,
3.281301417246141e-07,
2.87257734044033e-07,
2.5348388318913173e-11,
-1.2603923460474675e-09,
-8.937213635817898e-08,
1.4148493487908809e-09,
5.378667289335226e-09,
5.42379495982459e-07,
-4.689292953941049e-09,
-2.1651852875947952e-05,
-3.797784984271857e-07,
-2.1651852875947952e-05,
-3.5094708437100053e-06
]
],
"blocks.0.layers.0.tfilm.lstm.weight_hh_l0": [
[
-4.872878207606846e-07,
1.936082753672963e-06,
-2.9990551411174238e-05,
-3.2078455092232616e-07,
-3.292844610314205e-07,
-5.185453346712166e-07,
-4.5714318730460946e-07,
-3.8994917872514634e-07,
4.078042081800959e-07,
2.866283637104061e-07,
-1.5001369035871903e-08,
3.1112282194989405e-10,
9.963057436834788e-07,
-2.1704305197545182e-07,
-7.692515282542445e-07,
1.3310634017216216e-07
],
[
-2.731960933033406e-07,
-5.960013709227496e-07,
-1.547970350657124e-05,
-2.6696017130234395e-07,
-9.390587933921779e-07,
-8.080247653197148e-07,
1.5379441720142495e-06,
9.77113359112991e-07,
-3.749769064143038e-07,
1.973228336282773e-06,
2.7493720722304715e-07,
-1.6869902808025472e-08,
-4.082287148321484e-07,
1.3842874579950148e-07,
8.249468805843208e-07,
-7.907791399475173e-08
],
[
-0.00021252823353279382,
-0.0012860700953751802,
0.07791216671466827,
0.0005781007348559797,
0.0006819596164859831,
0.0002555455139372498,
0.0009052990935742855,
-7.22405020496808e-05,
-0.00044707965571433306,
0.0007389466045424342,
0.0005711698904633522,
3.0760481877223356e-06,
0.00022097228793427348,
-0.00012144714855821803,
-0.000700458767823875,
1.7924832718563266e-05
],
[
3.906515360085905e-07,
-2.4129410576279042e-06,
5.000592500437051e-05,
2.0361551378300646e-07,
1.218518264067825e-06,
2.059539383481024e-06,
3.1486792977375444e-06,
-2.1896492796713574e-07,
-2.715242146678065e-07,
5.334817387847579e-07,
1.0658953897291212e-06,
3.694244909979716e-08,
-1.920516865538957e-07,
-1.8288672265498462e-07,
-1.2574388392749825e-06,
5.02498210153135e-07
],
[
-2.476512293014821e-07,
5.769503786723362e-06,
-3.128161097265547e-06,
5.299174063111423e-06,
-6.0871529967698734e-06,
-3.701667992572766e-06,
-4.2732170868475805e-07,
1.4478972616416286e-06,
6.789128974560299e-07,
-1.5312704135794775e-06,
-1.9205517673981376e-06,
3.775395640559509e-08,
1.6572120102864574e-06,
7.648866358067608e-07,
-2.1057560388726415e-06,
-6.037390676283394e-07
],
[
2.456528420680115e-07,
-4.770192418845909e-08,
2.1970144814531523e-07,
9.165104870589857e-07,
4.926396286464296e-07,
1.41948277132542e-07,
-1.1258159702265402e-06,
-3.1532961202174192e-06,
1.4735142883637309e-08,
1.237140594412267e-07,
-2.5632073175074765e-07,
4.680357434949656e-09,
2.28433862048405e-07,
-1.114147774039509e-09,
-3.0648928373011586e-07,
1.6143367531640251e-07
],
[
5.943393261986785e-07,
2.188199914598954e-06,
4.34860703535378e-05,
2.796541593852453e-06,
-1.4890127886246773e-06,
1.4006744777361746e-06,
1.3941599945610506e-06,
-1.530382007786102e-07,
7.35212921654238e-08,
2.2771594103687676e-06,
4.679765481796494e-07,
-1.622227685516009e-09,
8.535478173143929e-07,
1.1676062783294583e-08,
-2.4282371668959968e-06,
-3.0315962362692517e-07
],
[
-1.9358039935468696e-06,
-1.253619416274887e-06,
-3.7143057852517813e-05,
-3.260940275140456e-06,
6.462971668952378e-07,
8.683390717578732e-08,
-2.0110068987833074e-07,
-4.14769516510205e-07,
-4.3439797536848346e-07,
-2.9003588224441046e-06,
-5.578945092565846e-07,
-1.3667729170663279e-08,
-1.9762270042633645e-08,
3.8860252971062437e-07,
6.510058483399916e-07,
-3.6292342997512606e-07
],
[
-5.953828363658431e-08,
-6.663887575086846e-08,
-1.1495859553178889e-06,
2.749280980651747e-08,
-1.9561904096576654e-08,
1.9174486443063188e-09,
-6.659181650547907e-08,
4.0800099299076464e-08,
1.526255388739628e-08,
-5.617412668357247e-08,
-7.013928637888966e-08,
2.2910322250435655e-10,
1.8679390478837377e-08,
6.507007155320821e-10,
2.80252638873435e-08,
-2.7740192365399707e-09
],
[
1.4492727018478035e-07,
-9.909380196404527e-07,
-3.699287844938226e-05,
1.964410358823443e-07,
-9.469992505728442e-07,
-5.122804509483103e-07,
-5.927581128162274e-07,
1.8631925513545866e-06,
-3.3756049333533156e-07,
-7.666948249607231e-07,
-2.6510898010201345e-07,
-1.7390934248240342e-09,
-1.4960838257138676e-07,
8.12488281098922e-08,
5.756608629781113e-07,
-2.560277039265202e-07
],
[
-2.4794817932161095e-07,
-2.0786240284564883e-08,
-2.5521728730382165e-06,
-5.392539605963975e-07,
-3.3369911989211687e-07,
5.28905388819112e-07,
-1.4697646122385777e-07,
6.185761094457121e-07,
8.92641907057623e-08,
1.4338957576853772e-08,
-2.3886170197329193e-07,
-3.845584295447679e-09,
-5.711606263503199e-07,
9.84148318394773e-09,
-2.0615748042018822e-07,
-7.206102026202643e-08
],
[
-1.0802498479067779e-10,
-5.886858361892067e-11,
-2.74925451293484e-08,
-9.523651867127114e-10,
2.2671696464637847e-10,
1.1332162291877168e-10,
-4.733220759778334e-11,
-9.305648612789597e-11,
4.091840061226648e-11,
-1.1994153066574587e-11,
-4.007952650320057e-11,
-3.7572348661127353e-13,
7.645608451900543e-11,
2.9791627498276796e-11,
5.540283856686479e-11,
3.21930190838593e-11
],
[
1.4243600787722244e-07,
-9.487551189124588e-09,
3.2120981359184952e-06,
2.329955037794207e-07,
4.777076156869953e-08,
1.5443029610651138e-07,
5.600402914751612e-07,
4.143392402511381e-07,
3.161074246804674e-08,
-4.7173608663797495e-07,
-1.3715356317334226e-07,
1.2208319910556042e-09,
-4.0374775522877826e-08,
-6.255956463974144e-08,
-2.2500097429656307e-07,
3.849455421089942e-09
],
[
-5.390127455484617e-08,
1.783653580389455e-08,
-1.808725755836349e-07,
-5.054731389009248e-08,
-3.5504108097939024e-08,
1.4492619548889252e-08,
-3.824730043788804e-08,
-7.408478808201835e-08,
-4.7558850191364854e-09,
-1.4784569124515201e-08,
-1.483755873721293e-08,
-6.108490935297084e-10,
1.5772211980902284e-08,
-9.269182088544881e-10,
-2.178707880773345e-08,
2.020805051072827e-11
],
[
-8.409228371419886e-07,
-3.872463594234432e-07,
-3.156287129968405e-05,
-1.7616919478768978e-07,
-6.258611620069132e-07,
1.020593742850906e-08,
-2.2581032510515797e-07,
-1.3417741229204694e-07,
1.8457900097246238e-08,
5.392902266976307e-07,
2.6362680927149995e-08,
-1.0698663288621901e-08,
1.2017442152512103e-08,
7.891192410625081e-08,
-4.770854644675637e-08,
-1.896620105412694e-08
],
[
3.1732451333255085e-08,
-8.526717465429101e-08,
-3.480221550944407e-07,
5.225784605045192e-08,
5.305277284151089e-08,
-3.01875768826676e-09,
1.6557093829305813e-07,
9.534490885698688e-08,
2.8017812514491425e-09,
-7.032610938040307e-08,
2.9909710264064415e-08,
2.071475213583085e-10,
-1.8669528145665026e-08,
8.043425481218947e-09,
1.4496007949560408e-08,
3.633370493361099e-09
],
[
-4.887480713477999e-07,
-1.4730685506947339e-06,
-2.63068013737211e-05,
-7.227658898045775e-07,
-5.633224304801843e-07,
-1.0377924581916886e-06,
-4.6160536726347345e-07,
-6.928613061063515e-08,
-2.2373495767169516e-07,
5.920724888142104e-08,
-1.014691406453494e-07,
8.86376860798066e-10,
1.725008615949264e-07,
3.172891638314468e-07,
1.271405267289083e-06,
1.2580841257658903e-07
],
[
-1.0838873549801065e-06,
1.1598006040003384e-06,
-6.5977305894193705e-06,
-9.059464787242177e-07,
-3.0767550924792886e-06,
1.7981311373205244e-07,
-5.184111614653375e-06,
-5.123201276546752e-07,
7.075977350723406e-07,
8.036791427912249e-07,
-3.65760485010469e-07,
1.523255299673565e-08,
8.138460998452501e-07,
6.499089977296535e-08,
1.2739434396280558e-07,
2.2273117394888686e-07
],
[
0.00019620860985014588,
-0.002170159248635173,
0.19711963832378387,
0.0006918133585713804,
0.0012070216471329331,
0.00034214567858725786,
0.0010307036573067307,
-0.001916153822094202,
-0.00039729822310619056,
0.0005702555063180625,
0.0010726968757808208,
-9.186807801597752e-06,
0.0002414918999420479,
-0.00010620661487337202,
-0.0004546087293419987,
-8.709061512490734e-05
],
[
-6.31014188456902e-07,
-1.9273508655714977e-07,
4.9562964704819024e-05,
-1.9202396117634635e-08,
-2.7520918592927046e-06,
1.2744319519697456e-06,
-1.4671292092316435e-06,
-4.525970780377975e-06,
-2.4823742705848417e-07,
4.714345891443372e-07,
1.2907161135444767e-06,
-3.7001107955347834e-08,
8.749710644906372e-08,
-2.313212945637133e-07,
-1.1035350553356693e-06,
8.148999341983654e-08
],
[
4.075115356272363e-08,
-1.5458796042366885e-05,
1.6144525943673216e-05,
-1.1758495475078234e-06,
-6.292248144745827e-06,
4.741427801491227e-07,
-4.1930232441700355e-07,
2.5197987270075828e-06,
-3.23994896689328e-07,
2.16142484532611e-06,
-3.2421075957245193e-06,
4.3007936767480714e-08,
-7.08703851159953e-07,
-2.0408022294304828e-07,
2.8503909561550245e-06,
-8.659152399559389e-07
],
[
-3.556549543759502e-08,
6.559920961990429e-07,
-4.655066732084379e-06,
1.2685475212492747e-06,
-2.7942891733800934e-07,
-5.689822302201719e-08,
-1.2825490784962312e-06,
1.0244904160572332e-06,
1.6684865045135666e-07,
1.1273816653556423e-06,
1.9623691116521513e-07,
-2.844323943040905e-10,
-2.371267697753865e-07,
1.6175181372091174e-07,
-1.8244901411890169e-07,
-1.280492938349198e-07
],
[
3.5789221897175594e-07,
6.252138064155588e-06,
4.268526390660554e-05,
5.404712737799855e-06,
-1.6775346693975735e-06,
1.4347882597576245e-06,
9.7513145647099e-07,
-1.039917947309732e-06,
1.6685376635905413e-07,
1.632175099075539e-06,
9.239172413799679e-07,
-8.870444934139243e-10,
3.647628773251199e-06,
3.931962453407323e-07,
-1.9711017102963524e-06,
3.4244519042658794e-07
],
[
-1.203315378006664e-06,
-4.735052243631799e-06,
-2.6229797640553443e-06,
-2.450557076372206e-06,
2.4153368940460496e-06,
8.480100746055541e-07,
-2.5633146378822858e-06,
-3.3704540669532435e-07,
1.6292199234158034e-07,
-2.0477539237617748e-06,
-5.526307518266549e-07,
-2.4851576796436348e-08,
3.298236492810247e-07,
3.4984537933269166e-07,
9.83787572295114e-07,
-1.6996162344184995e-07
],
[
-1.064894945557171e-07,
1.4027843064923218e-07,
-7.485440391974407e-07,
-5.583750706250612e-08,
-1.9643165671823226e-07,
6.537461239020104e-09,
-1.7845698607743543e-07,
-4.3194976484528524e-08,
1.2403308602415564e-08,
-5.521299684119185e-08,
-3.2317647224999746e-08,
1.907517255261837e-09,
1.7114546446705958e-09,
2.844509738864076e-09,
4.671015219059882e-08,
1.1094565266489553e-08
],
[
1.5283147547506815e-07,
-1.4147321962809656e-06,
-1.9688466636580415e-05,
4.3274173577856345e-08,
-5.286945565785572e-07,
-1.0623109574225964e-06,
-1.328364646724367e-06,
2.5793628992687445e-06,
-6.054768277863332e-07,
-6.790139082113456e-07,
4.4664425047358236e-08,
-4.640706485758983e-09,
-4.917413889415911e-07,
2.674165102689585e-07,
-5.538121286008391e-07,
-2.6467608904567896e-07
],
[
-2.422896159259835e-07,
1.023985760184587e-06,
-7.04107549154287e-07,
-3.1623000040781335e-07,
-5.396258870860038e-07,
-5.431883778328483e-07,
-3.048924952508969e-07,
2.3772899737650732e-07,
1.3208739346737275e-07,
-2.0288995372652607e-08,
-7.177412442160858e-08,
4.273462472781375e-09,
1.3762004869022348e-07,
-4.127969788214614e-08,
7.230644172295797e-08,
1.3360414996554937e-08
],
[
-1.109367875340439e-10,
6.123464929563838e-11,
-2.2002980770707836e-08,
-6.122608531278217e-10,
1.8301529736142186e-10,
-2.984462676991484e-11,
-5.977419254010741e-11,
-1.069322755342661e-10,
-9.968324776732373e-12,
-1.2941209215355798e-10,
-7.307467825290459e-11,
-8.91166372467278e-13,
1.8395683587524303e-10,
8.980334531560885e-11,
1.2296831608527015e-10,
-2.40067015745693e-12
],
[
-1.768807891266988e-07,
1.4012688609454926e-07,
2.967352884297725e-06,
1.9632977910077898e-07,
-3.607042842190822e-08,
-9.92990010217909e-08,
-6.985712275309197e-07,
-4.2614973949639534e-07,
4.5757015953995506e-08,
3.708765632381983e-07,
2.2626912254963827e-07,
3.5613427762370975e-09,
-4.00934716537904e-08,
-3.316900532013278e-08,
2.3315197950068978e-07,
-3.3505852314874573e-08
],
[
3.3645083163946765e-08,
1.6883591058558522e-07,
9.556117674947018e-08,
-2.617894878653715e-08,
5.117735568660464e-08,
-2.132856202763378e-08,
-6.699355736827783e-08,
-9.537067313658554e-08,
-4.7332031627433935e-09,
2.4102176254814367e-08,
-1.7177532285472807e-08,
-6.44873487942732e-10,
1.66951323876674e-08,
-9.574275816603972e-10,
2.9114580968325754e-08,
-1.465306720405124e-08
],
[
-1.0961830412270501e-06,
2.8148457431598217e-07,
-2.9292204999364913e-05,
-9.397581379744224e-09,
-3.194541591255984e-07,
-3.6790552826460043e-08,
-1.4957204541587998e-07,
-6.374460213010025e-07,
2.713016833411075e-08,
9.403746048519679e-07,
-2.462167358885381e-08,
1.3201010062857677e-08,
4.5381991498061325e-08,
3.8672169466735795e-08,
-2.278462574167861e-08,
-8.721546862489049e-08
],
[
2.9597115869250956e-08,
-5.395150637355073e-08,
-4.7234792077688326e-07,
3.413808968844023e-08,
6.649299422178956e-08,
-9.765324104904494e-10,
1.4859990926652245e-07,
-1.4759614863635306e-08,
9.317390192720154e-10,
8.25399695258966e-08,
3.008630500289655e-08,
-3.5618569205198014e-10,
-5.904996491779002e-10,
1.6134343638896098e-08,
4.063721448233082e-08,
2.8839244325951086e-09
],
[
-0.0001420275802956894,
-4.299800275475718e-05,
0.0047121657989919186,
1.7139125702669844e-05,
-5.673410851159133e-05,
-1.6179199519683607e-05,
-9.098866576096043e-05,
-6.337012018775567e-05,
-2.3797604171704734e-06,
-8.619912841822952e-05,
-6.041969299985794e-06,
-3.686148204451456e-07,
4.0035538404481485e-06,
-3.974649189331103e-06,
-5.3434527217177674e-05,
4.335612629802199e-06
],
[
-2.102019607264083e-05,
-8.019751840038225e-05,
0.004506684374064207,
0.00010319057037122548,
0.00010230213956674561,
4.4942657950741705e-06,
0.0002331422147108242,
-0.00011837951751658693,
-4.3278949306113645e-05,
5.809245340060443e-05,
7.378749432973564e-05,
-3.208639327567653e-06,
1.2109834415241494e-06,
-3.102218761341646e-05,
-9.13029580260627e-05,
-1.0351728633395396e-05
],
[
-0.0001586555445101112,
-0.001345170079730451,
0.08893414586782455,
0.0007003115024417639,
0.0007963998941704631,
0.0003062532050535083,
0.0010291911894455552,
-5.642861651722342e-05,
-0.0004838094755541533,
0.0008553381776437163,
0.0005831288872286677,
6.226070581760723e-06,
0.00024882497382350266,
-0.0001313532266067341,
-0.0007278462871909142,
2.3469727238989435e-05
],
[
4.367809015093371e-05,
8.267533121397719e-05,
0.004283255431801081,
-4.876358070760034e-05,
2.28051044359745e-06,
-6.165859758766601e-06,
6.454462709371e-05,
4.387119770399295e-05,
9.78062416834291e-06,
-6.744435813743621e-05,
-4.412226553540677e-05,
-7.479238206542504e-07,
4.000374610768631e-05,
1.0380552339483984e-05,
8.062769484240562e-05,
6.443680831580423e-06
],
[
-7.865619409130886e-05,
-2.207731995440554e-05,
-0.0015569631941616535,
2.0828734704991803e-05,
-0.0005467933951877058,
-7.983849354786798e-05,
-8.965493907453492e-05,
-5.078425238025375e-05,
0.00012674443132709712,
-7.642673153895885e-05,
5.046517253504135e-05,
1.4969422181820846e-06,
-7.065860700095072e-05,
2.5673200070741586e-05,
0.00011389887367840856,
-1.5812533092685044e-05
],
[
-3.7269033782649785e-05,
-4.599629028234631e-05,
0.0030238700564950705,
1.0392592230346054e-05,
-8.061341941356659e-05,
2.361061160627287e-05,
5.034552305005491e-05,
4.289350545150228e-05,
1.250672539754305e-05,
-3.4973429137608036e-05,
-3.43488973157946e-05,
8.053586952883052e-07,
1.3456263332045637e-05,
-6.963226041989401e-06,
2.2482938220491633e-05,
-6.298623247857904e-06
],
[
-6.518878217320889e-05,
0.0001962116512004286,
0.00463540805503726,
7.157703657867387e-05,
-0.00013319098798092455,
-3.062903488171287e-05,
-0.0001946449192473665,
-0.00017241541354451329,
1.7791111531550996e-05,
0.00011331696441629902,
-5.597855488304049e-05,
-4.868259679824405e-07,
-4.935116521664895e-05,
1.7794813174987212e-05,
0.00010463794023962691,
-8.148912456817925e-06
],
[
2.8597805794561282e-05,
-0.0001059203059412539,
0.002627336187288165,
4.090545553481206e-05,
4.697134863818064e-05,
8.746347157284617e-05,
-5.772663644165732e-05,
-0.00046588582335971296,
-1.3853071322955657e-05,
0.0001247707405127585,
4.651570270652883e-05,
1.8926849634226528e-06,
9.80055847321637e-05,
-2.187833160860464e-05,
-3.942822877434082e-05,
-1.2657691286221961e-06
],
[
3.2495870982529595e-05,
1.3379222764342558e-05,
0.0022288961336016655,
-1.0008931894844864e-05,
2.147038685507141e-05,
-4.261945832695346e-06,
-8.329070624313317e-06,
1.267715106223477e-05,
-3.691128767968621e-06,
-7.655412446183618e-06,
5.775630143034505e-06,
-2.3266416349088104e-07,
-4.52696849606582e-06,
1.1711342722264817e-06,
-1.0118245796775227e-07,
-3.0305027820531905e-08
],
[
-5.182735912967473e-05,
9.647379192756489e-05,
-0.0005675905267708004,
-1.6401134416810237e-05,
-7.888934305810835e-06,
-4.316536069381982e-05,
6.559721077792346e-05,
-1.887827784230467e-05,
5.5974178394535556e-05,
-0.00015446801262442023,
-3.618738264776766e-05,
1.2645503488784016e-07,
-2.1278801796142943e-05,
1.2416755453159567e-05,
3.362910501891747e-05,
8.329080628755037e-06
],
[
-6.290919554885477e-05,
-3.792341522057541e-05,
0.00036135519621893764,
-2.7459785997052677e-05,
1.1259469829383306e-05,
1.3905644664191641e-05,
-3.791051130974665e-05,
4.904624438495375e-05,
1.1907428415725008e-05,
-7.270884088939056e-05,
-1.2436519682523794e-05,
-1.273686507374805e-07,
1.233569946634816e-05,
1.0029893928731326e-06,
-2.2514899683301337e-05,
-9.0164685389027e-06
],
[
-1.1641703849818441e-06,
-1.4574668227851362e-07,
-0.0003198195481672883,
3.091423081968969e-07,
1.895705281640403e-06,
2.589198970781581e-07,
-9.714591442389064e-07,
4.9632308218861e-07,
-9.575366277658759e-08,
1.0030497605839628e-06,
-3.214162518361263e-07,
-8.663832318234199e-08,
2.3142428062783438e-07,
8.994270217499434e-08,
3.7111311712578754e-07,
-3.280502198776958e-07
],
[
-4.00839708163403e-05,
8.513522402608942e-07,
0.0017928620800375938,
4.6279536036308855e-05,
-4.768797953147441e-05,
2.0497007426456548e-05,
-5.7762845244724303e-05,
6.495839625131339e-05,
7.817517143848818e-06,
-3.7449201045092195e-05,
-1.4928677956049796e-05,
4.308104450956307e-07,
-4.624727409918705e-07,
-4.756090220325859e-06,
3.588203981053084e-05,
-6.620568001380889e-06
],
[
1.2381134183669928e-05,
-1.1435835403972305e-05,
3.1682586268289015e-05,
1.619765862415079e-05,
3.900619049090892e-06,
-1.2875483434982016e-06,
2.1084460968268104e-05,
-1.7366597603540868e-05,
-3.4215674986626254e-06,
7.816868674126454e-06,
7.0343703555408865e-06,
9.237701448228108e-08,
-4.061258096044185e-06,
-3.6516512409434654e-06,
-1.0745820873125922e-05,
-2.2589667878492037e-06
],
[
-9.228286944562569e-05,
3.588376785046421e-05,
0.002906787907704711,
-1.8310320228920318e-05,
-8.172677917173132e-05,
-6.97478299116483e-06,
-1.1806978363892995e-05,
4.814193016500212e-05,
3.4604004213178996e-06,
-7.763234316371381e-05,
-3.618563641794026e-05,
9.97067331809376e-07,
-9.999457688536495e-07,
-7.588700441374385e-07,
-0.00016615947242826223,
1.2838668226322625e-05
],
[
1.4535353329847567e-05,
2.697865966183599e-07,
-0.002070495393127203,
8.725098268769216e-06,
1.0941633945549256e-06,
-7.876807103457395e-06,
1.5737944067950593e-06,
-3.041348691112944e-06,
-4.645543327796986e-08,
1.784482810762711e-05,
-5.873550435353536e-06,
-1.1060928528650038e-07,
-2.5049469059013063e-06,
-3.4942189586217864e-07,
7.019882104941644e-06,
-1.791810427675955e-05
],
[
-4.517432614647987e-07,
2.0777385998371756e-06,
-3.104289498878643e-05,
-3.0698220143676735e-07,
-2.39124460676976e-07,
-3.7095148286425683e-07,
-4.2257934751432913e-07,
-6.3742618294782e-07,
3.9209240298987424e-07,
3.5611159887594113e-07,
4.88207518856143e-08,
5.6141421372890576e-11,
8.809346923044359e-07,
-1.8204382001840713e-07,
-8.212238640226133e-07,
1.1063438165592743e-07
],
[
-7.731740652161534e-07,
-7.14026725745498e-07,
-1.7349240806652233e-05,
-5.5323049252820056e-08,
-6.885460948069522e-07,
-8.101641242319602e-07,
2.084072093566647e-06,
7.411873070850561e-07,
-3.374709933723352e-07,
1.7651410644248244e-06,
6.82302015775349e-07,
-1.3396464382253725e-08,
-4.769849510921631e-07,
2.52120798904798e-07,
6.15937153725099e-07,
-9.897757990984246e-08
],
[
0.00012148413225077093,
-0.00022829273075331002,
2.3798067569732666,
4.888404509983957e-05,
-3.277038922533393e-05,
-7.690084021305665e-05,
-9.804529690882191e-05,
-0.00032253318931907415,
-0.00018840991833712906,
-0.00014731720148120075,
0.0003782323619816452,
-3.930744242097717e-06,
-7.081511284923181e-05,
2.0264707927708514e-05,
-0.00011940664262510836,
-1.6241358025581576e-05
],
[
3.073224377203587e-07,
-2.3793340915290173e-06,
5.0135276978835464e-05,
3.103693302364263e-07,
1.5851203443162376e-06,
2.1130060758878244e-06,
3.9309534258791246e-06,
1.851591946433473e-06,
-3.7037622746538545e-07,
4.03644804691794e-07,
9.71429926721612e-07,
3.4062701104176085e-08,
-2.41346668872211e-07,
-2.346829148791585e-07,
-1.5163178659349796e-06,
5.563825880017248e-07
],
[
1.7525626105907577e-07,
1.9186070403520716e-06,
-8.982361578091513e-06,
5.632186457660282e-06,
-5.8291097957408056e-06,
-4.1531729948474094e-06,
-2.158307808031168e-07,
2.0028378457936924e-06,
6.811832804487494e-07,
-2.2272884052654263e-06,
-1.6567165630476666e-06,
4.031878830801361e-08,
2.0878130726487143e-06,
8.928869874580414e-07,
-1.1149764986839727e-06,
-1.2300855587454862e-06
],
[
1.9062726153151743e-07,
-2.4032243572946754e-07,
6.744805318703584e-07,
1.0264575394103304e-06,
4.385361194181314e-07,
4.7210622966531446e-08,
-1.1654059335342026e-06,
-3.3894534681166988e-06,
3.292763395279508e-08,
-4.481934468003601e-08,
-2.441792901208828e-07,
4.03422095729411e-09,
2.0410374190760194e-07,
-2.7394502666311382e-08,
-2.3137893379043817e-07,
1.6054565321610426e-07
],
[
5.950992658654286e-07,
2.0196439436404034e-06,
4.241164060658775e-05,
2.6774891921377275e-06,
-1.594292029949429e-06,
1.412793039889948e-06,
1.5561890904791653e-06,
2.1012846218582126e-07,
1.3859984449027252e-07,
3.6389312754181447e-06,
5.381101004786615e-07,
-2.2887143291683287e-09,
6.48710170025879e-07,
-2.119260855693028e-08,
-2.528939830881427e-06,
1.7340074975891184e-07
],
[
-1.642101665311202e-06,
-1.6759638583607739e-06,
-4.584257840178907e-05,
-3.6922381241311086e-06,
-3.3932614940113126e-08,
-1.1466926252978737e-07,
1.730651177922482e-07,
1.4050817753741285e-07,
4.410065645998884e-09,
-3.2264151741401292e-06,
-5.806818990095053e-07,
-1.4843558382438005e-08,
-1.852938140700644e-07,
3.35283175445511e-07,
1.4393332321560592e-06,
7.094238441140988e-08
],
[
-3.173650142684892e-08,
-1.0819285023444536e-07,
-1.1826496120193042e-06,
3.1475455131158014e-08,
-1.6792968793311047e-08,
-8.200317758166875e-09,
-4.372646955630444e-08,
5.9114377393143513e-08,
1.4379612167658706e-08,
-5.4480228328657176e-08,
-6.668446417279483e-08,
2.1865939614507113e-10,
1.7966355514431598e-08,
-2.099345364214855e-09,
3.153476768602559e-08,
-2.787198472020691e-09
],
[
1.0205050671174831e-07,
-7.496515195271058e-07,
-3.826842294074595e-05,
1.7715476019475318e-07,
-1.055576944963832e-06,
-3.099883940649306e-07,
-4.642535031962325e-07,
1.7799819715946796e-06,
-2.913488117428642e-07,
-8.204898449548637e-07,
-2.5473036657785997e-07,
-1.863592835604777e-09,
1.2755727141211537e-07,
1.1268585176082979e-08,
8.317670108226594e-07,
-2.91420974463108e-07
],
[
-2.902019957673474e-07,
-5.953353721110943e-08,
-2.4063401724561118e-06,
-4.869600047641143e-07,
-4.6652931473545323e-07,
5.621786272058671e-07,
-5.49893641732524e-08,
5.681175139216066e-07,
9.222478780657184e-08,
1.5264804176240432e-07,
-2.4874722726053733e-07,
-1.2615423372608348e-08,
-5.796533741886378e-07,
7.016509151469563e-09,
-2.1046486153863952e-07,
3.13964072518047e-08
],
[
-9.907424880495341e-11,
-2.2804541241483456e-11,
-2.985433766866663e-08,
-9.582831195231734e-10,
2.576555357958199e-10,
9.136969653100735e-11,
-2.971351636960051e-11,
-3.9272030072368125e-11,
4.187808433364637e-11,
1.0635202440933966e-10,
-2.3254346365186862e-11,
1.0657889637022758e-13,
7.914883332071909e-11,
4.0991772476406396e-11,
3.059848208142313e-11,
4.8789250417513585e-11
],
[
2.3403906368457683e-07,
-1.303523475826296e-07,
3.3809560591180343e-06,
2.5754718535608845e-07,
1.2023643591874134e-07,
1.295004778967268e-07,
4.896984933111526e-07,
4.705135268068261e-07,
5.607246222893991e-08,
-5.285849056235747e-07,
-1.3992526248784998e-07,
1.0738923084119278e-09,
-3.644562696081266e-08,
-6.251566020409882e-08,
-2.1578098596819473e-07,
4.152975918714219e-08
],
[
-6.415660891434527e-08,
9.272118184355804e-09,
-2.244806864837301e-07,
-3.4845569985009206e-08,
-3.248545610290421e-08,
1.78592518551568e-08,
-2.6275786879637053e-08,
-7.43235375466611e-08,
-6.569363275588103e-09,
-2.400374476962952e-08,
-1.2534590254631439e-08,
-6.013687881001317e-10,
1.3999792436436564e-08,
-1.0258973670573823e-09,
-2.6149281850962325e-08,
2.671100451934194e-09
],
[
-6.06336925557116e-07,
-5.440273866952339e-07,
-3.407755502848886e-05,
-1.9906656234525144e-07,
-7.007695899119426e-07,
4.2620055040742955e-08,
-1.9031647013889597e-07,
-3.582213281561053e-08,
2.2105373531644545e-08,
5.787946975033265e-07,
2.9088017328149363e-08,
-1.0869380950850882e-08,
-2.4145654364815528e-08,
7.6507753021815e-08,
-1.8330045037373566e-08,
6.210997494093817e-09
],
[
2.824180000970955e-08,
-7.453851225136532e-08,
-5.011897314943781e-07,
3.0159604591517564e-08,
2.3489224787454077e-08,
-1.1728539028865725e-08,
1.8031994386547012e-07,
3.59018414997081e-08,
3.0599967004718565e-09,
-1.032846199677806e-07,
1.3587773572965034e-08,
3.6947542247922627e-10,
-2.3959323414146638e-08,
2.648634644941694e-09,
6.221232418113232e-10,
3.1944342726575314e-09
]
],
"blocks.0.layers.0.tfilm.lstm.bias_ih_l0": [
-0.00035795639269053936,
-0.0003039299917872995,
0.2854193150997162,
-0.000147235143231228,
-0.0008049169555306435,
-5.750736363552278e-06,
-0.00021830518380738795,
-0.0006349016912281513,
-9.497159226157237e-06,
-0.00022248939785640687,
-2.8342983569018543e-05,
-2.285239872890088e-07,
-1.6133599274326116e-05,
-7.520217877754476e-06,
-0.00020116694213356823,
-2.043789208983071e-05,
-0.00023213382519315928,
-0.00017180861323140562,
0.37113773822784424,
-9.23428960959427e-05,
-0.0006663337117061019,
1.084268751583295e-05,
-0.00021864792506676167,
-0.0005194591358304024,
-5.043292276241118e-06,
-0.00017485575517639518,
-1.4926979929441586e-05,
-1.520598544857421e-07,
-7.399273727060063e-06,
-5.097409029986011e-06,
-0.00018218575860373676,
-1.86828438017983e-05,
-0.0006766393198631704,
0.0002061639679595828,
0.32661235332489014,
-0.0005307849496603012,
-0.00030182141927070916,
-0.0004495945177040994,
-0.0006536743603646755,
0.0006147578242234886,
-0.0005189956282265484,
-0.0005567094776779413,
0.0002289943367941305,
3.0294082534965128e-05,
-0.0002693051064852625,
2.8449559977161698e-05,
-0.0011307467939332128,
0.00023245805641636252,
-0.0003777980455197394,
-0.000312475225655362,
-0.36614990234375,
-0.00015131007239688188,
-0.0008215031703002751,
-7.0801670517539605e-06,
-0.0002341091603739187,
-0.0006588597898371518,
-1.0033405487774871e-05,
-0.00022832640388514847,
-2.971304456877988e-05,
-2.568281729509181e-07,
-1.702825647953432e-05,
-7.742027264612261e-06,
-0.00021401270350906998,
-2.165293881262187e-05
],
"blocks.0.layers.0.tfilm.lstm.bias_hh_l0": [
-0.00035795639269053936,
-0.0003039299917872995,
0.2854193150997162,
-0.000147235143231228,
-0.0008049169555306435,
-5.750736363552278e-06,
-0.00021830518380738795,
-0.0006349016912281513,
-9.497159226157237e-06,
-0.00022248939785640687,
-2.8342983569018543e-05,
-2.285239872890088e-07,
-1.6133599274326116e-05,
-7.520217877754476e-06,
-0.00020116694213356823,
-2.043789208983071e-05,
-0.00023213382519315928,
-0.00017180861323140562,
0.37113773822784424,
-9.23428960959427e-05,
-0.0006663337117061019,
1.084268751583295e-05,
-0.00021864792506676167,
-0.0005194591358304024,
-5.043292276241118e-06,
-0.00017485575517639518,
-1.4926979929441586e-05,
-1.520598544857421e-07,
-7.399273727060063e-06,
-5.097409029986011e-06,
-0.00018218575860373676,
-1.86828438017983e-05,
-0.0006766393198631704,
0.0002061639679595828,
0.32661235332489014,
-0.0005307849496603012,
-0.00030182141927070916,
-0.0004495945177040994,
-0.0006536743603646755,
0.0006147578242234886,
-0.0005189956282265484,
-0.0005567094776779413,
0.0002289943367941305,
3.0294082534965128e-05,
-0.0002693051064852625,
2.8449559977161698e-05,
-0.0011307467939332128,
0.00023245805641636252,
-0.0003777980455197394,
-0.000312475225655362,
-0.34034982323646545,
-0.00015131007239688188,
-0.0008215031703002751,
-7.0801670517539605e-06,
-0.0002341091603739187,
-0.0006588597898371518,
-1.0033405487774871e-05,
-0.00022832640388514847,
-2.971304456877988e-05,
-2.568281729509181e-07,
-1.702825647953432e-05,
-7.742027264612261e-06,
-0.00021401270350906998,
-2.165293881262187e-05
],
"blocks.0.layers.0.mix.weight": [
[
[
0.0004959711222909391
],
[
-0.00036975814145989716
],
[
-0.01961829885840416
],
[
6.088760642342095e-07
],
[
-0.0005185097106732428
],
[
0.0001468587142881006
],
[
-1.4260195939641562e-06
],
[
0.0007707642507739365
],
[
0.00019704047008417547
],
[
-2.1585711351690406e-07
],
[
-6.2483350120601244e-06
],
[
1.8193139794675517e-06
],
[
-1.8557209386926843e-06
],
[
-4.877925334767497e-07
],
[
0.0002171325613744557
],
[
1.5568164599244483e-05
]
],
[
[
-0.00036761490628123283
],
[
6.484818732133135e-05
],
[
0.23248609900474548
],
[
-3.8432690985246154e-07
],
[
0.0006097473087720573
],
[
-5.263787534204312e-05
],
[
-6.845697043900145e-06
],
[
0.00211256998591125
],
[
0.00022896123118698597
],
[
-5.033893444306159e-07
],
[
-6.215550456545316e-06
],
[
2.2529477519128704e-06
],
[
1.3236390259407926e-06
],
[
-1.626173570912215e-06
],
[
0.00017476071661803871
],
[
3.816588559857337e-06
]
],
[
[
0.0002980412100441754
],
[
0.0012222599470987916
],
[
-0.038152918219566345
],
[
2.272951036275117e-07
],
[
0.0006552821723744273
],
[
8.5461389971897e-05
],
[
4.9343057071382646e-06
],
[
0.0036216885782778263
],
[
0.00046305605792440474
],
[
4.869365000104153e-08
],
[
-1.3761489753960632e-05
],
[
-5.210195922700223e-06
],
[
1.0189620525125065e-06
],
[
-1.6551185808566515e-06
],
[
3.21164152410347e-05
],
[
-3.0040853744139895e-05
]
],
[
[
-0.0006785375881008804
],
[
-7.182674016803503e-05
],
[
0.1595972776412964
],
[
-3.686510865463788e-07
],
[
0.0005291012930683792
],
[
-0.00020668133220169693
],
[
-5.163582045497606e-06
],
[
0.00033612773404456675
],
[
0.0001185141591122374
],
[
-1.3892358197153953e-07
],
[
-1.1094486580986995e-05
],
[
1.0296001164533664e-05
],
[
-1.1887178743563709e-06
],
[
-8.218648304136877e-07
],
[
-0.00020935067732352763
],
[
4.5374883484328166e-05
]
],
[
[
9.026834595715627e-05
],
[
-0.00018762430408969522
],
[
-0.03763962164521217
],
[
-2.1586558318631432e-07
],
[
0.0006131097325123847
],
[
6.05403765803203e-05
],
[
8.068986971920822e-06
],
[
0.0006565224030055106
],
[
0.00030300073558464646
],
[
-1.5374637030163285e-07
],
[
-5.0477083277655765e-06
],
[
-7.818324775143992e-06
],
[
3.32156764670799e-06
],
[
1.844379880822089e-06
],
[
0.0004627291637007147
],
[
-1.784684741323872e-06
]
],
[
[
-3.502838080748916e-05
],
[
-0.0002699063334148377
],
[
-3.3102920055389404
],
[
-4.919213552057045e-07
],
[
-0.0009739094530232251
],
[
3.093401392106898e-05
],
[
-4.774049375555478e-05
],
[
-0.00016017412417568266
],
[
-0.0007493639132007957
],
[
-2.4579037471994525e-07
],
[
-1.0470957022334915e-05
],
[
4.69994374725502e-05
],
[
-2.6475445338292047e-06
],
[
-1.2277214409550652e-05
],
[
-0.0008110988419502974
],
[
-0.00011753528815461323
]
],
[
[
-0.00020214937103446573
],
[
-0.00024370619212277234
],
[
0.14681603014469147
],
[
-2.2521447817780427e-07
],
[
-4.806352808373049e-05
],
[
-3.750433097593486e-05
],
[
-2.0740378658956615e-06
],
[
-6.910227239131927e-05
],
[
8.845052070682868e-05
],
[
-2.835339785178803e-07
],
[
-8.448020025753067e-07
],
[
4.129225544602377e-06
],
[
-2.0053366824868135e-06
],
[
-8.262118171842303e-07
],
[
0.0001434685109416023
],
[
2.4722003217902966e-05
]
],
[
[
-0.0004954016767442226
],
[
-0.0010310077341273427
],
[
-0.18824884295463562
],
[
-2.414570587916387e-07
],
[
0.0003581772034522146
],
[
-0.00015441181312780827
],
[
-5.193246579437982e-06
],
[
-0.0024886494502425194
],
[
-0.00010081587242893875
],
[
-3.164157291735137e-08
],
[
8.752233952691313e-06
],
[
3.23096833199088e-06
],
[
-1.5899771597105428e-06
],
[
3.900735009665368e-06
],
[
0.0005535100935958326
],
[
4.588420415529981e-05
]
],
[
[
-0.0016194350318983197
],
[
-0.0003276152419857681
],
[
0.24260421097278595
],
[
-1.0765393199108075e-06
],
[
0.0011881591053679585
],
[
-0.0002913896751124412
],
[
-3.0611129204771714e-06
],
[
0.0001993066689465195
],
[
0.0004179429670330137
],
[
-6.17934972524381e-07
],
[
-2.6248231733916327e-05
],
[
2.6655043257051148e-05
],
[
-4.12509734815103e-06
],
[
2.7732269245461794e-06
],
[
0.0002411793830106035
],
[
4.824401912628673e-05
]
],
[
[
-0.00015256654296535999
],
[
-0.0006641973741352558
],
[
0.0837341770529747
],
[
-5.1546595614127e-07
],
[
0.0009469272918067873
],
[
-0.00016340149159077555
],
[
-3.1694830795458984e-06
],
[
-0.00014699305756948888
],
[
0.0003121597692370415
],
[
-2.1278982842432015e-07
],
[
-3.7933320982119767e-06
],
[
-1.580197590556054e-06
],
[
2.8381562060530996e-06
],
[
-1.9984757670954423e-07
],
[
0.00024987166398204863
],
[
4.502162119024433e-05
]
],
[
[
-0.0011371172731742263
],
[
0.00013562764797825366
],
[
0.5176918506622314
],
[
-9.79004994405841e-07
],
[
0.0009252206073142588
],
[
-0.0004562732938211411
],
[
-1.4772014765185304e-05
],
[
-0.0005307375104166567
],
[
0.00045038151438347995
],
[
-6.239097274374217e-07
],
[
-3.2105490390677005e-05
],
[
2.2645997887593694e-05
],
[
-9.011967449623626e-06
],
[
-8.441875252174214e-07
],
[
0.00021651126735378057
],
[
7.037739123916253e-05
]
],
[
[
-0.00045249093091115355
],
[
-0.000259291467955336
],
[
1.0506075620651245
],
[
-1.0139867754332954e-06
],
[
0.0005080284317955375
],
[
-0.00017316591402050108
],
[
-8.654837074573152e-06
],
[
5.33158345206175e-05
],
[
0.0003340731200296432
],
[
-7.31138698029099e-07
],
[
-5.525859705812763e-06
],
[
3.3630526559136342e-06
],
[
-1.2134443068134715e-06
],
[
-4.805579578714969e-07
],
[
0.0004690524947363883
],
[
7.776031998218969e-05
]
],
[
[
-0.00010885795200010762
],
[
0.0005094623193144798
],
[
0.36222052574157715
],
[
-1.4756075472632801e-07
],
[
0.0001583005941938609
],
[
-3.9981699956115335e-05
],
[
-5.312046141625615e-06
],
[
0.001028304803185165
],
[
0.00021295127226039767
],
[
-2.2214194927983044e-07
],
[
-6.246568773349281e-06
],
[
8.212806278606877e-06
],
[
-5.4643614930682816e-06
],
[
1.96917426364962e-06
],
[
-0.00016140815569087863
],
[
-1.0127888344868552e-05
]
],
[
[
-0.0014923461712896824
],
[
-0.0006726398132741451
],
[
-0.005502545274794102
],
[
-7.052788646433328e-07
],
[
0.000687669322360307
],
[
-0.00028497446328401566
],
[
-4.5578622120956425e-06
],
[
0.0010189845925197005
],
[
0.0005430055316537619
],
[
-6.791668170080811e-07
],
[
-2.0772815332747996e-05
],
[
1.7912052499013953e-05
],
[
-3.0867906843923265e-06
],
[
-5.24255938216811e-07
],
[
0.0007405824144370854
],
[
3.765620567719452e-05
]
],
[
[
0.0002928136964328587
],
[
0.00012144187348894775
],
[
-1.2863246202468872
],
[
1.727944010099236e-07
],
[
-0.0009212279110215604
],
[
0.0001621692645130679
],
[
-8.669605335853703e-07
],
[
0.00017694280541036278
],
[
-0.00046140648191794753
],
[
5.442639690045326e-07
],
[
6.011285677232081e-06
],
[
-8.737249004298064e-07
],
[
-6.058321559976321e-07
],
[
-4.209907274344005e-06
],
[
-0.0010444255312904716
],
[
-6.47249398753047e-05
]
],
[
[
0.0007792991236783564
],
[
0.0009657191694714129
],
[
-1.401654601097107
],
[
4.826272288482869e-07
],
[
-0.0012171503622084856
],
[
0.00020525713625829667
],
[
7.958582500577904e-06
],
[
0.002401143778115511
],
[
-0.00045669174869544804
],
[
6.316498968317319e-08
],
[
-3.347800884512253e-06
],
[
-4.173100478510605e-06
],
[
3.4396343835396692e-06
],
[
-5.092978881293675e-06
],
[
-0.0009080126765184104
],
[
-0.00010770550579763949
]
]
],
"blocks.0.layers.0.mix.bias": [
0.0012444989988580346,
-0.0005268906825222075,
0.0005742313805967569,
0.0060860891826450825,
-0.0039476873353123665,
0.025812124833464622,
0.002436791080981493,
0.0015903350431472063,
0.006091460585594177,
-0.0021818906534463167,
0.009655526839196682,
-0.012055843137204647,
0.003141754074022174,
0.008264606818556786,
0.005520083475857973,
0.015159417875111103
],
"blocks.0.layers.1.conv.weight": [
[
[
-0.016486279666423798,
-0.0038184593431651592,
-0.023638194426894188
],
[
-0.022897955030202866,
3.431009463383816e-05,
-0.03246324881911278
],
[
-0.01782844401896,
-0.006636250298470259,
-0.024980736896395683
],
[
-0.02405383251607418,
-0.004978461191058159,
-0.03316393494606018
],
[
-0.020844710990786552,
-0.008979790844023228,
-0.027901390567421913
],
[
-0.019043292850255966,
-0.023543722927570343,
-0.019804777577519417
],
[
-0.020479587838053703,
-0.0031936923041939735,
-0.029312530532479286
],
[
-0.018492698669433594,
-0.010655065067112446,
-0.024697603657841682
],
[
-0.02509416453540325,
-0.0030216858722269535,
-0.03421927988529205
],
[
-0.02575051225721836,
-0.00898041296750307,
-0.03452658653259277
],
[
-0.022037463262677193,
0.014931850135326385,
-0.034271031618118286
],
[
0.003114992054179311,
0.04850062355399132,
-0.010030027478933334
],
[
-0.017113491892814636,
0.013362898491322994,
-0.02807352878153324
],
[
-0.022225283086299896,
-0.009477225132286549,
-0.029692204669117928
],
[
-0.01643320359289646,
-0.01881478726863861,
-0.01947498880326748
],
[
-0.01551896147429943,
-0.01809915341436863,
-0.01839611865580082
]
],
[
[
-0.0013747763587161899,
-0.0017294130520895123,
-0.0018784612184390426
],
[
-0.0015506302006542683,
-0.0019167864229530096,
-0.0021249251440167427
],
[
-0.0013903812505304813,
-0.0017252316465601325,
-0.001874408801086247
],
[
-0.0014853683533146977,
-0.0018527189968153834,
-0.0020198007114231586
],
[
-0.0014480265090242028,
-0.0017987146275117993,
-0.001945003285072744
],
[
-0.0009509362862445414,
-0.001501024584285915,
-0.0011298860190436244
],
[
-0.0014026459539309144,
-0.0017380237113684416,
-0.0019058987963944674
],
[
-0.0014016679488122463,
-0.0017311471747234464,
-0.001864881836809218
],
[
-0.0012355371145531535,
-0.0014637000858783722,
-0.001690701232291758
],
[
-0.0015191782731562853,
-0.0018450672505423427,
-0.0020264640916138887
],
[
-0.0011269302340224385,
-0.0011072532506659627,
-0.0014766913373023272
],
[
-0.0008469981257803738,
-0.0003527807130012661,
-0.0002929137845057994
],
[
-0.0014217389980331063,
-0.001722088665701449,
-0.0019892470445483923
],
[
-0.0013011496048420668,
-0.001624925760552287,
-0.0017783906077966094
],
[
-0.0014407126000151038,
-0.0014402581145986915,
-0.0017252418911084533
],
[
-0.0015927288914099336,
-0.0015758530935272574,
-0.00186819676309824
]
],
[
[
0.015439672395586967,
0.017522022128105164,
0.01755453832447529
],
[
0.013974557630717754,
0.016693897545337677,
0.016958050429821014
],
[
0.015367159619927406,
0.01743139512836933,
0.01743425987660885
],
[
0.014309832826256752,
0.016604892909526825,
0.016857896000146866
],
[
0.01513331476598978,
0.01739916205406189,
0.01732684299349785
],
[
0.018215378746390343,
0.019086377695202827,
0.019522586837410927
],
[
0.014411612413823605,
0.016483725979924202,
0.01680930145084858
],
[
0.01591755449771881,
0.017696045339107513,
0.017712434753775597
],
[
0.01341924723237753,
0.015993356704711914,
0.016253041103482246
],
[
0.014680270105600357,
0.016705943271517754,
0.016951007768511772
],
[
0.010887722484767437,
0.013747385703027248,
0.015096312388777733
],
[
-0.00022348568018060178,
-3.484434637357481e-05,
-0.0003918796719517559
],
[
0.013384479098021984,
0.01571698859333992,
0.016709215939044952
],
[
0.014913720078766346,
0.01701805740594864,
0.017007717862725258
],
[
0.01739877089858055,
0.018502729013562202,
0.018605394288897514
],
[
0.017428593710064888,
0.018712574616074562,
0.0187237486243248
]
],
[
[
0.004542994312942028,
0.00476747564971447,
0.005458706524223089
],
[
0.004075144417583942,
0.004488772246986628,
0.005299504846334457
],
[
0.004384703002870083,
0.004579402040690184,
0.0052871196530759335
],
[
0.004073388408869505,
0.004452853463590145,
0.0052206553518772125
],
[
0.004417193587869406,
0.004644786007702351,
0.005301798693835735
],
[
0.005781129933893681,
0.005466983187943697,
0.006602022331207991
],
[
0.0040054526180028915,
0.004344435408711433,
0.005154644604772329
],
[
0.00476458203047514,
0.004838655237108469,
0.005444579757750034
],
[
0.003942850511521101,
0.004301544278860092,
0.00519068306311965
],
[
0.004231652244925499,
0.004427798558026552,
0.005194579251110554
],
[
0.0033334626350551844,
0.0040001762099564075,
0.0048764897510409355
],
[
9.180958295473829e-05,
0.00017219105211552233,
0.000676731753628701
],
[
0.004010435193777084,
0.004637493751943111,
0.005503934342414141
],
[
0.004435587674379349,
0.0045929476618766785,
0.005289709195494652
],
[
0.0053886291570961475,
0.005202050786465406,
0.0056176502257585526
],
[
0.005402445327490568,
0.005211093463003635,
0.0056352377869188786
]
],
[
[
0.001992675242945552,
0.0009425219031982124,
-0.0018411304336041212
],
[
-0.0005667838850058615,
-0.0007168371230363846,
-0.002917819656431675
],
[
0.0014121822314336896,
0.0002156037517124787,
-0.002549335826188326
],
[
0.0005472971824929118,
-0.0002904318680521101,
-0.002608908573165536
],
[
0.0008853691397234797,
-0.00042643625056371093,
-0.003164072521030903
],
[
0.00424170820042491,
-0.000948912522289902,
0.0025311585050076246
],
[
0.0010726131731644273,
0.0004328445647843182,
-0.0020819634664803743
],
[
0.0012275396147742867,
-0.0005996836698614061,
-0.00323295290581882
],
[
-0.003159361192956567,
-0.004211761057376862,
-0.006194847635924816
],
[
-0.0012744952691718936,
-0.0019855843856930733,
-0.004597040358930826
],
[
-0.0035355801228433847,
-0.003999307285994291,
-0.005236789584159851
],
[
-0.0031458998564630747,
-0.0007534044561907649,
-0.003261294448748231
],
[
-0.00026921878452412784,
-1.8840652046492323e-05,
-0.001762067200616002
],
[
-0.0007421810878440738,
-0.002077877288684249,
-0.004718410782516003
],
[
0.0031494847498834133,
-0.0008029135642573237,
-0.0009132064878940582
],
[
0.003714444814249873,
-0.00033982357126660645,
-0.0001771491370163858
]
],
[
[
0.0015378809766843915,
0.00542402220889926,
0.005551484879106283
],
[
0.005358209367841482,
0.00587782496586442,
0.007309948559850454
],
[
0.0014494290808215737,
0.0062123797833919525,
0.0062541840597987175
],
[
0.004149404354393482,
0.006562856491655111,
0.007737195119261742
],
[
0.002568903611972928,
0.007738548330962658,
0.00788694154471159
],
[
-0.005396843422204256,
0.0036129772197455168,
-0.004761524964123964
],
[
0.0026676966808736324,
0.0054875705391168594,
0.006507236044853926
],
[
-0.00019004041678272188,
0.0062712118960917,
0.005487530026584864
],
[
0.007986229844391346,
0.011031406931579113,
0.012503932230174541
],
[
0.0032721427269279957,
0.00709155248478055,
0.007861610502004623
],
[
0.010501052252948284,
0.008423852734267712,
0.010933264158666134
],
[
0.01068402174860239,
0.008629074320197105,
0.009332600049674511
],
[
0.004583040717989206,
0.003269005101174116,
0.005143354646861553
],
[
0.003816769225522876,
0.008840272203087807,
0.00896697398275137
],
[
-0.004338344093412161,
0.004482388962060213,
-0.00023992345086298883
],
[
-0.004747583996504545,
0.0040455954149365425,
-0.0009678836213424802
]
],
[
[
-0.015603067353367805,
-0.1339922994375229,
0.06292389333248138
],
[
-0.0750197172164917,
-0.20037294924259186,
0.07236526161432266
],
[
-0.037310078740119934,
-0.16648587584495544,
0.02830391936004162
],
[
-0.02697710506618023,
-0.15395422279834747,
0.10198993980884552
],
[
0.008254061453044415,
-0.08502447605133057,
0.11181564629077911
],
[
0.5651896595954895,
0.8090322613716125,
-0.2744462788105011
],
[
-0.04013606905937195,
-0.15788131952285767,
0.08711646497249603
],
[
-0.016101175919175148,
-0.10046715289354324,
-0.009141713380813599
],
[
-0.04323679953813553,
-0.17674081027507782,
0.08402852714061737
],
[
0.016092441976070404,
-0.07477586716413498,
0.0761173740029335
],
[
-0.07212536036968231,
-0.2370196282863617,
0.1130577027797699
],
[
-0.20357607305049896,
-0.4237617254257202,
0.09409233927726746
],
[
-0.06193801760673523,
-0.2094431072473526,
0.11131002008914948
],
[
-0.01252504251897335,
-0.11538095027208328,
0.07059900462627411
],
[
0.0581924133002758,
0.08978638052940369,
-0.17232543230056763
],
[
-0.07791096717119217,
-0.025199225172400475,
-0.35784730315208435
]
],
[
[
-0.010925053618848324,
0.001125652459450066,
-0.009623490273952484
],
[
-0.015414278022944927,
0.001286200014874339,
-0.015414989553391933
],
[
-0.012855799868702888,
-0.0011732080020010471,
-0.011641036719083786
],
[
-0.01582087017595768,
-0.000647248059976846,
-0.015406264923512936
],
[
-0.013225185684859753,
-0.0014873663894832134,
-0.01208824384957552
],
[
-0.0049889967776834965,
-0.005118445493280888,
-0.00200838060118258
],
[
-0.013864296488463879,
0.0009159868350252509,
-0.013259507715702057
],
[
-0.010847522877156734,
-0.001263333368115127,
-0.009267176501452923
],
[
-0.015625549480319023,
0.0012579791946336627,
-0.01564028114080429
],
[
-0.017212999984622,
-0.003879277501255274,
-0.01668320782482624
],
[
-0.015632495284080505,
0.010802626609802246,
-0.01750030927360058
],
[
-0.013083018362522125,
0.020873086526989937,
-0.016164032742381096
],
[
-0.011998291127383709,
0.00930799450725317,
-0.012281235307455063
],
[
-0.013750058598816395,
-0.0018858578987419605,
-0.012706310488283634
],
[
-0.007318273186683655,
-0.004169277381151915,
-0.004801467526704073
],
[
-0.007386335637420416,
-0.004583079367876053,
-0.004834928549826145
]
],
[
[
0.004376580473035574,
0.005710250232368708,
0.005689971148967743
],
[
0.003754254663363099,
0.005180015694350004,
0.005291970446705818
],
[
0.004341338761150837,
0.0056843226775527,
0.005622833501547575
],
[
0.0039023461285978556,
0.005278461147099733,
0.00527396472170949
],
[
0.004369751550257206,
0.005677536129951477,
0.005540458019822836
],
[
0.0053682709112763405,
0.004463280085474253,
0.009627379477024078
],
[
0.0038957262877374887,
0.005320527590811253,
0.005304459948092699
],
[
0.0046285842545330524,
0.005842792801558971,
0.005761901848018169
],
[
0.003700130619108677,
0.0050397454760968685,
0.005122499540448189
],
[
0.00403175875544548,
0.005320478230714798,
0.0053728618659079075
],
[
0.002658558776602149,
0.003720403416082263,
0.004466529469937086
],
[
-0.0012923168251290917,
-0.0006744309212081134,
-0.0006735423230566084
],
[
0.003500384045764804,
0.004861069843173027,
0.005028035957366228
],
[
0.0043241665698587894,
0.005585497710853815,
0.005534604657441378
],
[
0.005288948304951191,
0.006188635714352131,
0.006247216369956732
],
[
0.005266199819743633,
0.006115781608968973,
0.0063110776245594025
]
],
[
[
0.002886834554374218,
-0.00505657447502017,
-0.0008398889331147075
],
[
0.0031929805409163237,
-0.003926477860659361,
0.00012096968566766009
],
[
0.0037145225796848536,
-0.004129255190491676,
7.132923201425001e-05
],
[
0.003465165849775076,
-0.0034990485291928053,
0.0003689926234073937
],
[
0.003146967152133584,
-0.004626464564353228,
-0.0005101061542518437
],
[
-0.0007304130122065544,
-0.007563432678580284,
0.009983032941818237
],
[
0.003562530502676964,
-0.0038412499707192183,
0.00011988649930572137
],
[
0.003130623372271657,
-0.005070927552878857,
-0.00027637890889309347
],
[
0.004980061668902636,
-0.002352873096242547,
0.001686373958364129
],
[
0.00363346585072577,
-0.00424850732088089,
-0.00017732185369823128
],
[
0.005729018244892359,
-0.00038348117959685624,
0.003994975239038467
],
[
0.010575363412499428,
0.0037278791423887014,
0.007535581011325121
],
[
0.004514047410339117,
-0.002323482185602188,
0.0019205535063520074
],
[
0.0035148474853485823,
-0.0042882016859948635,
-0.00011266060755588114
],
[
0.0024316722992807627,
-0.005471952725201845,
0.0050685773603618145
],
[
0.0017259798478335142,
-0.006126509513705969,
0.004995736759155989
]
],
[
[
0.045869629830121994,
0.0634235143661499,
-0.17834430932998657
],
[
0.07778491824865341,
0.05838589742779732,
-0.12566082179546356
],
[
-0.04079316928982735,
-0.02646918222308159,
-0.2712344527244568
],
[
0.05775405094027519,
0.055074211210012436,
-0.14455121755599976
],
[
0.021715816110372543,
0.046148158609867096,
-0.19451776146888733
],
[
0.17219340801239014,
0.5360429286956787,
-0.4870920479297638
],
[
0.06346070021390915,
0.0560639388859272,
-0.14915476739406586
],
[
0.09028877317905426,
0.14992351830005646,
-0.170541912317276
],
[
0.057556137442588806,
0.05297368764877319,
-0.1411895602941513
],
[
0.04099218174815178,
0.08860223740339279,
-0.19702105224132538
],
[
0.08940283209085464,
0.041077204048633575,
-0.08371944725513458
],
[
0.1852623075246811,
0.0663243755698204,
0.05742734298110008
],
[
0.08125945925712585,
0.03890445828437805,
-0.1104440689086914
],
[
0.03004741296172142,
0.059365373104810715,
-0.18564708530902863
],
[
0.32818594574928284,
0.4914665222167969,
-0.0560171939432621
],
[
-0.06266520917415619,
0.1110834851861,
-0.4842081367969513
]
],
[
[
-0.003269069129601121,
0.0002054297219729051,
-0.005896725691854954
],
[
0.0037711975164711475,
0.0008987103938125074,
0.0014670677483081818
],
[
-0.0028013847768306732,
0.001255903858691454,
-0.00523420562967658
],
[
0.005827356595546007,
0.005531456787139177,
0.003882650751620531
],
[
-0.0017293450655415654,
0.002964616287499666,
-0.003716187085956335
],
[
-0.013399881310760975,
-0.014276922680437565,
-0.024359649047255516
],
[
0.0016642645932734013,
0.0022379173897206783,
-0.00042016219231300056
],
[
-0.0020599043928086758,
0.004160725511610508,
-0.00462567713111639
],
[
0.021213112398982048,
0.0215904600918293,
0.021240046247839928
],
[
0.006183241028338671,
0.008041721768677235,
0.004141953308135271
],
[
0.0298880934715271,
0.023230401799082756,
0.03229435533285141
],
[
0.02953988127410412,
0.026937223970890045,
0.02587614394724369
],
[
0.008806907571852207,
0.0010638623498380184,
0.006128315813839436
],
[
0.007128131575882435,
0.011638215743005276,
0.0052278186194598675
],
[
-0.010208922438323498,
-0.0054985107854008675,
-0.016861779615283012
],
[
-0.013501702807843685,
-0.009455058723688126,
-0.020577918738126755
]
],
[
[
0.004874898586422205,
0.014025053940713406,
0.009291667491197586
],
[
9.716491331346333e-05,
0.011230573058128357,
0.005939628928899765
],
[
0.004063757136464119,
0.013073508627712727,
0.00840859953314066
],
[
0.0018222732469439507,
0.012669475749135017,
0.007426715921610594
],
[
0.004292229190468788,
0.013499033637344837,
0.008761345408856869
],
[
0.01598993130028248,
0.014677301980555058,
0.010935182683169842
],
[
0.002986412262544036,
0.013460648246109486,
0.008370840921998024
],
[
0.006574082653969526,
0.014505338855087757,
0.010184139013290405
],
[
0.0032323282212018967,
0.01482450496405363,
0.009474792517721653
],
[
0.0012831201311200857,
0.011301972903311253,
0.006306602619588375
],
[
-0.0017181969014927745,
0.012101893313229084,
0.00698246993124485
],
[
-0.014749761670827866,
-0.002646862296387553,
-0.00466177798807621
],
[
-0.00016304456221405417,
0.012352323159575462,
0.006866293027997017
],
[
0.004548345692455769,
0.01381754968315363,
0.009122943505644798
],
[
0.011742335744202137,
0.014579851180315018,
0.011024557054042816
],
[
0.011130563914775848,
0.013609986752271652,
0.0100536635145545
]
],
[
[
-0.020482081919908524,
-0.01247254479676485,
0.031026603654026985
],
[
-0.0343233086168766,
-0.05453561246395111,
0.014457622542977333
],
[
0.02981068752706051,
0.041539452970027924,
0.0831725001335144
],
[
-0.05736154690384865,
-0.06614018231630325,
-0.00532907247543335
],
[
-0.02983052469789982,
-0.01974032260477543,
0.023827310651540756
],
[
0.5375061631202698,
0.9818498492240906,
0.6223887801170349
],
[
-0.032881543040275574,
-0.04408945143222809,
0.015320437960326672
],
[
-0.019762998446822166,
0.012616577558219433,
0.037950728088617325
],
[
-0.00728719774633646,
-0.027724722400307655,
0.04349701106548309
],
[
-0.009921672753989697,
-0.012152953073382378,
0.040760088711977005
],
[
-0.04016838222742081,
-0.09248419106006622,
0.005124565213918686
],
[
-0.1796988844871521,
-0.2952011227607727,
-0.13827119767665863
],
[
-0.07414375990629196,
-0.11131715774536133,
-0.031093891710042953
],
[
0.008256343193352222,
0.016715949401259422,
0.061057399958372116
],
[
0.20598414540290833,
0.3713780641555786,
0.2871108055114746
],
[
0.15988527238368988,
0.33869925141334534,
0.24168303608894348
]
],
[
[
0.0009858361445367336,
0.001645366777665913,
0.0018955549458041787
],
[
0.000766807934269309,
0.0016886017983779311,
0.002025221474468708
],
[
0.0009734499035403132,
0.001675670500844717,
0.001958889188244939
],
[
0.0008465833961963654,
0.001696466701105237,
0.0020269774831831455
],
[
0.0009576333104632795,
0.0016804685583338141,
0.00196270109154284
],
[
0.0014095925725996494,
0.0020313647110015154,
0.001949521480128169
],
[
0.0008330488344654441,
0.0016854872228577733,
0.0020062613766640425
],
[
0.001110445475205779,
0.0017210418591275811,
0.0019875019788742065
],
[
0.0008127750479616225,
0.0016487282700836658,
0.001955227227881551
],
[
0.0009200406493619084,
0.0016010510735213757,
0.001901793759316206
],
[
0.0004440508200787008,
0.0013820603489875793,
0.0022373145911842585
],
[
-0.0009653725428506732,
-0.0008342687506228685,
-0.0007869665278121829
],
[
0.0006747535080648959,
0.0017573847435414791,
0.002231585793197155
],
[
0.0010308377677574754,
0.0017057920340448618,
0.001988233532756567
],
[
0.0013364751357585192,
0.0017732855631038547,
0.0020443929824978113
],
[
0.0013051547575742006,
0.0017277601873502135,
0.001992319943383336
]
],
[
[
0.005756296217441559,
0.003091094782575965,
0.006595004815608263
],
[
0.005765492562204599,
0.0026319774333387613,
0.005062687676399946
],
[
0.004960641264915466,
0.002288882853463292,
0.005888707470148802
],
[
0.006342635490000248,
0.0031147233676165342,
0.005708230193704367
],
[
0.005838187877088785,
0.0031163122039288282,
0.006589380092918873
],
[
-0.01757807284593582,
-0.01882956363260746,
0.002240257104858756
],
[
0.0068891094997525215,
0.0037085474468767643,
0.0064688753336668015
],
[
0.004951491951942444,
0.002369354711845517,
0.007060031872242689
],
[
0.0068245939910411835,
0.003592447144910693,
0.005963383242487907
],
[
0.006753519177436829,
0.003552186070010066,
0.006531119346618652
],
[
0.005156794562935829,
0.001032753032632172,
0.0027029025368392467
],
[
0.0057899742387235165,
0.0023065933492034674,
0.003111562691628933
],
[
0.005934662185609341,
0.0019465028308331966,
0.004149858374148607
],
[
0.004608906805515289,
0.0019596614874899387,
0.005508554168045521
],
[
-0.0075209420174360275,
-0.009289843961596489,
0.003392321290448308
],
[
-0.008257451467216015,
-0.010020493529736996,
0.003302051220089197
]
],
[
[
-0.027235601097345352,
-0.028584888204932213,
-0.026134375482797623
],
[
-0.018902698531746864,
-0.021233337000012398,
-0.016957933083176613
],
[
-0.02898593433201313,
-0.030163727700710297,
-0.027955492958426476
],
[
-0.021574920043349266,
-0.023543410003185272,
-0.01984594017267227
],
[
-0.0285497959703207,
-0.02970215119421482,
-0.027533186599612236
],
[
-0.03870799392461777,
-0.03865348920226097,
-0.04059452936053276
],
[
-0.021804887801408768,
-0.02381088398396969,
-0.020127946510910988
],
[
-0.030725719407200813,
-0.031559959053993225,
-0.030189981684088707
],
[
-0.01570803113281727,
-0.018201002851128578,
-0.013717388734221458
],
[
-0.025544697418808937,
-0.027039214968681335,
-0.024097302928566933
],
[
0.0036932884249836206,
-0.0013265374582260847,
0.006187949795275927
],
[
0.01399979181587696,
0.00644702510908246,
0.013506687246263027
],
[
-0.008395315147936344,
-0.012166130356490612,
-0.006059740204364061
],
[
-0.02712877467274666,
-0.028343815356492996,
-0.0260259211063385
],
[
-0.03875809162855148,
-0.0386832095682621,
-0.03977822884917259
],
[
-0.040933191776275635,
-0.04081743583083153,
-0.042038772255182266
]
],
[
[
0.0011602400336414576,
0.0012194927548989654,
0.0013879809994250536
],
[
0.0014873185427859426,
0.0015558021841570735,
0.0018083305330947042
],
[
0.0011486918665468693,
0.0012074669357389212,
0.0013811649987474084
],
[
0.0013952101580798626,
0.001465767971239984,
0.0016944098751991987
],
[
0.0012221576180309057,
0.0012822040589526296,
0.0014620966976508498
],
[
-0.0006624259985983372,
-0.000681355653796345,
-0.0006966802757233381
],
[
0.0013245894806459546,
0.0013876412995159626,
0.0016032224521040916
],
[
0.0009146219817921519,
0.0009647060069255531,
0.0010837515583261847
],
[
0.0016523119993507862,
0.0017124193254858255,
0.0019831995014101267
],
[
0.0013895455049350858,
0.0014518345706164837,
0.001669177901931107
],
[
0.0016036400338634849,
0.0016259460244327784,
0.0018508294597268105
],
[
-0.00046939257299527526,
-0.00048287431127391756,
-0.0005203008186072111
],
[
0.0015407355967909098,
0.0016013386193662882,
0.0018622416537255049
],
[
0.001201861654408276,
0.001261298661120236,
0.001439194194972515
],
[
-9.088106889976189e-05,
-8.295489533338696e-05,
-7.112570892786607e-05
],
[
-0.00026455632178112864,
-0.00026066190912388265,
-0.0002542379079386592
]
],
[
[
0.001202079700306058,
0.0008383283857256174,
0.0005009595770388842
],
[
-0.00045640228199772537,
-0.000824524206109345,
-0.0011626388877630234
],
[
0.001476334291510284,
0.0010943670058622956,
0.0007664852309972048
],
[
-9.46039508562535e-05,
-0.00037380430148914456,
-0.0007361905300058424
],
[
0.0015079558361321688,
0.001020818017423153,
0.0007204919238574803
],
[
0.009379308670759201,
0.009035157971084118,
0.008678571321070194
],
[
6.6473967308411375e-06,
-0.00020635774126276374,
-0.0005807491252198815
],
[
0.0029354088474065065,
0.002579629886895418,
0.002255095401778817
],
[
-0.0005858647054992616,
-0.0009398838737979531,
-0.0012730896705761552
],
[
0.0009305162820965052,
0.0006846291362307966,
0.0003436080878600478
],
[
-0.001401881454512477,
-0.0015521791065111756,
-0.0018124275375157595
],
[
0.000526828458532691,
0.0007995227933861315,
0.0010679352562874556
],
[
-0.0014831835869699717,
-0.0015590364346280694,
-0.0019383160397410393
],
[
0.0013867832021787763,
0.0009778200183063745,
0.0006673712632618845
],
[
0.009431264363229275,
0.009100162424147129,
0.008714655414223671
],
[
0.009372218511998653,
0.0090913912281394,
0.008681874722242355
]
],
[
[
5.528725159820169e-05,
3.0397593945963308e-05,
-1.9194645574316382e-05
],
[
-0.00020759088511113077,
-0.00024208278045989573,
-0.00034340430283918977
],
[
8.52283847052604e-05,
6.075984128983691e-05,
1.0858922905754298e-05
],
[
-7.488721166737378e-05,
-0.00010482473589945585,
-0.00018173074931837618
],
[
8.309561962960288e-05,
5.833092291140929e-05,
9.123540621658321e-06
],
[
0.001337681314907968,
0.0013474919833242893,
0.0013344548642635345
],
[
-3.248005305067636e-05,
-6.0842950915684924e-05,
-0.0001261628494830802
],
[
0.0003365944721736014,
0.0003187845286447555,
0.0002361861988902092
],
[
-0.00027009594487026334,
-0.00030429018079303205,
-0.000414829992223531
],
[
5.786597102996893e-05,
3.135110091534443e-05,
-1.6210367903113365e-05
],
[
-0.0005361451185308397,
-0.0005485977162607014,
-0.000540820590686053
],
[
9.799006511457264e-05,
0.00020331883570179343,
0.0003388035111129284
],
[
-0.0006782884011045098,
-0.0007120454683899879,
-0.0007796105928719044
],
[
8.67736671352759e-05,
6.299310189206153e-05,
1.499091104051331e-05
],
[
0.00130587222520262,
0.001264131860807538,
0.0012791543267667294
],
[
0.001164889894425869,
0.0011249016970396042,
0.0011421481613069773
]
],
[
[
-0.0001056381588568911,
-0.00013035224401392043,
-0.00012631656136363745
],
[
0.0001654677325859666,
9.032843809109181e-05,
0.00015548527881037444
],
[
-9.461335139349103e-05,
-0.00011795034515671432,
-0.0001139223386417143
],
[
0.0001576619251864031,
0.0001066040713340044,
0.00016077702457550913
],
[
-2.4442981157335453e-05,
-4.479507697396912e-05,
-3.9773749449523166e-05
],
[
-0.0008941561682149768,
-0.0008326669340021908,
-0.000700765463989228
],
[
9.352288179798052e-05,
5.042039629188366e-05,
9.322206460637972e-05
],
[
-0.00016767540364526212,
-0.00020203822350595146,
-0.00019251999037805945
],
[
0.0003497939324006438,
0.00027419751859270036,
0.0003413869417272508
],
[
9.3081958766561e-05,
5.889137537451461e-05,
8.957469981396571e-05
],
[
0.00023652121308259666,
0.00014673371333628893,
0.0001064585885615088
],
[
7.353143155341968e-05,
5.710967889172025e-05,
9.451730875298381e-05
],
[
0.00016830343520268798,
6.678796489723027e-05,
0.0001237363467225805
],
[
2.4798016966087744e-05,
5.799713562737452e-06,
1.4393326637218706e-05
],
[
5.0432088755769655e-05,
8.392358722630888e-06,
6.625622336287051e-05
],
[
-5.448653973871842e-05,
-9.310607856605202e-05,
-4.51007072115317e-05
]
],
[
[
-0.002517367945984006,
-0.0027396974619477987,
-0.002751723863184452
],
[
-0.001954152714461088,
-0.002170379739254713,
-0.002158982213586569
],
[
-0.0024878080002963543,
-0.002710122847929597,
-0.0027228801045566797
],
[
-0.002070388523861766,
-0.002289723139256239,
-0.0022852325346320868
],
[
-0.0023683449253439903,
-0.002590555464848876,
-0.002601094776764512
],
[
-0.0029942640103399754,
-0.00309925340116024,
-0.003126258496195078
],
[
-0.002157184761017561,
-0.0023762478958815336,
-0.0023753473069518805
],
[
-0.0026577392127364874,
-0.0028820596635341644,
-0.002906935987994075
],
[
-0.0015725087141618133,
-0.0017906673019751906,
-0.0017738727619871497
],
[
-0.0021690232679247856,
-0.002388069173321128,
-0.002389577915892005
],
[
-0.0009026405750773847,
-0.0010594769846647978,
-0.0009968659142032266
],
[
0.0009084003395400941,
0.0008298466564156115,
0.0008310574921779335
],
[
-0.0016444830689579248,
-0.0018544751219451427,
-0.0018221961800009012
],
[
-0.0022440562024712563,
-0.002465861616656184,
-0.002473197877407074
],
[
-0.0031154791358858347,
-0.0032949859742075205,
-0.00339967617765069
],
[
-0.0031848493963479996,
-0.0033578751608729362,
-0.0034678904339671135
]
],
[
[
-5.658971713273786e-05,
0.01669534668326378,
-0.061383623629808426
],
[
-0.013718653470277786,
0.005867852829396725,
-0.07707063853740692
],
[
-0.03819657117128372,
-0.021537255495786667,
-0.09953764826059341
],
[
-0.0011827689595520496,
0.017498046159744263,
-0.06409262120723724
],
[
-0.008713909424841404,
0.008365733548998833,
-0.06977228075265884
],
[
0.2700948715209961,
0.2595840096473694,
0.1971781700849533
],
[
-0.0172624122351408,
0.0008785348036326468,
-0.0801248848438263
],
[
0.020284950733184814,
0.036221493035554886,
-0.039397742599248886
],
[
-0.018228014931082726,
0.0019286879105493426,
-0.08129316568374634
],
[
0.006489848718047142,
0.024787411093711853,
-0.054642509669065475
],
[
-0.04900730773806572,
-0.02415418066084385,
-0.11292359977960587
],
[
-0.10528029501438141,
-0.07343905419111252,
-0.1647527813911438
],
[
-0.03340494632720947,
-0.012003645300865173,
-0.09770896285772324
],
[
0.011638221330940723,
0.02883397974073887,
-0.049568578600883484
],
[
0.08289377391338348,
0.09431496262550354,
0.027966776862740517
],
[
0.08692535758018494,
0.09772265702486038,
0.031837306916713715
]
],
[
[
-0.0019799876026809216,
-0.0023897155188024044,
-0.0017240290762856603
],
[
0.0015544251073151827,
0.0008723937789909542,
0.002047034678980708
],
[
-0.002591651864349842,
-0.0029542359989136457,
-0.002339622238650918
],
[
0.0003335622895974666,
-0.00023298358428291976,
0.0007921581855043769
],
[
-0.002362190280109644,
-0.002724430523812771,
-0.002106486354023218
],
[
-0.020433763042092323,
-0.02072209119796753,
-0.021931225433945656
],
[
0.00017350359121337533,
-0.00039312694570980966,
0.0005814368487335742
],
[
-0.005049671046435833,
-0.005284751765429974,
-0.004937301389873028
],
[
0.001701924717053771,
0.0010308177443221211,
0.002235881984233856
],
[
-0.0009925506310537457,
-0.0014407731359824538,
-0.0005988939083181322
],
[
0.004741681274026632,
0.0034279159735888243,
0.005262037739157677
],
[
-0.0026268057990819216,
-0.004613707773387432,
-0.0026073562912642956
],
[
0.0031701524276286364,
0.0022164981346577406,
0.0038040499202907085
],
[
-0.0020311849657446146,
-0.0024099170695990324,
-0.001758615137077868
],
[
-0.014988361857831478,
-0.015288899652659893,
-0.01598791964352131
],
[
-0.015960540622472763,
-0.01626715436577797,
-0.01702914945781231
]
],
[
[
0.0004796111606992781,
0.00045909840264357626,
0.0004278630658518523
],
[
0.00025056840968318284,
0.00022995115432422608,
0.00020178953127469867
],
[
0.00047227140748873353,
0.00045171333476901054,
0.0004194147477392107
],
[
0.00028910054243169725,
0.0002679367025848478,
0.00023711587709840387
],
[
0.00047502847155556083,
0.0004540307563729584,
0.00042238205787725747
],
[
0.0005181912565603852,
0.0005026737344451249,
0.000498924171552062
],
[
0.00030127065838314593,
0.00028117228066548705,
0.0002499411639291793
],
[
0.0005899386596865952,
0.0005656251451000571,
0.0005400722729973495
],
[
0.00023195486573968083,
0.0002087636385113001,
0.0001810895191738382
],
[
0.00036918240948580205,
0.000350849237293005,
0.0003196066536474973
],
[
0.00011695557623170316,
0.0001060444992617704,
7.403810741379857e-05
],
[
5.606028571492061e-05,
3.966160147683695e-05,
7.022046338533983e-05
],
[
0.00018611735140439123,
0.00016132404562085867,
0.0001359822927042842
],
[
0.0004561918321996927,
0.00043624380487017334,
0.00040445345803163946
],
[
0.0003644958196673542,
0.0003476480196695775,
0.00033604633063077927
],
[
0.00034166043042205274,
0.00032639276469126344,
0.0003139645850751549
]
],
[
[
-0.004346718080341816,
-0.004130155313760042,
-0.004303988069295883
],
[
0.00215451093390584,
0.002865629969164729,
0.0023980592377483845
],
[
-0.004719112068414688,
-0.0045193396508693695,
-0.00469555426388979
],
[
0.0009006915497593582,
0.0015343650011345744,
0.0011110167251899838
],
[
-0.004582596477121115,
-0.0043812766671180725,
-0.004563312046229839
],
[
-0.030817387625575066,
-0.031474918127059937,
-0.03198413550853729
],
[
-0.0002678603050298989,
0.0002659634919837117,
-7.7350705396384e-05
],
[
-0.008632558397948742,
-0.008602985180914402,
-0.008743907324969769
],
[
0.0022233433555811644,
0.003011594759300351,
0.0025214902125298977
],
[
-0.002374150324612856,
-0.00201787450350821,
-0.0022644896525889635
],
[
0.00808884296566248,
0.009201674722135067,
0.008553828112781048
],
[
-0.0009471468511037529,
-0.000863558379933238,
-0.0009671587031334639
],
[
0.0055170790292322636,
0.006673288997262716,
0.005911495070904493
],
[
-0.004175177309662104,
-0.003950446844100952,
-0.004132050089538097
],
[
-0.022501077502965927,
-0.022951822727918625,
-0.023251155391335487
],
[
-0.023702742531895638,
-0.02418108470737934,
-0.024494413286447525
]
],
[
[
0.021557258442044258,
0.04249263182282448,
-0.0028185914270579815
],
[
0.015794998034834862,
0.04568354785442352,
